<?xml version="1.0"?>
<MethodSetup Method="BDT::BDTG">
  <GeneralInfo>
    <Info name="TMVA Release" value="4.2.1 [262657]"/>
    <Info name="ROOT Release" value="6.06/08 [394760]"/>
    <Info name="Creator" value="wallbank"/>
    <Info name="Date" value="Thu Sep 14 09:04:52 2017"/>
    <Info name="Host" value="Linux buildservice004.fnal.gov 2.6.32-642.4.2.el6.x86_64 #1 SMP Tue Aug 23 11:15:56 CDT 2016 x86_64 x86_64 x86_64 GNU/Linux"/>
    <Info name="Dir" value="/dune/app/users/wallbank/larsoft-fd/workspace/fdanalysis/nueCC/training"/>
    <Info name="Training events" value="104914"/>
    <Info name="TrainingTime" value="3.77304085e+02"/>
    <Info name="AnalysisType" value="Classification"/>
  </GeneralInfo>
  <Options>
    <Option name="V" modified="Yes">False</Option>
    <Option name="VerbosityLevel" modified="No">Default</Option>
    <Option name="VarTransform" modified="No">None</Option>
    <Option name="H" modified="Yes">False</Option>
    <Option name="CreateMVAPdfs" modified="No">False</Option>
    <Option name="IgnoreNegWeightsInTraining" modified="No">False</Option>
    <Option name="NTrees" modified="Yes">1000</Option>
    <Option name="MaxDepth" modified="Yes">2</Option>
    <Option name="MinNodeSize" modified="Yes">2.5%</Option>
    <Option name="nCuts" modified="Yes">20</Option>
    <Option name="BoostType" modified="Yes">Grad</Option>
    <Option name="AdaBoostR2Loss" modified="No">quadratic</Option>
    <Option name="UseBaggedBoost" modified="Yes">True</Option>
    <Option name="Shrinkage" modified="Yes">1.000000e-01</Option>
    <Option name="AdaBoostBeta" modified="No">5.000000e-01</Option>
    <Option name="UseRandomisedTrees" modified="No">False</Option>
    <Option name="UseNvars" modified="No">6</Option>
    <Option name="UsePoissonNvars" modified="No">True</Option>
    <Option name="BaggedSampleFraction" modified="Yes">5.000000e-01</Option>
    <Option name="UseYesNoLeaf" modified="No">True</Option>
    <Option name="NegWeightTreatment" modified="No">ignorenegweightsintraining</Option>
    <Option name="Css" modified="No">1.000000e+00</Option>
    <Option name="Cts_sb" modified="No">1.000000e+00</Option>
    <Option name="Ctb_ss" modified="No">1.000000e+00</Option>
    <Option name="Cbb" modified="No">1.000000e+00</Option>
    <Option name="NodePurityLimit" modified="No">5.000000e-01</Option>
    <Option name="SeparationType" modified="No">giniindex</Option>
    <Option name="DoBoostMonitor" modified="No">False</Option>
    <Option name="UseFisherCuts" modified="No">False</Option>
    <Option name="MinLinCorrForFisher" modified="No">8.000000e-01</Option>
    <Option name="UseExclusiveVars" modified="No">False</Option>
    <Option name="DoPreselection" modified="No">False</Option>
    <Option name="SigToBkgFraction" modified="No">1.000000e+00</Option>
    <Option name="PruneMethod" modified="No">nopruning</Option>
    <Option name="PruneStrength" modified="No">0.000000e+00</Option>
    <Option name="PruningValFraction" modified="No">5.000000e-01</Option>
    <Option name="nEventsMin" modified="No">0</Option>
    <Option name="UseBaggedGrad" modified="No">False</Option>
    <Option name="GradBaggingFraction" modified="No">5.000000e-01</Option>
    <Option name="UseNTrainEvents" modified="No">0</Option>
    <Option name="NNodesMax" modified="No">0</Option>
  </Options>
  <Variables NVar="30">
    <Variable VarIndex="0" Expression="evtcharge" Label="evtcharge" Title="Event Charge" Unit="ADC" Internal="evtcharge" Type="F" Min="6.92812317e+02" Max="6.65995300e+06"/>
    <Variable VarIndex="1" Expression="ntrack" Label="ntrack" Title="Number of Tracks" Unit="" Internal="ntrack" Type="F" Min="1.00000000e+00" Max="7.78000000e+02"/>
    <Variable VarIndex="2" Expression="maxtrklength" Label="maxtrklength" Title="Max Track Length" Unit="cm" Internal="maxtrklength" Type="F" Min="9.94879723e-01" Max="1.91490039e+03"/>
    <Variable VarIndex="3" Expression="avgtrklength" Label="avgtrklength" Title="Avg Track Length" Unit="cm" Internal="avgtrklength" Type="F" Min="9.30838704e-01" Max="9.95139893e+02"/>
    <Variable VarIndex="4" Expression="trkdedx" Label="trkdedx" Title="Track dE/dx" Unit="MeV/cm" Internal="trkdedx" Type="F" Min="0.00000000e+00" Max="1.00000000e+02"/>
    <Variable VarIndex="5" Expression="trkrch" Label="trkrch" Title="Signal Fluctuation" Unit="" Internal="trkrch" Type="F" Min="1.54341087e-02" Max="9.55595136e-01"/>
    <Variable VarIndex="6" Expression="trkrt" Label="trkrt" Title="Transverse Track Profile" Unit="" Internal="trkrt" Type="F" Min="1.61315314e-02" Max="1.00000000e+00"/>
    <Variable VarIndex="7" Expression="trkfr" Label="trkfr" Title="Fraction of Track Charge" Unit="" Internal="trkfr" Type="F" Min="1.47216851e-04" Max="9.99988675e-01"/>
    <Variable VarIndex="8" Expression="trkpida" Label="trkpida" Title="Track PIDA" Unit="" Internal="trkpida" Type="F" Min="0.00000000e+00" Max="9.99891996e-01"/>
    <Variable VarIndex="9" Expression="fract_5_wires" Label="fract_5_wires" Title="Maximum Fraction of Charge in 5 Wires" Unit="" Internal="fract_5_wires" Type="F" Min="0.00000000e+00" Max="1.00000000e+00"/>
    <Variable VarIndex="10" Expression="fract_10_wires" Label="fract_10_wires" Title="Maximum Fraction of Charge in 10 Wires" Unit="" Internal="fract_10_wires" Type="F" Min="0.00000000e+00" Max="1.00000000e+00"/>
    <Variable VarIndex="11" Expression="fract_50_wires" Label="fract_50_wires" Title="Maximum Fraction of Charge in 50 Wires" Unit="" Internal="fract_50_wires" Type="F" Min="0.00000000e+00" Max="1.00000000e+00"/>
    <Variable VarIndex="12" Expression="fract_100_wires" Label="fract_100_wires" Title="Maximum Fraction of Charge in 100 Wires" Unit="" Internal="fract_100_wires" Type="F" Min="0.00000000e+00" Max="1.00000000e+00"/>
    <Variable VarIndex="13" Expression="trkcosx" Label="trkcosx" Title="trkcosx" Unit="" Internal="trkcosx" Type="F" Min="-9.99998927e-01" Max="9.99700248e-01"/>
    <Variable VarIndex="14" Expression="trkcosy" Label="trkcosy" Title="trkcosy" Unit="" Internal="trkcosy" Type="F" Min="-9.99997377e-01" Max="9.99998510e-01"/>
    <Variable VarIndex="15" Expression="trkcosz" Label="trkcosz" Title="trkcosz" Unit="" Internal="trkcosz" Type="F" Min="-9.99997675e-01" Max="9.99999583e-01"/>
    <Variable VarIndex="16" Expression="ET" Label="ET" Title="Fractional Transverse Energy" Unit="" Internal="ET" Type="F" Min="0.00000000e+00" Max="1.00000012e+00"/>
    <Variable VarIndex="17" Expression="nshower" Label="nshower" Title="Number of Showers" Unit="" Internal="nshower" Type="F" Min="0.00000000e+00" Max="8.00000000e+01"/>
    <Variable VarIndex="18" Expression="showerdedx" Label="showerdedx" Title="Shower dE/dx" Unit="MeV/cm" Internal="showerdedx" Type="F" Min="0.00000000e+00" Max="1.00000000e+02"/>
    <Variable VarIndex="19" Expression="eshower" Label="eshower" Title="Shower Energy" Unit="GeV" Internal="eshower" Type="F" Min="0.00000000e+00" Max="4.59540176e+01"/>
    <Variable VarIndex="20" Expression="frshower" Label="frshower" Title="Fraction of Shower Charge" Unit="" Internal="frshower" Type="F" Min="0.00000000e+00" Max="1.00000000e+00"/>
    <Variable VarIndex="21" Expression="nhitspershw" Label="nhitspershw" Title="NHits per Shower Wire" Unit="" Internal="nhitspershw" Type="F" Min="0.00000000e+00" Max="1.90900898e+01"/>
    <Variable VarIndex="22" Expression="shwlength" Label="shwlength" Title="Shower Length" Unit="wires" Internal="shwlength" Type="F" Min="0.00000000e+00" Max="2.87100000e+03"/>
    <Variable VarIndex="23" Expression="shwmax" Label="shwmax" Title="Shower Maximum" Unit="" Internal="shwmax" Type="F" Min="0.00000000e+00" Max="9.99607563e-01"/>
    <Variable VarIndex="24" Expression="shwdisx" Label="shwdisx" Title="Shower vtxx - event vtxx" Unit="wires" Internal="shwdisx" Type="F" Min="-5.44553345e+02" Max="1.00000000e+03"/>
    <Variable VarIndex="25" Expression="shwdisy" Label="shwdisy" Title="Shower vtxy - event vtxy" Unit="wires" Internal="shwdisy" Type="F" Min="-6.53263489e+02" Max="1.00000000e+03"/>
    <Variable VarIndex="26" Expression="shwdisz" Label="shwdisz" Title="Shower vtxz - event vtxz" Unit="wires" Internal="shwdisz" Type="F" Min="-1.24484814e+03" Max="1.38411646e+03"/>
    <Variable VarIndex="27" Expression="shwcosx" Label="shwcosx" Title="shwcosx" Unit="" Internal="shwcosx" Type="F" Min="-2.00000000e+00" Max="1.00000000e+00"/>
    <Variable VarIndex="28" Expression="shwcosy" Label="shwcosy" Title="shwcosy" Unit="" Internal="shwcosy" Type="F" Min="-2.00000000e+00" Max="1.00000000e+00"/>
    <Variable VarIndex="29" Expression="shwcosz" Label="shwcosz" Title="shwcosz" Unit="" Internal="shwcosz" Type="F" Min="-2.00000000e+00" Max="1.00000000e+00"/>
  </Variables>
  <Spectators NSpec="0"/>
  <Classes NClass="2">
    <Class Name="Signal" Index="0"/>
    <Class Name="Background" Index="1"/>
  </Classes>
  <Transformations NTransformations="0"/>
  <MVAPdfs/>
  <Weights NTrees="1000" AnalysisType="1">
    <BinaryTree type="DecisionTree" boostWeight="1.0000000000000000e+00" itree="0">
      <Node pos="s" depth="0" NCoef="0" IVar="7" Cut="3.3353129029273987e-01" cType="1" res="2.7490719221532345e-03" rms="4.9999243021011353e-01" purity="5.0274908542633057e-01" nType="0">
        <Node pos="l" depth="1" NCoef="0" IVar="3" Cut="1.8581066131591797e+01" cType="1" res="1.5957699716091156e-01" rms="4.7385144233703613e-01" purity="6.5957701206207275e-01" nType="0">
          <Node pos="l" depth="2" NCoef="0" IVar="-1" Cut="0.0000000000000000e+00" cType="1" res="2.4511979892849922e-02" rms="4.4385489821434021e-01" purity="7.3020166158676147e-01" nType="-99"/>
          <Node pos="r" depth="2" NCoef="0" IVar="-1" Cut="0.0000000000000000e+00" cType="1" res="-3.4807242453098297e-02" rms="3.9685246348381042e-01" purity="1.9584850966930389e-01" nType="-99"/>
        </Node>
        <Node pos="r" depth="1" NCoef="0" IVar="5" Cut="3.5132110118865967e-01" cType="1" res="-4.0911597013473511e-01" rms="2.8744411468505859e-01" purity="9.0884029865264893e-02" nType="0">
          <Node pos="l" depth="2" NCoef="0" IVar="-1" Cut="0.0000000000000000e+00" cType="1" res="-2.1670486778020859e-02" rms="4.7946655750274658e-01" purity="3.5818383097648621e-01" nType="-99"/>
          <Node pos="r" depth="2" NCoef="0" IVar="-1" Cut="0.0000000000000000e+00" cType="1" res="-6.3080720603466034e-02" rms="2.4438090622425079e-01" purity="6.3791371881961823e-02" nType="-99"/>
        </Node>
      </Node>
    </BinaryTree>
    <BinaryTree type="DecisionTree" boostWeight="1.0000000000000000e+00" itree="1">
      <Node pos="s" depth="0" NCoef="0" IVar="1" Cut="2.9095237731933594e+01" cType="1" res="7.4447244405746460e-03" rms="4.8863226175308228e-01" purity="5.0554335117340088e-01" nType="0">
        <Node pos="l" depth="1" NCoef="0" IVar="1" Cut="1.4333333015441895e+01" cType="1" res="-2.5087770819664001e-01" rms="4.1675558686256409e-01" purity="2.3656301200389862e-01" nType="0">
          <Node pos="l" depth="2" NCoef="0" IVar="-1" Cut="0.0000000000000000e+00" cType="1" res="-6.0440089553594589e-02" rms="3.1726121902465820e-01" purity="1.1754111945629120e-01" nType="-99"/>
          <Node pos="r" depth="2" NCoef="0" IVar="-1" Cut="0.0000000000000000e+00" cType="1" res="-2.8675203211605549e-03" rms="4.9204054474830627e-01" purity="4.7491103410720825e-01" nType="-99"/>
        </Node>
        <Node pos="r" depth="1" NCoef="0" IVar="2" Cut="2.1659259033203125e+02" cType="1" res="2.4601748585700989e-01" rms="4.2463725805282593e-01" purity="7.5395911931991577e-01" nType="0">
          <Node pos="l" depth="2" NCoef="0" IVar="-1" Cut="0.0000000000000000e+00" cType="1" res="3.5181634128093719e-02" rms="3.2558056712150574e-01" purity="8.7884849309921265e-01" nType="-99"/>
          <Node pos="r" depth="2" NCoef="0" IVar="-1" Cut="0.0000000000000000e+00" cType="1" res="-3.3000577241182327e-02" rms="3.4673306345939636e-01" purity="1.4365358650684357e-01" nType="-99"/>
        </Node>
      </Node>
    </BinaryTree>
    <BinaryTree type="DecisionTree" boostWeight="1.0000000000000000e+00" itree="2">
      <Node pos="s" depth="0" NCoef="0" IVar="7" Cut="2.8592067956924438e-01" cType="1" res="7.9248398542404175e-03" rms="4.7480517625808716e-01" purity="5.0174319744110107e-01" nType="0">
        <Node pos="l" depth="1" NCoef="0" IVar="2" Cut="1.9214944458007812e+02" cType="1" res="1.6992442309856415e-01" rms="4.5177608728408813e-01" purity="6.8428575992584229e-01" nType="0">
          <Node pos="l" depth="2" NCoef="0" IVar="-1" Cut="0.0000000000000000e+00" cType="1" res="2.4501876905560493e-02" rms="4.2491424083709717e-01" purity="7.4636113643646240e-01" nType="-99"/>
          <Node pos="r" depth="2" NCoef="0" IVar="-1" Cut="0.0000000000000000e+00" cType="1" res="-2.7239089831709862e-02" rms="4.0047782659530640e-01" purity="2.1122811734676361e-01" nType="-99"/>
        </Node>
        <Node pos="r" depth="1" NCoef="0" IVar="5" Cut="3.3337071537971497e-01" cType="1" res="-3.2047602534294128e-01" rms="3.2809829711914062e-01" purity="1.3169810175895691e-01" nType="0">
          <Node pos="l" depth="2" NCoef="0" IVar="-1" Cut="0.0000000000000000e+00" cType="1" res="1.6084108501672745e-03" rms="4.8150306940078735e-01" purity="4.9485084414482117e-01" nType="-99"/>
          <Node pos="r" depth="2" NCoef="0" IVar="-1" Cut="0.0000000000000000e+00" cType="1" res="-5.2671916782855988e-02" rms="2.7595758438110352e-01" purity="8.5698917508125305e-02" nType="-99"/>
        </Node>
      </Node>
    </BinaryTree>
    <BinaryTree type="DecisionTree" boostWeight="1.0000000000000000e+00" itree="3">
      <Node pos="s" depth="0" NCoef="0" IVar="1" Cut="3.2523811340332031e+01" cType="1" res="1.2867940589785576e-02" rms="4.6530142426490784e-01" purity="5.0574666261672974e-01" nType="0">
        <Node pos="l" depth="1" NCoef="0" IVar="1" Cut="1.4285714149475098e+01" cType="1" res="-2.0353816449642181e-01" rms="4.1539692878723145e-01" purity="2.5683251023292542e-01" nType="0">
          <Node pos="l" depth="2" NCoef="0" IVar="-1" Cut="0.0000000000000000e+00" cType="1" res="-5.4188109934329987e-02" rms="3.1104889512062073e-01" purity="1.1444114893674850e-01" nType="-99"/>
          <Node pos="r" depth="2" NCoef="0" IVar="-1" Cut="0.0000000000000000e+00" cType="1" res="1.3127247802913189e-04" rms="4.8524445295333862e-01" purity="4.9973982572555542e-01" nType="-99"/>
        </Node>
        <Node pos="r" depth="1" NCoef="0" IVar="2" Cut="2.1647204589843750e+02" cType="1" res="2.4057470262050629e-01" rms="4.0202465653419495e-01" purity="7.6765900850296021e-01" nType="0">
          <Node pos="l" depth="2" NCoef="0" IVar="-1" Cut="0.0000000000000000e+00" cType="1" res="3.3207245171070099e-02" rms="3.1552627682685852e-01" purity="8.8690572977066040e-01" nType="-99"/>
          <Node pos="r" depth="2" NCoef="0" IVar="-1" Cut="0.0000000000000000e+00" cType="1" res="-2.9096426442265511e-02" rms="3.5435500741004944e-01" purity="1.5282119810581207e-01" nType="-99"/>
        </Node>
      </Node>
    </BinaryTree>
    <BinaryTree type="DecisionTree" boostWeight="1.0000000000000000e+00" itree="4">
      <Node pos="s" depth="0" NCoef="0" IVar="5" Cut="3.7426292896270752e-01" cType="1" res="1.3863796368241310e-02" rms="4.5398217439651489e-01" purity="5.0393915176391602e-01" nType="0">
        <Node pos="l" depth="1" NCoef="0" IVar="1" Cut="2.9095237731933594e+01" cType="1" res="2.3061271011829376e-01" rms="4.0159556269645691e-01" purity="7.6220226287841797e-01" nType="0">
          <Node pos="l" depth="2" NCoef="0" IVar="-1" Cut="0.0000000000000000e+00" cType="1" res="-4.0702573023736477e-03" rms="4.8017331957817078e-01" purity="4.5019194483757019e-01" nType="-99"/>
          <Node pos="r" depth="2" NCoef="0" IVar="-1" Cut="0.0000000000000000e+00" cType="1" res="3.1281735748052597e-02" rms="3.1873571872711182e-01" purity="8.7798857688903809e-01" nType="-99"/>
        </Node>
        <Node pos="r" depth="1" NCoef="0" IVar="7" Cut="2.3839926719665527e-01" cType="1" res="-1.7470088601112366e-01" rms="4.1068807244300842e-01" purity="2.7925857901573181e-01" nType="0">
          <Node pos="l" depth="2" NCoef="0" IVar="-1" Cut="0.0000000000000000e+00" cType="1" res="1.1010504094883800e-03" rms="4.7477930784225464e-01" purity="5.2440249919891357e-01" nType="-99"/>
          <Node pos="r" depth="2" NCoef="0" IVar="-1" Cut="0.0000000000000000e+00" cType="1" res="-4.4757746160030365e-02" rms="2.9696691036224365e-01" purity="1.0709513723850250e-01" nType="-99"/>
        </Node>
      </Node>
    </BinaryTree>
    <BinaryTree type="DecisionTree" boostWeight="1.0000000000000000e+00" itree="5">
      <Node pos="s" depth="0" NCoef="0" IVar="5" Cut="3.6531186103820801e-01" cType="1" res="1.3796622864902020e-02" rms="4.4536581635475159e-01" purity="5.0195038318634033e-01" nType="0">
        <Node pos="l" depth="1" NCoef="0" IVar="21" Cut="1.8181037902832031e+00" cType="1" res="2.3399977385997772e-01" rms="3.8912129402160645e-01" purity="7.7808666229248047e-01" nType="0">
          <Node pos="l" depth="2" NCoef="0" IVar="-1" Cut="0.0000000000000000e+00" cType="1" res="-9.0388441458344460e-03" rms="4.6731457114219666e-01" purity="4.2583760619163513e-01" nType="-99"/>
          <Node pos="r" depth="2" NCoef="0" IVar="-1" Cut="0.0000000000000000e+00" cType="1" res="3.0837716534733772e-02" rms="3.2045921683311462e-01" purity="8.7396556138992310e-01" nType="-99"/>
        </Node>
        <Node pos="r" depth="1" NCoef="0" IVar="7" Cut="2.3839201033115387e-01" cType="1" res="-1.6169039905071259e-01" rms="4.0781921148300171e-01" purity="2.8188839554786682e-01" nType="0">
          <Node pos="l" depth="2" NCoef="0" IVar="-1" Cut="0.0000000000000000e+00" cType="1" res="1.0473200818523765e-03" rms="4.7493624687194824e-01" purity="5.2592033147811890e-01" nType="-99"/>
          <Node pos="r" depth="2" NCoef="0" IVar="-1" Cut="0.0000000000000000e+00" cType="1" res="-4.2647045105695724e-02" rms="2.9459291696548462e-01" purity="1.0483184456825256e-01" nType="-99"/>
        </Node>
      </Node>
    </BinaryTree>
    <BinaryTree type="DecisionTree" boostWeight="1.0000000000000000e+00" itree="6">
      <Node pos="s" depth="0" NCoef="0" IVar="5" Cut="4.1969016194343567e-01" cType="1" res="1.5191074460744858e-02" rms="4.3839427828788757e-01" purity="5.0223314762115479e-01" nType="0">
        <Node pos="l" depth="1" NCoef="0" IVar="1" Cut="2.8666666030883789e+01" cType="1" res="1.8046368658542633e-01" rms="4.1335412859916687e-01" purity="7.2233700752258301e-01" nType="0">
          <Node pos="l" depth="2" NCoef="0" IVar="-1" Cut="0.0000000000000000e+00" cType="1" res="-8.8458415120840073e-03" rms="4.7088372707366943e-01" purity="4.0799874067306519e-01" nType="-99"/>
          <Node pos="r" depth="2" NCoef="0" IVar="-1" Cut="0.0000000000000000e+00" cType="1" res="2.7317987754940987e-02" rms="3.4086123108863831e-01" purity="8.5302823781967163e-01" nType="-99"/>
        </Node>
        <Node pos="r" depth="1" NCoef="0" IVar="2" Cut="2.0511787414550781e+02" cType="1" res="-1.9845716655254364e-01" rms="3.7256467342376709e-01" purity="2.1770453453063965e-01" nType="0">
          <Node pos="l" depth="2" NCoef="0" IVar="-1" Cut="0.0000000000000000e+00" cType="1" res="-1.3418049551546574e-02" rms="4.3515020608901978e-01" purity="3.5401144623756409e-01" nType="-99"/>
          <Node pos="r" depth="2" NCoef="0" IVar="-1" Cut="0.0000000000000000e+00" cType="1" res="-4.1239593178033829e-02" rms="2.0239666104316711e-01" purity="4.5351069420576096e-02" nType="-99"/>
        </Node>
      </Node>
    </BinaryTree>
    <BinaryTree type="DecisionTree" boostWeight="1.0000000000000000e+00" itree="7">
      <Node pos="s" depth="0" NCoef="0" IVar="1" Cut="2.9047618865966797e+01" cType="1" res="1.5352668240666389e-02" rms="4.3137550354003906e-01" purity="5.0080072879791260e-01" nType="0">
        <Node pos="l" depth="1" NCoef="0" IVar="1" Cut="1.7000000000000000e+01" cType="1" res="-1.7604622244834900e-01" rms="3.8946056365966797e-01" purity="2.3120990395545959e-01" nType="0">
          <Node pos="l" depth="2" NCoef="0" IVar="-1" Cut="0.0000000000000000e+00" cType="1" res="-4.3846346437931061e-02" rms="3.2114857435226440e-01" purity="1.2960076332092285e-01" nType="-99"/>
          <Node pos="r" depth="2" NCoef="0" IVar="-1" Cut="0.0000000000000000e+00" cType="1" res="1.3600788079202175e-03" rms="4.7501379251480103e-01" purity="4.8814609646797180e-01" nType="-99"/>
        </Node>
        <Node pos="r" depth="1" NCoef="0" IVar="2" Cut="1.4918934631347656e+02" cType="1" res="1.9653369486331940e-01" rms="3.8877883553504944e-01" purity="7.5599938631057739e-01" nType="0">
          <Node pos="l" depth="2" NCoef="0" IVar="-1" Cut="0.0000000000000000e+00" cType="1" res="3.0835876241326332e-02" rms="2.8930112719535828e-01" purity="9.0589666366577148e-01" nType="-99"/>
          <Node pos="r" depth="2" NCoef="0" IVar="-1" Cut="0.0000000000000000e+00" cType="1" res="-1.8120858818292618e-02" rms="4.2160451412200928e-01" purity="2.9179430007934570e-01" nType="-99"/>
        </Node>
      </Node>
    </BinaryTree>
    <BinaryTree type="DecisionTree" boostWeight="1.0000000000000000e+00" itree="8">
      <Node pos="s" depth="0" NCoef="0" IVar="5" Cut="3.5503664612770081e-01" cType="1" res="1.7914650961756706e-02" rms="4.2327007651329041e-01" purity="5.0115460157394409e-01" nType="0">
        <Node pos="l" depth="1" NCoef="0" IVar="21" Cut="1.8181037902832031e+00" cType="1" res="2.1574872732162476e-01" rms="3.7040591239929199e-01" purity="7.8798329830169678e-01" nType="0">
          <Node pos="l" depth="2" NCoef="0" IVar="-1" Cut="0.0000000000000000e+00" cType="1" res="-5.6117270141839981e-03" rms="4.5741826295852661e-01" purity="4.3922990560531616e-01" nType="-99"/>
          <Node pos="r" depth="2" NCoef="0" IVar="-1" Cut="0.0000000000000000e+00" cType="1" res="2.8355007991194725e-02" rms="3.1183817982673645e-01" purity="8.7877333164215088e-01" nType="-99"/>
        </Node>
        <Node pos="r" depth="1" NCoef="0" IVar="2" Cut="2.6997250366210938e+02" cType="1" res="-1.2287469953298569e-01" rms="4.0167382359504700e-01" purity="2.9703181982040405e-01" nType="0">
          <Node pos="l" depth="2" NCoef="0" IVar="-1" Cut="0.0000000000000000e+00" cType="1" res="-5.8184196241199970e-03" rms="4.3866363167762756e-01" purity="4.0570667386054993e-01" nType="-99"/>
          <Node pos="r" depth="2" NCoef="0" IVar="-1" Cut="0.0000000000000000e+00" cType="1" res="-4.0186695754528046e-02" rms="1.6675741970539093e-01" purity="2.8899200260639191e-02" nType="-99"/>
        </Node>
      </Node>
    </BinaryTree>
    <BinaryTree type="DecisionTree" boostWeight="1.0000000000000000e+00" itree="9">
      <Node pos="s" depth="0" NCoef="0" IVar="1" Cut="3.2523811340332031e+01" cType="1" res="1.9114563241600990e-02" rms="4.1738963127136230e-01" purity="5.0359624624252319e-01" nType="0">
        <Node pos="l" depth="1" NCoef="0" IVar="1" Cut="1.5761904716491699e+01" cType="1" res="-1.3936048746109009e-01" rms="3.9336159825325012e-01" purity="2.5734317302703857e-01" nType="0">
          <Node pos="l" depth="2" NCoef="0" IVar="-1" Cut="0.0000000000000000e+00" cType="1" res="-4.2588829994201660e-02" rms="3.1094589829444885e-01" purity="1.1920715123414993e-01" nType="-99"/>
          <Node pos="r" depth="2" NCoef="0" IVar="-1" Cut="0.0000000000000000e+00" cType="1" res="4.0099569596350193e-03" rms="4.6683296561241150e-01" purity="5.1550734043121338e-01" nType="-99"/>
        </Node>
        <Node pos="r" depth="1" NCoef="0" IVar="2" Cut="2.1632720947265625e+02" cType="1" res="1.8597558140754700e-01" rms="3.7475302815437317e-01" purity="7.6288008689880371e-01" nType="0">
          <Node pos="l" depth="2" NCoef="0" IVar="-1" Cut="0.0000000000000000e+00" cType="1" res="2.7509337291121483e-02" rms="3.1448203325271606e-01" purity="8.8323944807052612e-01" nType="-99"/>
          <Node pos="r" depth="2" NCoef="0" IVar="-1" Cut="0.0000000000000000e+00" cType="1" res="-2.6080667972564697e-02" rms="3.3797037601470947e-01" purity="1.4542494714260101e-01" nType="-99"/>
        </Node>
      </Node>
    </BinaryTree>
    <BinaryTree type="DecisionTree" boostWeight="1.0000000000000000e+00" itree="10">
      <Node pos="s" depth="0" NCoef="0" IVar="1" Cut="2.9428571701049805e+01" cType="1" res="1.4278084039688110e-02" rms="4.1130387783050537e-01" purity="4.9422597885131836e-01" nType="0">
        <Node pos="l" depth="1" NCoef="0" IVar="1" Cut="1.1666666984558105e+01" cType="1" res="-1.4271183311939240e-01" rms="3.8341733813285828e-01" purity="2.3240821063518524e-01" nType="0">
          <Node pos="l" depth="2" NCoef="0" IVar="-1" Cut="0.0000000000000000e+00" cType="1" res="-4.4114086776971817e-02" rms="2.8449407219886780e-01" purity="9.6260219812393188e-02" nType="-99"/>
          <Node pos="r" depth="2" NCoef="0" IVar="-1" Cut="0.0000000000000000e+00" cType="1" res="-3.2034581527113914e-03" rms="4.6178871393203735e-01" purity="4.1959840059280396e-01" nType="-99"/>
        </Node>
        <Node pos="r" depth="1" NCoef="0" IVar="2" Cut="1.9519749450683594e+02" cType="1" res="1.6731445491313934e-01" rms="3.7858882546424866e-01" purity="7.4945032596588135e-01" nType="0">
          <Node pos="l" depth="2" NCoef="0" IVar="-1" Cut="0.0000000000000000e+00" cType="1" res="2.6570854708552361e-02" rms="3.1915771961212158e-01" purity="8.7998163700103760e-01" nType="-99"/>
          <Node pos="r" depth="2" NCoef="0" IVar="-1" Cut="0.0000000000000000e+00" cType="1" res="-2.4423856288194656e-02" rms="3.5570356249809265e-01" purity="1.7043189704418182e-01" nType="-99"/>
        </Node>
      </Node>
    </BinaryTree>
    <BinaryTree type="DecisionTree" boostWeight="1.0000000000000000e+00" itree="11">
      <Node pos="s" depth="0" NCoef="0" IVar="5" Cut="4.1898077726364136e-01" cType="1" res="1.8209988251328468e-02" rms="4.0465661883354187e-01" purity="4.9809500575065613e-01" nType="0">
        <Node pos="l" depth="1" NCoef="0" IVar="21" Cut="1.5368303060531616e+00" cType="1" res="1.4792816340923309e-01" rms="3.9258977770805359e-01" purity="7.1681886911392212e-01" nType="0">
          <Node pos="l" depth="2" NCoef="0" IVar="-1" Cut="0.0000000000000000e+00" cType="1" res="-1.1993664316833019e-02" rms="4.3586036562919617e-01" purity="3.5488796234130859e-01" nType="-99"/>
          <Node pos="r" depth="2" NCoef="0" IVar="-1" Cut="0.0000000000000000e+00" cType="1" res="2.2512171417474747e-02" rms="3.5577434301376343e-01" purity="8.1666278839111328e-01" nType="-99"/>
        </Node>
        <Node pos="r" depth="1" NCoef="0" IVar="2" Cut="1.8031410217285156e+02" cType="1" res="-1.4508411288261414e-01" rms="3.5778504610061646e-01" purity="2.2275726497173309e-01" nType="0">
          <Node pos="l" depth="2" NCoef="0" IVar="-1" Cut="0.0000000000000000e+00" cType="1" res="-7.4073523283004761e-03" rms="4.1982963681221008e-01" purity="3.6845004558563232e-01" nType="-99"/>
          <Node pos="r" depth="2" NCoef="0" IVar="-1" Cut="0.0000000000000000e+00" cType="1" res="-3.4199878573417664e-02" rms="2.3250162601470947e-01" purity="6.4773663878440857e-02" nType="-99"/>
        </Node>
      </Node>
    </BinaryTree>
    <BinaryTree type="DecisionTree" boostWeight="1.0000000000000000e+00" itree="12">
      <Node pos="s" depth="0" NCoef="0" IVar="5" Cut="3.9673069119453430e-01" cType="1" res="1.9231420010328293e-02" rms="4.0089261531829834e-01" purity="4.9882534146308899e-01" nType="0">
        <Node pos="l" depth="1" NCoef="0" IVar="21" Cut="1.5235500335693359e+00" cType="1" res="1.5489417314529419e-01" rms="3.8347774744033813e-01" purity="7.3813736438751221e-01" nType="0">
          <Node pos="l" depth="2" NCoef="0" IVar="-1" Cut="0.0000000000000000e+00" cType="1" res="-1.1029059067368507e-02" rms="4.3665257096290588e-01" purity="3.6190551519393921e-01" nType="-99"/>
          <Node pos="r" depth="2" NCoef="0" IVar="-1" Cut="0.0000000000000000e+00" cType="1" res="2.2535448893904686e-02" rms="3.4870117902755737e-01" purity="8.2839453220367432e-01" nType="-99"/>
        </Node>
        <Node pos="r" depth="1" NCoef="0" IVar="2" Cut="2.7962976074218750e+02" cType="1" res="-1.2337560951709747e-01" rms="3.6795458197593689e-01" purity="2.4726350605487823e-01" nType="0">
          <Node pos="l" depth="2" NCoef="0" IVar="-1" Cut="0.0000000000000000e+00" cType="1" res="-8.2684298977255821e-03" rms="4.1567587852478027e-01" purity="3.5250407457351685e-01" nType="-99"/>
          <Node pos="r" depth="2" NCoef="0" IVar="-1" Cut="0.0000000000000000e+00" cType="1" res="-3.6968745291233063e-02" rms="1.6148209571838379e-01" purity="2.6370674371719360e-02" nType="-99"/>
        </Node>
      </Node>
    </BinaryTree>
    <BinaryTree type="DecisionTree" boostWeight="1.0000000000000000e+00" itree="13">
      <Node pos="s" depth="0" NCoef="0" IVar="1" Cut="3.2523811340332031e+01" cType="1" res="1.6587074846029282e-02" rms="3.9503869414329529e-01" purity="4.9518296122550964e-01" nType="0">
        <Node pos="l" depth="1" NCoef="0" IVar="1" Cut="1.7238094329833984e+01" cType="1" res="-1.1356884241104126e-01" rms="3.8006979227066040e-01" purity="2.5078302621841431e-01" nType="0">
          <Node pos="l" depth="2" NCoef="0" IVar="-1" Cut="0.0000000000000000e+00" cType="1" res="-3.4765966236591339e-02" rms="3.1906583905220032e-01" purity="1.3468270003795624e-01" nType="-99"/>
          <Node pos="r" depth="2" NCoef="0" IVar="-1" Cut="0.0000000000000000e+00" cType="1" res="5.5310619063675404e-03" rms="4.6013596653938293e-01" purity="5.3055459260940552e-01" nType="-99"/>
        </Node>
        <Node pos="r" depth="1" NCoef="0" IVar="2" Cut="1.9607557678222656e+02" cType="1" res="1.5667623281478882e-01" rms="3.6150401830673218e-01" purity="7.5823503732681274e-01" nType="0">
          <Node pos="l" depth="2" NCoef="0" IVar="-1" Cut="0.0000000000000000e+00" cType="1" res="2.4971725419163704e-02" rms="3.1018948554992676e-01" purity="8.8752645254135132e-01" nType="-99"/>
          <Node pos="r" depth="2" NCoef="0" IVar="-1" Cut="0.0000000000000000e+00" cType="1" res="-2.1010030061006546e-02" rms="3.5887613892555237e-01" purity="1.8599452078342438e-01" nType="-99"/>
        </Node>
      </Node>
    </BinaryTree>
    <BinaryTree type="DecisionTree" boostWeight="1.0000000000000000e+00" itree="14">
      <Node pos="s" depth="0" NCoef="0" IVar="2" Cut="1.8327183532714844e+02" cType="1" res="1.9423754885792732e-02" rms="3.8894638419151306e-01" purity="4.9901631474494934e-01" nType="0">
        <Node pos="l" depth="1" NCoef="0" IVar="21" Cut="1.8181037902832031e+00" cType="1" res="9.6192263066768646e-02" rms="3.9172476530075073e-01" purity="6.3172769546508789e-01" nType="0">
          <Node pos="l" depth="2" NCoef="0" IVar="-1" Cut="0.0000000000000000e+00" cType="1" res="-1.5382784418761730e-02" rms="4.0726640820503235e-01" purity="3.0058959126472473e-01" nType="-99"/>
          <Node pos="r" depth="2" NCoef="0" IVar="-1" Cut="0.0000000000000000e+00" cType="1" res="2.4166047573089600e-02" rms="3.2863673567771912e-01" purity="8.5432022809982300e-01" nType="-99"/>
        </Node>
        <Node pos="r" depth="1" NCoef="0" IVar="2" Cut="3.4820794677734375e+02" cType="1" res="-2.0736032724380493e-01" rms="2.7573698759078979e-01" purity="1.0696977376937866e-01" nType="0">
          <Node pos="l" depth="2" NCoef="0" IVar="-1" Cut="0.0000000000000000e+00" cType="1" res="-1.8370505422353745e-02" rms="3.7143069505691528e-01" purity="2.1748872101306915e-01" nType="-99"/>
          <Node pos="r" depth="2" NCoef="0" IVar="-1" Cut="0.0000000000000000e+00" cType="1" res="-3.7709873169660568e-02" rms="1.2708614766597748e-01" purity="1.4547788538038731e-02" nType="-99"/>
        </Node>
      </Node>
    </BinaryTree>
    <BinaryTree type="DecisionTree" boostWeight="1.0000000000000000e+00" itree="15">
      <Node pos="s" depth="0" NCoef="0" IVar="2" Cut="1.8327159118652344e+02" cType="1" res="2.0829237997531891e-02" rms="3.8507068157196045e-01" purity="4.9877732992172241e-01" nType="0">
        <Node pos="l" depth="1" NCoef="0" IVar="21" Cut="1.8181037902832031e+00" cType="1" res="9.4764605164527893e-02" rms="3.8920587301254272e-01" purity="6.3328790664672852e-01" nType="0">
          <Node pos="l" depth="2" NCoef="0" IVar="-1" Cut="0.0000000000000000e+00" cType="1" res="-1.2243645265698433e-02" rms="4.1126963496208191e-01" purity="3.1110975146293640e-01" nType="-99"/>
          <Node pos="r" depth="2" NCoef="0" IVar="-1" Cut="0.0000000000000000e+00" cType="1" res="2.3263644427061081e-02" rms="3.2861080765724182e-01" purity="8.5443484783172607e-01" nType="-99"/>
        </Node>
        <Node pos="r" depth="1" NCoef="0" IVar="0" Cut="5.7670468750000000e+05" cType="1" res="-1.9355313479900360e-01" rms="2.7782255411148071e-01" purity="1.0875168442726135e-01" nType="0">
          <Node pos="l" depth="2" NCoef="0" IVar="-1" Cut="0.0000000000000000e+00" cType="1" res="-2.4705654010176659e-02" rms="2.8543373942375183e-01" purity="1.2589296698570251e-01" nType="-99"/>
          <Node pos="r" depth="2" NCoef="0" IVar="-1" Cut="0.0000000000000000e+00" cType="1" res="-3.1401958316564560e-02" rms="2.1914450824260712e-01" purity="5.8501765131950378e-02" nType="-99"/>
        </Node>
      </Node>
    </BinaryTree>
    <BinaryTree type="DecisionTree" boostWeight="1.0000000000000000e+00" itree="16">
      <Node pos="s" depth="0" NCoef="0" IVar="6" Cut="7.2135162353515625e-01" cType="1" res="1.9604738801717758e-02" rms="3.8052088022232056e-01" purity="5.0001984834671021e-01" nType="0">
        <Node pos="l" depth="1" NCoef="0" IVar="0" Cut="6.0145650000000000e+05" cType="1" res="1.0961277782917023e-01" rms="3.8513764739036560e-01" purity="6.8614900112152100e-01" nType="0">
          <Node pos="l" depth="2" NCoef="0" IVar="-1" Cut="0.0000000000000000e+00" cType="1" res="1.7042990773916245e-02" rms="3.6964103579521179e-01" purity="7.2722661495208740e-01" nType="-99"/>
          <Node pos="r" depth="2" NCoef="0" IVar="-1" Cut="0.0000000000000000e+00" cType="1" res="-2.3021863773465157e-02" rms="3.9530554413795471e-01" purity="3.4707537293434143e-01" nType="-99"/>
        </Node>
        <Node pos="r" depth="1" NCoef="0" IVar="1" Cut="2.6571428298950195e+01" cType="1" res="-1.3647371530532837e-01" rms="3.1663495302200317e-01" purity="1.7726255953311920e-01" nType="0">
          <Node pos="l" depth="2" NCoef="0" IVar="-1" Cut="0.0000000000000000e+00" cType="1" res="-3.4953653812408447e-02" rms="2.8708153963088989e-01" purity="1.0646551102399826e-01" nType="-99"/>
          <Node pos="r" depth="2" NCoef="0" IVar="-1" Cut="0.0000000000000000e+00" cType="1" res="5.8866752078756690e-04" rms="3.8332054018974304e-01" purity="4.6218213438987732e-01" nType="-99"/>
        </Node>
      </Node>
    </BinaryTree>
    <BinaryTree type="DecisionTree" boostWeight="1.0000000000000000e+00" itree="17">
      <Node pos="s" depth="0" NCoef="0" IVar="7" Cut="3.3342769742012024e-01" cType="1" res="1.8973590806126595e-02" rms="3.7735727429389954e-01" purity="4.9650365114212036e-01" nType="0">
        <Node pos="l" depth="1" NCoef="0" IVar="20" Cut="3.3313909173011780e-01" cType="1" res="8.9419752359390259e-02" rms="3.9372196793556213e-01" purity="6.5639758110046387e-01" nType="0">
          <Node pos="l" depth="2" NCoef="0" IVar="-1" Cut="0.0000000000000000e+00" cType="1" res="-1.7883203690871596e-03" rms="4.3257799744606018e-01" purity="4.6786841750144958e-01" nType="-99"/>
          <Node pos="r" depth="2" NCoef="0" IVar="-1" Cut="0.0000000000000000e+00" cType="1" res="2.1022757515311241e-02" rms="3.2821151614189148e-01" purity="8.2690566778182983e-01" nType="-99"/>
        </Node>
        <Node pos="r" depth="1" NCoef="0" IVar="3" Cut="4.8335491180419922e+01" cType="1" res="-1.6225519776344299e-01" rms="2.5362506508827209e-01" purity="8.5162699222564697e-02" nType="0">
          <Node pos="l" depth="2" NCoef="0" IVar="-1" Cut="0.0000000000000000e+00" cType="1" res="-2.6772098615765572e-02" rms="3.2479140162467957e-01" purity="1.4469261467456818e-01" nType="-99"/>
          <Node pos="r" depth="2" NCoef="0" IVar="-1" Cut="0.0000000000000000e+00" cType="1" res="-3.9551023393869400e-02" rms="5.8830060064792633e-02" purity="2.5331771466881037e-03" nType="-99"/>
        </Node>
      </Node>
    </BinaryTree>
    <BinaryTree type="DecisionTree" boostWeight="1.0000000000000000e+00" itree="18">
      <Node pos="s" depth="0" NCoef="0" IVar="1" Cut="2.9428571701049805e+01" cType="1" res="2.2645104676485062e-02" rms="3.7756726145744324e-01" purity="5.0188142061233521e-01" nType="0">
        <Node pos="l" depth="1" NCoef="0" IVar="1" Cut="1.1666666984558105e+01" cType="1" res="-8.8586807250976562e-02" rms="3.7066820263862610e-01" purity="2.3951655626296997e-01" nType="0">
          <Node pos="l" depth="2" NCoef="0" IVar="-1" Cut="0.0000000000000000e+00" cType="1" res="-3.6449976265430450e-02" rms="2.8354549407958984e-01" purity="9.7062163054943085e-02" nType="-99"/>
          <Node pos="r" depth="2" NCoef="0" IVar="-1" Cut="0.0000000000000000e+00" cType="1" res="3.2849819399416447e-04" rms="4.4541859626770020e-01" purity="4.2823475599288940e-01" nType="-99"/>
        </Node>
        <Node pos="r" depth="1" NCoef="0" IVar="0" Cut="6.7850175000000000e+05" cType="1" res="1.2856227159500122e-01" rms="3.5280686616897583e-01" purity="7.5171035528182983e-01" nType="0">
          <Node pos="l" depth="2" NCoef="0" IVar="-1" Cut="0.0000000000000000e+00" cType="1" res="2.0901160314679146e-02" rms="3.1714117527008057e-01" purity="8.3815586566925049e-01" nType="-99"/>
          <Node pos="r" depth="2" NCoef="0" IVar="-1" Cut="0.0000000000000000e+00" cType="1" res="-2.8862129896879196e-02" rms="3.4575662016868591e-01" purity="2.2650837898254395e-01" nType="-99"/>
        </Node>
      </Node>
    </BinaryTree>
    <BinaryTree type="DecisionTree" boostWeight="1.0000000000000000e+00" itree="19">
      <Node pos="s" depth="0" NCoef="0" IVar="5" Cut="3.9806059002876282e-01" cType="1" res="2.4737922474741936e-02" rms="3.7079373002052307e-01" purity="5.0539243221282959e-01" nType="0">
        <Node pos="l" depth="1" NCoef="0" IVar="20" Cut="4.2857143282890320e-01" cType="1" res="1.2791132926940918e-01" rms="3.6044716835021973e-01" purity="7.4599933624267578e-01" nType="0">
          <Node pos="l" depth="2" NCoef="0" IVar="-1" Cut="0.0000000000000000e+00" cType="1" res="4.6845315955579281e-03" rms="4.2046818137168884e-01" purity="5.7356762886047363e-01" nType="-99"/>
          <Node pos="r" depth="2" NCoef="0" IVar="-1" Cut="0.0000000000000000e+00" cType="1" res="2.3827971890568733e-02" rms="2.8246405720710754e-01" purity="8.8429218530654907e-01" nType="-99"/>
        </Node>
        <Node pos="r" depth="1" NCoef="0" IVar="2" Cut="2.0346147155761719e+02" cType="1" res="-8.6294077336788177e-02" rms="3.4906512498855591e-01" purity="2.4645881354808807e-01" nType="0">
          <Node pos="l" depth="2" NCoef="0" IVar="-1" Cut="0.0000000000000000e+00" cType="1" res="-2.6640715077519417e-03" rms="4.0773960947990417e-01" purity="3.8468417525291443e-01" nType="-99"/>
          <Node pos="r" depth="2" NCoef="0" IVar="-1" Cut="0.0000000000000000e+00" cType="1" res="-3.0328011140227318e-02" rms="2.0335699617862701e-01" purity="4.8814617097377777e-02" nType="-99"/>
        </Node>
      </Node>
    </BinaryTree>
    <BinaryTree type="DecisionTree" boostWeight="1.0000000000000000e+00" itree="20">
      <Node pos="s" depth="0" NCoef="0" IVar="2" Cut="1.8031314086914062e+02" cType="1" res="2.0062351599335670e-02" rms="3.6923277378082275e-01" purity="4.9782916903495789e-01" nType="0">
        <Node pos="l" depth="1" NCoef="0" IVar="1" Cut="3.1904762268066406e+01" cType="1" res="8.0390594899654388e-02" rms="3.7668320536613464e-01" purity="6.3095593452453613e-01" nType="0">
          <Node pos="l" depth="2" NCoef="0" IVar="-1" Cut="0.0000000000000000e+00" cType="1" res="-8.2351677119731903e-03" rms="4.1564053297042847e-01" purity="3.3217048645019531e-01" nType="-99"/>
          <Node pos="r" depth="2" NCoef="0" IVar="-1" Cut="0.0000000000000000e+00" cType="1" res="2.2289356216788292e-02" rms="2.9548355937004089e-01" purity="8.9721971750259399e-01" nType="-99"/>
        </Node>
        <Node pos="r" depth="1" NCoef="0" IVar="2" Cut="3.4256686401367188e+02" cType="1" res="-1.5134979784488678e-01" rms="2.8428742289543152e-01" purity="1.1957268416881561e-01" nType="0">
          <Node pos="l" depth="2" NCoef="0" IVar="-1" Cut="0.0000000000000000e+00" cType="1" res="-1.1525348760187626e-02" rms="3.8366556167602539e-01" purity="2.4394948780536652e-01" nType="-99"/>
          <Node pos="r" depth="2" NCoef="0" IVar="-1" Cut="0.0000000000000000e+00" cType="1" res="-3.3160593360662460e-02" rms="1.4110213518142700e-01" purity="1.9244177266955376e-02" nType="-99"/>
        </Node>
      </Node>
    </BinaryTree>
    <BinaryTree type="DecisionTree" boostWeight="1.0000000000000000e+00" itree="21">
      <Node pos="s" depth="0" NCoef="0" IVar="2" Cut="1.3646304321289062e+02" cType="1" res="2.3325487971305847e-02" rms="3.6462208628654480e-01" purity="5.0375181436538696e-01" nType="0">
        <Node pos="l" depth="1" NCoef="0" IVar="1" Cut="2.3476190567016602e+01" cType="1" res="9.1636471450328827e-02" rms="3.6670473217964172e-01" purity="6.5291333198547363e-01" nType="0">
          <Node pos="l" depth="2" NCoef="0" IVar="-1" Cut="0.0000000000000000e+00" cType="1" res="-1.5703545883297920e-02" rms="4.0446490049362183e-01" purity="2.6346638798713684e-01" nType="-99"/>
          <Node pos="r" depth="2" NCoef="0" IVar="-1" Cut="0.0000000000000000e+00" cType="1" res="2.2740317508578300e-02" rms="2.9727959632873535e-01" purity="8.9467132091522217e-01" nType="-99"/>
        </Node>
        <Node pos="r" depth="1" NCoef="0" IVar="2" Cut="2.5903607177734375e+02" cType="1" res="-1.2123183906078339e-01" rms="3.1457033753395081e-01" purity="1.8810121715068817e-01" nType="0">
          <Node pos="l" depth="2" NCoef="0" IVar="-1" Cut="0.0000000000000000e+00" cType="1" res="-5.8379168622195721e-03" rms="4.1339746117591858e-01" purity="3.7759602069854736e-01" nType="-99"/>
          <Node pos="r" depth="2" NCoef="0" IVar="-1" Cut="0.0000000000000000e+00" cType="1" res="-3.0050402507185936e-02" rms="1.8931171298027039e-01" purity="4.4381156563758850e-02" nType="-99"/>
        </Node>
      </Node>
    </BinaryTree>
    <BinaryTree type="DecisionTree" boostWeight="1.0000000000000000e+00" itree="22">
      <Node pos="s" depth="0" NCoef="0" IVar="5" Cut="3.2882112264633179e-01" cType="1" res="2.1791525185108185e-02" rms="3.6375629901885986e-01" purity="5.0105440616607666e-01" nType="0">
        <Node pos="l" depth="1" NCoef="0" IVar="22" Cut="6.3428569793701172e+01" cType="1" res="1.4859193563461304e-01" rms="3.1973817944526672e-01" purity="8.0809956789016724e-01" nType="0">
          <Node pos="l" depth="2" NCoef="0" IVar="-1" Cut="0.0000000000000000e+00" cType="1" res="-5.6139007210731506e-03" rms="4.1922450065612793e-01" purity="3.7753343582153320e-01" nType="-99"/>
          <Node pos="r" depth="2" NCoef="0" IVar="-1" Cut="0.0000000000000000e+00" cType="1" res="2.2100303322076797e-02" rms="2.8718730807304382e-01" purity="8.8398164510726929e-01" nType="-99"/>
        </Node>
        <Node pos="r" depth="1" NCoef="0" IVar="2" Cut="2.6660113525390625e+02" cType="1" res="-4.7260027378797531e-02" rms="3.6766663193702698e-01" purity="3.3384725451469421e-01" nType="0">
          <Node pos="l" depth="2" NCoef="0" IVar="-1" Cut="0.0000000000000000e+00" cType="1" res="-7.0187175879254937e-05" rms="4.0686920285224915e-01" purity="4.4495755434036255e-01" nType="-99"/>
          <Node pos="r" depth="2" NCoef="0" IVar="-1" Cut="0.0000000000000000e+00" cType="1" res="-2.9842432588338852e-02" rms="1.7640309035778046e-01" purity="3.3367212861776352e-02" nType="-99"/>
        </Node>
      </Node>
    </BinaryTree>
    <BinaryTree type="DecisionTree" boostWeight="1.0000000000000000e+00" itree="23">
      <Node pos="s" depth="0" NCoef="0" IVar="5" Cut="3.5580512881278992e-01" cType="1" res="1.8945531919598579e-02" rms="3.6055228114128113e-01" purity="4.9890270829200745e-01" nType="0">
        <Node pos="l" depth="1" NCoef="0" IVar="0" Cut="6.3510143750000000e+05" cType="1" res="1.2564754486083984e-01" rms="3.3676236867904663e-01" purity="7.8254026174545288e-01" nType="0">
          <Node pos="l" depth="2" NCoef="0" IVar="-1" Cut="0.0000000000000000e+00" cType="1" res="1.8845431506633759e-02" rms="3.1561425328254700e-01" purity="8.0772209167480469e-01" nType="-99"/>
          <Node pos="r" depth="2" NCoef="0" IVar="-1" Cut="0.0000000000000000e+00" cType="1" res="-2.2405205294489861e-02" rms="4.4713664054870605e-01" purity="4.9365335702896118e-01" nType="-99"/>
        </Node>
        <Node pos="r" depth="1" NCoef="0" IVar="7" Cut="3.3359056711196899e-01" cType="1" res="-5.7952631264925003e-02" rms="3.5754001140594482e-01" purity="2.9449036717414856e-01" nType="0">
          <Node pos="l" depth="2" NCoef="0" IVar="-1" Cut="0.0000000000000000e+00" cType="1" res="9.4245959189720452e-05" rms="4.2277681827545166e-01" purity="4.7310388088226318e-01" nType="-99"/>
          <Node pos="r" depth="2" NCoef="0" IVar="-1" Cut="0.0000000000000000e+00" cType="1" res="-3.2519821077585220e-02" rms="2.2127221524715424e-01" purity="5.5506963282823563e-02" nType="-99"/>
        </Node>
      </Node>
    </BinaryTree>
    <BinaryTree type="DecisionTree" boostWeight="1.0000000000000000e+00" itree="24">
      <Node pos="s" depth="0" NCoef="0" IVar="2" Cut="1.8327178955078125e+02" cType="1" res="1.9364096224308014e-02" rms="3.5767450928688049e-01" purity="4.9885076284408569e-01" nType="0">
        <Node pos="l" depth="1" NCoef="0" IVar="1" Cut="2.9047618865966797e+01" cType="1" res="7.0160001516342163e-02" rms="3.7013798952102661e-01" purity="6.3196390867233276e-01" nType="0">
          <Node pos="l" depth="2" NCoef="0" IVar="-1" Cut="0.0000000000000000e+00" cType="1" res="-8.1309853121638298e-03" rms="4.1129374504089355e-01" purity="3.1584766507148743e-01" nType="-99"/>
          <Node pos="r" depth="2" NCoef="0" IVar="-1" Cut="0.0000000000000000e+00" cType="1" res="1.9961772486567497e-02" rms="3.0273708701133728e-01" purity="8.8949835300445557e-01" nType="-99"/>
        </Node>
        <Node pos="r" depth="1" NCoef="0" IVar="0" Cut="6.0213962500000000e+05" cType="1" res="-1.3076925277709961e-01" rms="2.6637235283851624e-01" purity="1.0541883111000061e-01" nType="0">
          <Node pos="l" depth="2" NCoef="0" IVar="-1" Cut="0.0000000000000000e+00" cType="1" res="-1.9094791263341904e-02" rms="2.6822471618652344e-01" purity="1.1799269914627075e-01" nType="-99"/>
          <Node pos="r" depth="2" NCoef="0" IVar="-1" Cut="0.0000000000000000e+00" cType="1" res="-2.7361292392015457e-02" rms="2.3028819262981415e-01" purity="6.5043501555919647e-02" nType="-99"/>
        </Node>
      </Node>
    </BinaryTree>
    <BinaryTree type="DecisionTree" boostWeight="1.0000000000000000e+00" itree="25">
      <Node pos="s" depth="0" NCoef="0" IVar="5" Cut="3.1938067078590393e-01" cType="1" res="1.9031766802072525e-02" rms="3.5543540120124817e-01" purity="4.9952054023742676e-01" nType="0">
        <Node pos="l" depth="1" NCoef="0" IVar="12" Cut="3.8095238804817200e-01" cType="1" res="1.3982063531875610e-01" rms="3.0897408723831177e-01" purity="8.2158684730529785e-01" nType="0">
          <Node pos="l" depth="2" NCoef="0" IVar="-1" Cut="0.0000000000000000e+00" cType="1" res="-1.3460514135658741e-02" rms="4.1059756278991699e-01" purity="2.9597777128219604e-01" nType="-99"/>
          <Node pos="r" depth="2" NCoef="0" IVar="-1" Cut="0.0000000000000000e+00" cType="1" res="2.0599044859409332e-02" rms="2.9070737957954407e-01" purity="8.6879795789718628e-01" nType="-99"/>
        </Node>
        <Node pos="r" depth="1" NCoef="0" IVar="2" Cut="2.0511717224121094e+02" cType="1" res="-3.9147309958934784e-02" rms="3.6164987087249756e-01" purity="3.4439426660537720e-01" nType="0">
          <Node pos="l" depth="2" NCoef="0" IVar="-1" Cut="0.0000000000000000e+00" cType="1" res="1.6383919864892960e-03" rms="4.0355759859085083e-01" purity="4.8061099648475647e-01" nType="-99"/>
          <Node pos="r" depth="2" NCoef="0" IVar="-1" Cut="0.0000000000000000e+00" cType="1" res="-2.5753499940037727e-02" rms="2.2017484903335571e-01" purity="6.1574295163154602e-02" nType="-99"/>
        </Node>
      </Node>
    </BinaryTree>
    <BinaryTree type="DecisionTree" boostWeight="1.0000000000000000e+00" itree="26">
      <Node pos="s" depth="0" NCoef="0" IVar="21" Cut="1.8181037902832031e+00" cType="1" res="1.7099628224968910e-02" rms="3.5603907704353333e-01" purity="4.9910128116607666e-01" nType="0">
        <Node pos="l" depth="1" NCoef="0" IVar="1" Cut="1.4476190567016602e+01" cType="1" res="-7.0753425359725952e-02" rms="3.5698458552360535e-01" purity="2.3098948597908020e-01" nType="0">
          <Node pos="l" depth="2" NCoef="0" IVar="-1" Cut="0.0000000000000000e+00" cType="1" res="-3.1636804342269897e-02" rms="2.8866925835609436e-01" purity="9.9176779389381409e-02" nType="-99"/>
          <Node pos="r" depth="2" NCoef="0" IVar="-1" Cut="0.0000000000000000e+00" cType="1" res="1.5491703525185585e-03" rms="4.3570736050605774e-01" purity="4.4976940751075745e-01" nType="-99"/>
        </Node>
        <Node pos="r" depth="1" NCoef="0" IVar="2" Cut="1.3865930175781250e+02" cType="1" res="8.9256465435028076e-02" rms="3.3862116932868958e-01" purity="7.1931099891662598e-01" nType="0">
          <Node pos="l" depth="2" NCoef="0" IVar="-1" Cut="0.0000000000000000e+00" cType="1" res="1.9353020936250687e-02" rms="3.1114444136619568e-01" purity="8.6553776264190674e-01" nType="-99"/>
          <Node pos="r" depth="2" NCoef="0" IVar="-1" Cut="0.0000000000000000e+00" cType="1" res="-1.4490416273474693e-02" rms="3.4963151812553406e-01" purity="2.6203936338424683e-01" nType="-99"/>
        </Node>
      </Node>
    </BinaryTree>
    <BinaryTree type="DecisionTree" boostWeight="1.0000000000000000e+00" itree="27">
      <Node pos="s" depth="0" NCoef="0" IVar="5" Cut="3.1272205710411072e-01" cType="1" res="1.7545245587825775e-02" rms="3.5343328118324280e-01" purity="4.9590149521827698e-01" nType="0">
        <Node pos="l" depth="1" NCoef="0" IVar="22" Cut="5.9142856597900391e+01" cType="1" res="1.3069623708724976e-01" rms="3.0328258872032166e-01" purity="8.2150584459304810e-01" nType="0">
          <Node pos="l" depth="2" NCoef="0" IVar="-1" Cut="0.0000000000000000e+00" cType="1" res="-5.0789499655365944e-03" rms="4.1523411870002747e-01" purity="3.7491312623023987e-01" nType="-99"/>
          <Node pos="r" depth="2" NCoef="0" IVar="-1" Cut="0.0000000000000000e+00" cType="1" res="2.1001702174544334e-02" rms="2.7147921919822693e-01" purity="8.9562523365020752e-01" nType="-99"/>
        </Node>
        <Node pos="r" depth="1" NCoef="0" IVar="2" Cut="2.0997080993652344e+02" cType="1" res="-3.2615851610898972e-02" rms="3.6238583922386169e-01" purity="3.5155749320983887e-01" nType="0">
          <Node pos="l" depth="2" NCoef="0" IVar="-1" Cut="0.0000000000000000e+00" cType="1" res="1.6673116479068995e-03" rms="4.0178665518760681e-01" purity="4.8134920001029968e-01" nType="-99"/>
          <Node pos="r" depth="2" NCoef="0" IVar="-1" Cut="0.0000000000000000e+00" cType="1" res="-2.3938428610563278e-02" rms="2.2685207426548004e-01" purity="6.4264044165611267e-02" nType="-99"/>
        </Node>
      </Node>
    </BinaryTree>
    <BinaryTree type="DecisionTree" boostWeight="1.0000000000000000e+00" itree="28">
      <Node pos="s" depth="0" NCoef="0" IVar="7" Cut="3.8104888796806335e-01" cType="1" res="1.8328934907913208e-02" rms="3.5166305303573608e-01" purity="4.9942880868911743e-01" nType="0">
        <Node pos="l" depth="1" NCoef="0" IVar="3" Cut="1.5745375633239746e+01" cType="1" res="5.8642044663429260e-02" rms="3.7403792142868042e-01" purity="6.3590002059936523e-01" nType="0">
          <Node pos="l" depth="2" NCoef="0" IVar="-1" Cut="0.0000000000000000e+00" cType="1" res="1.4374747872352600e-02" rms="3.5949707031250000e-01" purity="7.4654537439346313e-01" nType="-99"/>
          <Node pos="r" depth="2" NCoef="0" IVar="-1" Cut="0.0000000000000000e+00" cType="1" res="-1.4021571725606918e-02" rms="3.8117370009422302e-01" purity="2.5543719530105591e-01" nType="-99"/>
        </Node>
        <Node pos="r" depth="1" NCoef="0" IVar="3" Cut="4.0219882965087891e+01" cType="1" res="-1.1206227540969849e-01" rms="2.2110888361930847e-01" purity="5.8017898350954056e-02" nType="0">
          <Node pos="l" depth="2" NCoef="0" IVar="-1" Cut="0.0000000000000000e+00" cType="1" res="-2.4217352271080017e-02" rms="3.1340369582176208e-01" purity="1.2054800242185593e-01" nType="-99"/>
          <Node pos="r" depth="2" NCoef="0" IVar="-1" Cut="0.0000000000000000e+00" cType="1" res="-3.6085799336433411e-02" rms="7.3843218386173248e-02" purity="4.2960373684763908e-03" nType="-99"/>
        </Node>
      </Node>
    </BinaryTree>
    <BinaryTree type="DecisionTree" boostWeight="1.0000000000000000e+00" itree="29">
      <Node pos="s" depth="0" NCoef="0" IVar="5" Cut="3.7359067797660828e-01" cType="1" res="1.9036449491977692e-02" rms="3.5062450170516968e-01" purity="5.0301927328109741e-01" nType="0">
        <Node pos="l" depth="1" NCoef="0" IVar="0" Cut="6.3510143750000000e+05" cType="1" res="9.3837291002273560e-02" rms="3.3844012022018433e-01" purity="7.6699393987655640e-01" nType="0">
          <Node pos="l" depth="2" NCoef="0" IVar="-1" Cut="0.0000000000000000e+00" cType="1" res="1.6220252960920334e-02" rms="3.1917932629585266e-01" purity="7.9417431354522705e-01" nType="-99"/>
          <Node pos="r" depth="2" NCoef="0" IVar="-1" Cut="0.0000000000000000e+00" cType="1" res="-2.7281910181045532e-02" rms="4.3708691000938416e-01" purity="4.4826763868331909e-01" nType="-99"/>
        </Node>
        <Node pos="r" depth="1" NCoef="0" IVar="1" Cut="2.7238094329833984e+01" cType="1" res="-4.6160660684108734e-02" rms="3.4803444147109985e-01" purity="2.7293634414672852e-01" nType="0">
          <Node pos="l" depth="2" NCoef="0" IVar="-1" Cut="0.0000000000000000e+00" cType="1" res="-1.9571023061871529e-02" rms="3.1994929909706116e-01" purity="1.5204198658466339e-01" nType="-99"/>
          <Node pos="r" depth="2" NCoef="0" IVar="-1" Cut="0.0000000000000000e+00" cType="1" res="3.2976183574646711e-03" rms="3.8650783896446228e-01" purity="5.0655055046081543e-01" nType="-99"/>
        </Node>
      </Node>
    </BinaryTree>
    <BinaryTree type="DecisionTree" boostWeight="1.0000000000000000e+00" itree="30">
      <Node pos="s" depth="0" NCoef="0" IVar="1" Cut="2.9428571701049805e+01" cType="1" res="1.5093936584889889e-02" rms="3.4867280721664429e-01" purity="4.9574568867683411e-01" nType="0">
        <Node pos="l" depth="1" NCoef="0" IVar="19" Cut="2.8882870078086853e-01" cType="1" res="-5.6375630199909210e-02" rms="3.5498926043510437e-01" purity="2.2998693585395813e-01" nType="0">
          <Node pos="l" depth="2" NCoef="0" IVar="-1" Cut="0.0000000000000000e+00" cType="1" res="-2.9902270063757896e-02" rms="3.0797776579856873e-01" purity="1.1754389852285385e-01" nType="-99"/>
          <Node pos="r" depth="2" NCoef="0" IVar="-1" Cut="0.0000000000000000e+00" cType="1" res="1.7799908528104424e-03" rms="3.9534202218055725e-01" purity="3.6866891384124756e-01" nType="-99"/>
        </Node>
        <Node pos="r" depth="1" NCoef="0" IVar="0" Cut="6.5093443750000000e+05" cType="1" res="8.3070881664752960e-02" rms="3.2842981815338135e-01" purity="7.4851715564727783e-01" nType="0">
          <Node pos="l" depth="2" NCoef="0" IVar="-1" Cut="0.0000000000000000e+00" cType="1" res="1.7277909442782402e-02" rms="3.0455559492111206e-01" purity="8.4444648027420044e-01" nType="-99"/>
          <Node pos="r" depth="2" NCoef="0" IVar="-1" Cut="0.0000000000000000e+00" cType="1" res="-2.6147678494453430e-02" rms="3.2752493023872375e-01" purity="2.2628082334995270e-01" nType="-99"/>
        </Node>
      </Node>
    </BinaryTree>
    <BinaryTree type="DecisionTree" boostWeight="1.0000000000000000e+00" itree="31">
      <Node pos="s" depth="0" NCoef="0" IVar="2" Cut="1.8327178955078125e+02" cType="1" res="1.9665703177452087e-02" rms="3.4632903337478638e-01" purity="5.0339007377624512e-01" nType="0">
        <Node pos="l" depth="1" NCoef="0" IVar="1" Cut="3.1904762268066406e+01" cType="1" res="5.7693909853696823e-02" rms="3.6115896701812744e-01" purity="6.3275158405303955e-01" nType="0">
          <Node pos="l" depth="2" NCoef="0" IVar="-1" Cut="0.0000000000000000e+00" cType="1" res="-4.2700283229351044e-03" rms="4.0909272432327271e-01" purity="3.3552914857864380e-01" nType="-99"/>
          <Node pos="r" depth="2" NCoef="0" IVar="-1" Cut="0.0000000000000000e+00" cType="1" res="1.7538065090775490e-02" rms="2.9568931460380554e-01" purity="8.9366149902343750e-01" nType="-99"/>
        </Node>
        <Node pos="r" depth="1" NCoef="0" IVar="0" Cut="5.9298812500000000e+05" cType="1" res="-9.5707200467586517e-02" rms="2.6535630226135254e-01" purity="1.1092299222946167e-01" nType="0">
          <Node pos="l" depth="2" NCoef="0" IVar="-1" Cut="0.0000000000000000e+00" cType="1" res="-1.4766060747206211e-02" rms="2.6920393109321594e-01" purity="1.2406161427497864e-01" nType="-99"/>
          <Node pos="r" depth="2" NCoef="0" IVar="-1" Cut="0.0000000000000000e+00" cType="1" res="-2.4359559640288353e-02" rms="2.3034083843231201e-01" purity="6.9789566099643707e-02" nType="-99"/>
        </Node>
      </Node>
    </BinaryTree>
    <BinaryTree type="DecisionTree" boostWeight="1.0000000000000000e+00" itree="32">
      <Node pos="s" depth="0" NCoef="0" IVar="1" Cut="3.2523811340332031e+01" cType="1" res="1.5663940459489822e-02" rms="3.4421589970588684e-01" purity="4.9589952826499939e-01" nType="0">
        <Node pos="l" depth="1" NCoef="0" IVar="1" Cut="1.8714284896850586e+01" cType="1" res="-4.5836456120014191e-02" rms="3.5721787810325623e-01" purity="2.4988795816898346e-01" nType="0">
          <Node pos="l" depth="2" NCoef="0" IVar="-1" Cut="0.0000000000000000e+00" cType="1" res="-2.1664498373866081e-02" rms="3.1669703125953674e-01" purity="1.4099344611167908e-01" nType="-99"/>
          <Node pos="r" depth="2" NCoef="0" IVar="-1" Cut="0.0000000000000000e+00" cType="1" res="6.7021460272371769e-03" rms="4.3211343884468079e-01" purity="5.3641414642333984e-01" nType="-99"/>
        </Node>
        <Node pos="r" depth="1" NCoef="0" IVar="0" Cut="6.7492937500000000e+05" cType="1" res="8.2262232899665833e-02" rms="3.1635016202926636e-01" purity="7.6230353116989136e-01" nType="0">
          <Node pos="l" depth="2" NCoef="0" IVar="-1" Cut="0.0000000000000000e+00" cType="1" res="1.7158523201942444e-02" rms="2.9278141260147095e-01" purity="8.5501158237457275e-01" nType="-99"/>
          <Node pos="r" depth="2" NCoef="0" IVar="-1" Cut="0.0000000000000000e+00" cType="1" res="-2.5760633870959282e-02" rms="3.3060714602470398e-01" purity="2.2699490189552307e-01" nType="-99"/>
        </Node>
      </Node>
    </BinaryTree>
    <BinaryTree type="DecisionTree" boostWeight="1.0000000000000000e+00" itree="33">
      <Node pos="s" depth="0" NCoef="0" IVar="2" Cut="2.7962945556640625e+02" cType="1" res="1.7697399482131004e-02" rms="3.4343469142913818e-01" purity="4.9836871027946472e-01" nType="0">
        <Node pos="l" depth="1" NCoef="0" IVar="21" Cut="1.6570950746536255e+00" cType="1" res="4.6336550265550613e-02" rms="3.6291766166687012e-01" purity="5.9463405609130859e-01" nType="0">
          <Node pos="l" depth="2" NCoef="0" IVar="-1" Cut="0.0000000000000000e+00" cType="1" res="-7.2677736170589924e-03" rms="3.8075545430183411e-01" purity="2.7092567086219788e-01" nType="-99"/>
          <Node pos="r" depth="2" NCoef="0" IVar="-1" Cut="0.0000000000000000e+00" cType="1" res="1.4115211553871632e-02" rms="3.4030625224113464e-01" purity="8.0610495805740356e-01" nType="-99"/>
        </Node>
        <Node pos="r" depth="1" NCoef="0" IVar="0" Cut="5.2266650000000000e+05" cType="1" res="-1.1929048597812653e-01" rms="1.7155835032463074e-01" purity="3.7909012287855148e-02" nType="0">
          <Node pos="l" depth="2" NCoef="0" IVar="-1" Cut="0.0000000000000000e+00" cType="1" res="-2.6046149432659149e-02" rms="1.7747651040554047e-01" purity="4.6004701405763626e-02" nType="-99"/>
          <Node pos="r" depth="2" NCoef="0" IVar="-1" Cut="0.0000000000000000e+00" cType="1" res="-2.5286439806222916e-02" rms="1.4210432767868042e-01" purity="2.2377612069249153e-02" nType="-99"/>
        </Node>
      </Node>
    </BinaryTree>
    <BinaryTree type="DecisionTree" boostWeight="1.0000000000000000e+00" itree="34">
      <Node pos="s" depth="0" NCoef="0" IVar="2" Cut="1.4031236267089844e+02" cType="1" res="1.7665291205048561e-02" rms="3.4160140156745911e-01" purity="4.9886325001716614e-01" nType="0">
        <Node pos="l" depth="1" NCoef="0" IVar="1" Cut="2.4761905670166016e+01" cType="1" res="5.7385157793760300e-02" rms="3.5105103254318237e-01" purity="6.4289844036102295e-01" nType="0">
          <Node pos="l" depth="2" NCoef="0" IVar="-1" Cut="0.0000000000000000e+00" cType="1" res="-9.2660309746861458e-03" rms="3.9766347408294678e-01" purity="2.6938587427139282e-01" nType="-99"/>
          <Node pos="r" depth="2" NCoef="0" IVar="-1" Cut="0.0000000000000000e+00" cType="1" res="1.7443753778934479e-02" rms="2.9821139574050903e-01" purity="8.9169907569885254e-01" nType="-99"/>
        </Node>
        <Node pos="r" depth="1" NCoef="0" IVar="0" Cut="6.1721237500000000e+05" cType="1" res="-6.9862529635429382e-02" rms="3.0187809467315674e-01" purity="1.8146325647830963e-01" nType="0">
          <Node pos="l" depth="2" NCoef="0" IVar="-1" Cut="0.0000000000000000e+00" cType="1" res="-8.2844924181699753e-03" rms="3.0436354875564575e-01" purity="2.0190393924713135e-01" nType="-99"/>
          <Node pos="r" depth="2" NCoef="0" IVar="-1" Cut="0.0000000000000000e+00" cType="1" res="-2.4834480136632919e-02" rms="2.6741406321525574e-01" purity="1.0762496292591095e-01" nType="-99"/>
        </Node>
      </Node>
    </BinaryTree>
    <BinaryTree type="DecisionTree" boostWeight="1.0000000000000000e+00" itree="35">
      <Node pos="s" depth="0" NCoef="0" IVar="21" Cut="1.8181037902832031e+00" cType="1" res="1.5174488537013531e-02" rms="3.3897161483764648e-01" purity="4.9679324030876160e-01" nType="0">
        <Node pos="l" depth="1" NCoef="0" IVar="3" Cut="2.9540081024169922e+01" cType="1" res="-5.1257289946079254e-02" rms="3.4392237663269043e-01" purity="2.2229464352130890e-01" nType="0">
          <Node pos="l" depth="2" NCoef="0" IVar="-1" Cut="0.0000000000000000e+00" cType="1" res="-3.6821630783379078e-03" rms="4.0761038661003113e-01" purity="3.2544469833374023e-01" nType="-99"/>
          <Node pos="r" depth="2" NCoef="0" IVar="-1" Cut="0.0000000000000000e+00" cType="1" res="-3.4391410648822784e-02" rms="1.2762631475925446e-01" purity="1.5806375071406364e-02" nType="-99"/>
        </Node>
        <Node pos="r" depth="1" NCoef="0" IVar="0" Cut="6.3783218750000000e+05" cType="1" res="6.9851815700531006e-02" rms="3.2480332255363464e-01" purity="7.2272199392318726e-01" nType="0">
          <Node pos="l" depth="2" NCoef="0" IVar="-1" Cut="0.0000000000000000e+00" cType="1" res="1.4579936861991882e-02" rms="3.1176972389221191e-01" purity="7.8682357072830200e-01" nType="-99"/>
          <Node pos="r" depth="2" NCoef="0" IVar="-1" Cut="0.0000000000000000e+00" cType="1" res="-2.2162288427352905e-02" rms="3.4064164757728577e-01" purity="2.7701628208160400e-01" nType="-99"/>
        </Node>
      </Node>
    </BinaryTree>
    <BinaryTree type="DecisionTree" boostWeight="1.0000000000000000e+00" itree="36">
      <Node pos="s" depth="0" NCoef="0" IVar="2" Cut="2.7441018676757812e+02" cType="1" res="2.0967245101928711e-02" rms="3.4158566594123840e-01" purity="5.0556194782257080e-01" nType="0">
        <Node pos="l" depth="1" NCoef="0" IVar="21" Cut="1.8181037902832031e+00" cType="1" res="4.6480879187583923e-02" rms="3.6120152473449707e-01" purity="6.0299867391586304e-01" nType="0">
          <Node pos="l" depth="2" NCoef="0" IVar="-1" Cut="0.0000000000000000e+00" cType="1" res="-3.3203440252691507e-03" rms="3.8977840542793274e-01" purity="3.0284968018531799e-01" nType="-99"/>
          <Node pos="r" depth="2" NCoef="0" IVar="-1" Cut="0.0000000000000000e+00" cType="1" res="1.3733276166021824e-02" rms="3.3083912730216980e-01" purity="8.2515561580657959e-01" nType="-99"/>
        </Node>
        <Node pos="r" depth="1" NCoef="0" IVar="0" Cut="4.6642846875000000e+05" cType="1" res="-1.0029920935630798e-01" rms="1.8263991177082062e-01" purity="4.2444448918104172e-02" nType="0">
          <Node pos="l" depth="2" NCoef="0" IVar="-1" Cut="0.0000000000000000e+00" cType="1" res="-2.1826572716236115e-02" rms="1.8931019306182861e-01" purity="4.9465015530586243e-02" nType="-99"/>
          <Node pos="r" depth="2" NCoef="0" IVar="-1" Cut="0.0000000000000000e+00" cType="1" res="-2.4140335619449615e-02" rms="1.6047906875610352e-01" purity="3.2024484127759933e-02" nType="-99"/>
        </Node>
      </Node>
    </BinaryTree>
    <BinaryTree type="DecisionTree" boostWeight="1.0000000000000000e+00" itree="37">
      <Node pos="s" depth="0" NCoef="0" IVar="1" Cut="3.2523811340332031e+01" cType="1" res="1.4894848689436913e-02" rms="3.3757907152175903e-01" purity="4.9809536337852478e-01" nType="0">
        <Node pos="l" depth="1" NCoef="0" IVar="1" Cut="9.8571424484252930e+00" cType="1" res="-3.7669498473405838e-02" rms="3.5352754592895508e-01" purity="2.5132718682289124e-01" nType="0">
          <Node pos="l" depth="2" NCoef="0" IVar="-1" Cut="0.0000000000000000e+00" cType="1" res="-3.1745456159114838e-02" rms="2.5616759061813354e-01" purity="7.5738891959190369e-02" nType="-99"/>
          <Node pos="r" depth="2" NCoef="0" IVar="-1" Cut="0.0000000000000000e+00" cType="1" res="2.6205296162515879e-03" rms="4.1810929775238037e-01" purity="4.1626989841461182e-01" nType="-99"/>
        </Node>
        <Node pos="r" depth="1" NCoef="0" IVar="0" Cut="6.5076775000000000e+05" cType="1" res="7.1287930011749268e-02" rms="3.0982291698455811e-01" purity="7.6283788681030273e-01" nType="0">
          <Node pos="l" depth="2" NCoef="0" IVar="-1" Cut="0.0000000000000000e+00" cType="1" res="1.5793746337294579e-02" rms="2.9034131765365601e-01" purity="8.5899281501770020e-01" nType="-99"/>
          <Node pos="r" depth="2" NCoef="0" IVar="-1" Cut="0.0000000000000000e+00" cType="1" res="-2.2387970238924026e-02" rms="3.3077949285507202e-01" purity="2.4076284468173981e-01" nType="-99"/>
        </Node>
      </Node>
    </BinaryTree>
    <BinaryTree type="DecisionTree" boostWeight="1.0000000000000000e+00" itree="38">
      <Node pos="s" depth="0" NCoef="0" IVar="5" Cut="3.3014109730720520e-01" cType="1" res="1.7313547432422638e-02" rms="3.3558186888694763e-01" purity="5.0228363275527954e-01" nType="0">
        <Node pos="l" depth="1" NCoef="0" IVar="29" Cut="7.1427667140960693e-01" cType="1" res="8.8823273777961731e-02" rms="3.0027532577514648e-01" purity="8.0911874771118164e-01" nType="0">
          <Node pos="l" depth="2" NCoef="0" IVar="-1" Cut="0.0000000000000000e+00" cType="1" res="4.0844464674592018e-03" rms="3.7116801738739014e-01" purity="6.1847037076950073e-01" nType="-99"/>
          <Node pos="r" depth="2" NCoef="0" IVar="-1" Cut="0.0000000000000000e+00" cType="1" res="1.9366862252354622e-02" rms="2.4796479940414429e-01" purity="9.1026180982589722e-01" nType="-99"/>
        </Node>
        <Node pos="r" depth="1" NCoef="0" IVar="2" Cut="3.6554830932617188e+02" cType="1" res="-2.2318385541439056e-02" rms="3.4735077619552612e-01" purity="3.3223029971122742e-01" nType="0">
          <Node pos="l" depth="2" NCoef="0" IVar="-1" Cut="0.0000000000000000e+00" cType="1" res="-1.9873652490787208e-04" rms="3.7995731830596924e-01" purity="4.0896442532539368e-01" nType="-99"/>
          <Node pos="r" depth="2" NCoef="0" IVar="-1" Cut="0.0000000000000000e+00" cType="1" res="-2.9723305255174637e-02" rms="1.0706789046525955e-01" purity="1.0616587474942207e-02" nType="-99"/>
        </Node>
      </Node>
    </BinaryTree>
    <BinaryTree type="DecisionTree" boostWeight="1.0000000000000000e+00" itree="39">
      <Node pos="s" depth="0" NCoef="0" IVar="2" Cut="2.0997131347656250e+02" cType="1" res="1.7122471705079079e-02" rms="3.3345720171928406e-01" purity="5.0306624174118042e-01" nType="0">
        <Node pos="l" depth="1" NCoef="0" IVar="1" Cut="3.2523811340332031e+01" cType="1" res="4.5124806463718414e-02" rms="3.5319057106971741e-01" purity="6.2520653009414673e-01" nType="0">
          <Node pos="l" depth="2" NCoef="0" IVar="-1" Cut="0.0000000000000000e+00" cType="1" res="-2.1951424423605204e-03" rms="3.9942464232444763e-01" purity="3.4125959873199463e-01" nType="-99"/>
          <Node pos="r" depth="2" NCoef="0" IVar="-1" Cut="0.0000000000000000e+00" cType="1" res="1.4890884980559349e-02" rms="2.9475006461143494e-01" purity="8.8791084289550781e-01" nType="-99"/>
        </Node>
        <Node pos="r" depth="1" NCoef="0" IVar="0" Cut="6.3295093750000000e+05" cType="1" res="-8.1243850290775299e-02" rms="2.2619776427745819e-01" purity="7.4013106524944305e-02" nType="0">
          <Node pos="l" depth="2" NCoef="0" IVar="-1" Cut="0.0000000000000000e+00" cType="1" res="-1.7335327342152596e-02" rms="2.3058901727199554e-01" purity="8.1918366253376007e-02" nType="-99"/>
          <Node pos="r" depth="2" NCoef="0" IVar="-1" Cut="0.0000000000000000e+00" cType="1" res="-2.1690843626856804e-02" rms="1.9976678490638733e-01" purity="4.7887813299894333e-02" nType="-99"/>
        </Node>
      </Node>
    </BinaryTree>
    <BinaryTree type="DecisionTree" boostWeight="1.0000000000000000e+00" itree="40">
      <Node pos="s" depth="0" NCoef="0" IVar="2" Cut="1.3707659912109375e+02" cType="1" res="1.9713526591658592e-02" rms="3.3835041522979736e-01" purity="5.0676655769348145e-01" nType="0">
        <Node pos="l" depth="1" NCoef="0" IVar="1" Cut="2.4761905670166016e+01" cType="1" res="5.3975831717252731e-02" rms="3.4864068031311035e-01" purity="6.5366458892822266e-01" nType="0">
          <Node pos="l" depth="2" NCoef="0" IVar="-1" Cut="0.0000000000000000e+00" cType="1" res="-4.7573545016348362e-03" rms="4.0615412592887878e-01" purity="2.8217437863349915e-01" nType="-99"/>
          <Node pos="r" depth="2" NCoef="0" IVar="-1" Cut="0.0000000000000000e+00" cType="1" res="1.5745729207992554e-02" rms="2.9561588168144226e-01" purity="8.9441919326782227e-01" nType="-99"/>
        </Node>
        <Node pos="r" depth="1" NCoef="0" IVar="0" Cut="6.4291793750000000e+05" cType="1" res="-5.3475748747587204e-02" rms="3.0251544713973999e-01" purity="1.9297085702419281e-01" nType="0">
          <Node pos="l" depth="2" NCoef="0" IVar="-1" Cut="0.0000000000000000e+00" cType="1" res="-6.5168677829205990e-03" rms="3.0379992723464966e-01" purity="2.1189558506011963e-01" nType="-99"/>
          <Node pos="r" depth="2" NCoef="0" IVar="-1" Cut="0.0000000000000000e+00" cType="1" res="-2.3975532501935959e-02" rms="2.7729594707489014e-01" purity="1.1486267298460007e-01" nType="-99"/>
        </Node>
      </Node>
    </BinaryTree>
    <BinaryTree type="DecisionTree" boostWeight="1.0000000000000000e+00" itree="41">
      <Node pos="s" depth="0" NCoef="0" IVar="2" Cut="2.7441012573242188e+02" cType="1" res="1.5041594393551350e-02" rms="3.3659631013870239e-01" purity="5.0090146064758301e-01" nType="0">
        <Node pos="l" depth="1" NCoef="0" IVar="21" Cut="2.3052456378936768e+00" cType="1" res="3.6084696650505066e-02" rms="3.5748007893562317e-01" purity="5.9741365909576416e-01" nType="0">
          <Node pos="l" depth="2" NCoef="0" IVar="-1" Cut="0.0000000000000000e+00" cType="1" res="-1.7064224230125546e-03" rms="3.9130148291587830e-01" purity="3.6832231283187866e-01" nType="-99"/>
          <Node pos="r" depth="2" NCoef="0" IVar="-1" Cut="0.0000000000000000e+00" cType="1" res="1.3867811299860477e-02" rms="3.0632424354553223e-01" purity="8.5974210500717163e-01" nType="-99"/>
        </Node>
        <Node pos="r" depth="1" NCoef="0" IVar="0" Cut="5.2266650000000000e+05" cType="1" res="-8.5627220571041107e-02" rms="1.7804963886737823e-01" purity="3.9193864911794662e-02" nType="0">
          <Node pos="l" depth="2" NCoef="0" IVar="-1" Cut="0.0000000000000000e+00" cType="1" res="-2.1609900519251823e-02" rms="1.8562483787536621e-01" purity="4.6556565910577774e-02" nType="-99"/>
          <Node pos="r" depth="2" NCoef="0" IVar="-1" Cut="0.0000000000000000e+00" cType="1" res="-2.3330511525273323e-02" rms="1.5044857561588287e-01" purity="2.4712761864066124e-02" nType="-99"/>
        </Node>
      </Node>
    </BinaryTree>
    <BinaryTree type="DecisionTree" boostWeight="1.0000000000000000e+00" itree="42">
      <Node pos="s" depth="0" NCoef="0" IVar="5" Cut="3.3241546154022217e-01" cType="1" res="1.3299919664859772e-02" rms="3.3227437734603882e-01" purity="4.9655538797378540e-01" nType="0">
        <Node pos="l" depth="1" NCoef="0" IVar="6" Cut="7.2135162353515625e-01" cType="1" res="7.6826095581054688e-02" rms="3.0294296145439148e-01" purity="8.0448788404464722e-01" nType="0">
          <Node pos="l" depth="2" NCoef="0" IVar="-1" Cut="0.0000000000000000e+00" cType="1" res="1.5201667323708534e-02" rms="2.9320040345191956e-01" purity="8.5398012399673462e-01" nType="-99"/>
          <Node pos="r" depth="2" NCoef="0" IVar="-1" Cut="0.0000000000000000e+00" cType="1" res="-1.4719779603183270e-02" rms="3.5496398806571960e-01" purity="3.2561260461807251e-01" nType="-99"/>
        </Node>
        <Node pos="r" depth="1" NCoef="0" IVar="0" Cut="5.5898618750000000e+05" cType="1" res="-2.2050324827432632e-02" rms="3.4246018528938293e-01" purity="3.2520097494125366e-01" nType="0">
          <Node pos="l" depth="2" NCoef="0" IVar="-1" Cut="0.0000000000000000e+00" cType="1" res="-1.7260288586840034e-03" rms="3.4975427389144897e-01" purity="3.5091149806976318e-01" nType="-99"/>
          <Node pos="r" depth="2" NCoef="0" IVar="-1" Cut="0.0000000000000000e+00" cType="1" res="-2.3942438885569572e-02" rms="2.4837094545364380e-01" purity="1.1299924552440643e-01" nType="-99"/>
        </Node>
      </Node>
    </BinaryTree>
    <BinaryTree type="DecisionTree" boostWeight="1.0000000000000000e+00" itree="43">
      <Node pos="s" depth="0" NCoef="0" IVar="2" Cut="2.7962963867187500e+02" cType="1" res="1.3233625330030918e-02" rms="3.3248099684715271e-01" purity="4.9710720777511597e-01" nType="0">
        <Node pos="l" depth="1" NCoef="0" IVar="3" Cut="2.7233621597290039e+01" cType="1" res="3.3837281167507172e-02" rms="3.5456764698028564e-01" purity="5.9553444385528564e-01" nType="0">
          <Node pos="l" depth="2" NCoef="0" IVar="-1" Cut="0.0000000000000000e+00" cType="1" res="8.6646648123860359e-03" rms="3.6386972665786743e-01" purity="6.5775513648986816e-01" nType="-99"/>
          <Node pos="r" depth="2" NCoef="0" IVar="-1" Cut="0.0000000000000000e+00" cType="1" res="-3.2420035451650620e-02" rms="2.0517201721668243e-01" purity="4.3194316327571869e-02" nType="-99"/>
        </Node>
        <Node pos="r" depth="1" NCoef="0" IVar="0" Cut="4.9139918750000000e+05" cType="1" res="-8.3393186330795288e-02" rms="1.6748221218585968e-01" purity="3.5504423081874847e-02" nType="0">
          <Node pos="l" depth="2" NCoef="0" IVar="-1" Cut="0.0000000000000000e+00" cType="1" res="-2.2352278232574463e-02" rms="1.7608793079853058e-01" purity="4.2720347642898560e-02" nType="-99"/>
          <Node pos="r" depth="2" NCoef="0" IVar="-1" Cut="0.0000000000000000e+00" cType="1" res="-2.3126125335693359e-02" rms="1.4331853389739990e-01" purity="2.3860385641455650e-02" nType="-99"/>
        </Node>
      </Node>
    </BinaryTree>
    <BinaryTree type="DecisionTree" boostWeight="1.0000000000000000e+00" itree="44">
      <Node pos="s" depth="0" NCoef="0" IVar="5" Cut="3.3014109730720520e-01" cType="1" res="1.3497978448867798e-02" rms="3.3544257283210754e-01" purity="4.9998646974563599e-01" nType="0">
        <Node pos="l" depth="1" NCoef="0" IVar="0" Cut="6.0046168750000000e+05" cType="1" res="7.1562536060810089e-02" rms="3.0221855640411377e-01" purity="8.0740672349929810e-01" nType="0">
          <Node pos="l" depth="2" NCoef="0" IVar="-1" Cut="0.0000000000000000e+00" cType="1" res="1.4781652018427849e-02" rms="2.8241088986396790e-01" purity="8.3127647638320923e-01" nType="-99"/>
          <Node pos="r" depth="2" NCoef="0" IVar="-1" Cut="0.0000000000000000e+00" cType="1" res="-1.5152702108025551e-02" rms="4.2751491069793701e-01" purity="5.7048577070236206e-01" nType="-99"/>
        </Node>
        <Node pos="r" depth="1" NCoef="0" IVar="0" Cut="4.7993659375000000e+05" cType="1" res="-1.8547398969531059e-02" rms="3.4831929206848145e-01" purity="3.3032360672950745e-01" nType="0">
          <Node pos="l" depth="2" NCoef="0" IVar="-1" Cut="0.0000000000000000e+00" cType="1" res="-4.7273468226194382e-04" rms="3.5751828551292419e-01" purity="3.5879424214363098e-01" nType="-99"/>
          <Node pos="r" depth="2" NCoef="0" IVar="-1" Cut="0.0000000000000000e+00" cType="1" res="-2.1836843341588974e-02" rms="2.6776471734046936e-01" purity="1.6062341630458832e-01" nType="-99"/>
        </Node>
      </Node>
    </BinaryTree>
    <BinaryTree type="DecisionTree" boostWeight="1.0000000000000000e+00" itree="45">
      <Node pos="s" depth="0" NCoef="0" IVar="1" Cut="3.8000000000000000e+01" cType="1" res="5.9540774673223495e-03" rms="3.2995495200157166e-01" purity="4.9348527193069458e-01" nType="0">
        <Node pos="l" depth="1" NCoef="0" IVar="19" Cut="5.7765740156173706e-01" cType="1" res="-3.2296795397996902e-02" rms="3.4846356511116028e-01" purity="2.8725025057792664e-01" nType="0">
          <Node pos="l" depth="2" NCoef="0" IVar="-1" Cut="0.0000000000000000e+00" cType="1" res="-1.8602177500724792e-02" rms="3.3934301137924194e-01" purity="1.7171131074428558e-01" nType="-99"/>
          <Node pos="r" depth="2" NCoef="0" IVar="-1" Cut="0.0000000000000000e+00" cType="1" res="7.0160976611077785e-03" rms="3.5402196645736694e-01" purity="5.1298445463180542e-01" nType="-99"/>
        </Node>
        <Node pos="r" depth="1" NCoef="0" IVar="0" Cut="6.7762250000000000e+05" cType="1" res="5.5393289774656296e-02" rms="2.9716253280639648e-01" purity="7.6004385948181152e-01" nType="0">
          <Node pos="l" depth="2" NCoef="0" IVar="-1" Cut="0.0000000000000000e+00" cType="1" res="1.4641057699918747e-02" rms="2.8031471371650696e-01" purity="8.6803710460662842e-01" nType="-99"/>
          <Node pos="r" depth="2" NCoef="0" IVar="-1" Cut="0.0000000000000000e+00" cType="1" res="-2.2459957748651505e-02" rms="3.1760561466217041e-01" purity="2.2029612958431244e-01" nType="-99"/>
        </Node>
      </Node>
    </BinaryTree>
    <BinaryTree type="DecisionTree" boostWeight="1.0000000000000000e+00" itree="46">
      <Node pos="s" depth="0" NCoef="0" IVar="5" Cut="3.1331810355186462e-01" cType="1" res="1.3119329698383808e-02" rms="3.3104789257049561e-01" purity="4.9855679273605347e-01" nType="0">
        <Node pos="l" depth="1" NCoef="0" IVar="20" Cut="4.2857143282890320e-01" cType="1" res="7.6740235090255737e-02" rms="2.8767549991607666e-01" purity="8.2263761758804321e-01" nType="0">
          <Node pos="l" depth="2" NCoef="0" IVar="-1" Cut="0.0000000000000000e+00" cType="1" res="4.2285709641873837e-03" rms="3.6954858899116516e-01" purity="6.3157510757446289e-01" nType="-99"/>
          <Node pos="r" depth="2" NCoef="0" IVar="-1" Cut="0.0000000000000000e+00" cType="1" res="1.9256291911005974e-02" rms="2.3032419383525848e-01" purity="9.2058324813842773e-01" nType="-99"/>
        </Node>
        <Node pos="r" depth="1" NCoef="0" IVar="0" Cut="4.7998031250000000e+05" cType="1" res="-1.4469167217612267e-02" rms="3.4454795718193054e-01" purity="3.5802277922630310e-01" nType="0">
          <Node pos="l" depth="2" NCoef="0" IVar="-1" Cut="0.0000000000000000e+00" cType="1" res="2.0353606669232249e-04" rms="3.5294920206069946e-01" purity="3.8844597339630127e-01" nType="-99"/>
          <Node pos="r" depth="2" NCoef="0" IVar="-1" Cut="0.0000000000000000e+00" cType="1" res="-2.0591529086232185e-02" rms="2.7264136075973511e-01" purity="1.7830717563629150e-01" nType="-99"/>
        </Node>
      </Node>
    </BinaryTree>
    <BinaryTree type="DecisionTree" boostWeight="1.0000000000000000e+00" itree="47">
      <Node pos="s" depth="0" NCoef="0" IVar="7" Cut="3.8103920221328735e-01" cType="1" res="1.3529370538890362e-02" rms="3.3228668570518494e-01" purity="5.0301575660705566e-01" nType="0">
        <Node pos="l" depth="1" NCoef="0" IVar="3" Cut="1.5748465538024902e+01" cType="1" res="3.6155253648757935e-02" rms="3.5652202367782593e-01" purity="6.3864433765411377e-01" nType="0">
          <Node pos="l" depth="2" NCoef="0" IVar="-1" Cut="0.0000000000000000e+00" cType="1" res="1.0402146726846695e-02" rms="3.4816190600395203e-01" purity="7.4932396411895752e-01" nType="-99"/>
          <Node pos="r" depth="2" NCoef="0" IVar="-1" Cut="0.0000000000000000e+00" cType="1" res="-8.5873575881123543e-03" rms="3.7113988399505615e-01" purity="2.5874537229537964e-01" nType="-99"/>
        </Node>
        <Node pos="r" depth="1" NCoef="0" IVar="1" Cut="6.2857141494750977e+00" cType="1" res="-6.0196924954652786e-02" rms="2.2116746008396149e-01" purity="6.1071094125509262e-02" nType="0">
          <Node pos="l" depth="2" NCoef="0" IVar="-1" Cut="0.0000000000000000e+00" cType="1" res="-3.5902932286262512e-02" rms="1.8120822310447693e-01" purity="3.4201283007860184e-02" nType="-99"/>
          <Node pos="r" depth="2" NCoef="0" IVar="-1" Cut="0.0000000000000000e+00" cType="1" res="-9.4131333753466606e-03" rms="2.6406729221343994e-01" purity="9.8729781806468964e-02" nType="-99"/>
        </Node>
      </Node>
    </BinaryTree>
    <BinaryTree type="DecisionTree" boostWeight="1.0000000000000000e+00" itree="48">
      <Node pos="s" depth="0" NCoef="0" IVar="7" Cut="3.8103607296943665e-01" cType="1" res="1.0739208199083805e-02" rms="3.3082109689712524e-01" purity="4.9660366773605347e-01" nType="0">
        <Node pos="l" depth="1" NCoef="0" IVar="0" Cut="7.2716187500000000e+05" cType="1" res="3.3464677631855011e-02" rms="3.5789659619331360e-01" purity="6.3512098789215088e-01" nType="0">
          <Node pos="l" depth="2" NCoef="0" IVar="-1" Cut="0.0000000000000000e+00" cType="1" res="7.8046647831797600e-03" rms="3.5841837525367737e-01" purity="6.7147374153137207e-01" nType="-99"/>
          <Node pos="r" depth="2" NCoef="0" IVar="-1" Cut="0.0000000000000000e+00" cType="1" res="-2.2134594619274139e-02" rms="3.1674218177795410e-01" purity="2.1039012074470520e-01" nType="-99"/>
        </Node>
        <Node pos="r" depth="1" NCoef="0" IVar="1" Cut="5.7619047164916992e+00" cType="1" res="-6.2258839607238770e-02" rms="2.0629206299781799e-01" purity="5.1662500947713852e-02" nType="0">
          <Node pos="l" depth="2" NCoef="0" IVar="-1" Cut="0.0000000000000000e+00" cType="1" res="-3.7929173558950424e-02" rms="1.6613118350505829e-01" purity="2.7981147170066833e-02" nType="-99"/>
          <Node pos="r" depth="2" NCoef="0" IVar="-1" Cut="0.0000000000000000e+00" cType="1" res="-1.4581724070012569e-02" rms="2.4148923158645630e-01" purity="7.8020744025707245e-02" nType="-99"/>
        </Node>
      </Node>
    </BinaryTree>
    <BinaryTree type="DecisionTree" boostWeight="1.0000000000000000e+00" itree="49">
      <Node pos="s" depth="0" NCoef="0" IVar="26" Cut="3.0068476200103760e+00" cType="1" res="1.3386795297265053e-02" rms="3.3163473010063171e-01" purity="5.0569695234298706e-01" nType="0">
        <Node pos="l" depth="1" NCoef="0" IVar="7" Cut="4.7625103592872620e-01" cType="1" res="6.3179679214954376e-02" rms="3.0315613746643066e-01" purity="6.5116721391677856e-01" nType="0">
          <Node pos="l" depth="2" NCoef="0" IVar="-1" Cut="0.0000000000000000e+00" cType="1" res="1.4211031608283520e-02" rms="3.1380501389503479e-01" purity="7.4600738286972046e-01" nType="-99"/>
          <Node pos="r" depth="2" NCoef="0" IVar="-1" Cut="0.0000000000000000e+00" cType="1" res="-3.2112360000610352e-02" rms="1.7056795954704285e-01" purity="3.1591728329658508e-02" nType="-99"/>
        </Node>
        <Node pos="r" depth="1" NCoef="0" IVar="0" Cut="5.8663693750000000e+05" cType="1" res="-1.7176350578665733e-02" rms="3.4441548585891724e-01" purity="4.1640657186508179e-01" nType="0">
          <Node pos="l" depth="2" NCoef="0" IVar="-1" Cut="0.0000000000000000e+00" cType="1" res="-1.2994472635909915e-03" rms="3.4598293900489807e-01" purity="4.3838098645210266e-01" nType="-99"/>
          <Node pos="r" depth="2" NCoef="0" IVar="-1" Cut="0.0000000000000000e+00" cType="1" res="-2.4087999016046524e-02" rms="3.1230825185775757e-01" purity="2.1435622870922089e-01" nType="-99"/>
        </Node>
      </Node>
    </BinaryTree>
    <BinaryTree type="DecisionTree" boostWeight="1.0000000000000000e+00" itree="50">
      <Node pos="s" depth="0" NCoef="0" IVar="26" Cut="7.4176549911499023e+00" cType="1" res="1.3812696561217308e-02" rms="3.2956764101982117e-01" purity="5.0423032045364380e-01" nType="0">
        <Node pos="l" depth="1" NCoef="0" IVar="7" Cut="4.7626221179962158e-01" cType="1" res="6.0538653284311295e-02" rms="3.0456182360649109e-01" purity="6.3264232873916626e-01" nType="0">
          <Node pos="l" depth="2" NCoef="0" IVar="-1" Cut="0.0000000000000000e+00" cType="1" res="1.3855936937034130e-02" rms="3.1499826908111572e-01" purity="7.2884237766265869e-01" nType="-99"/>
          <Node pos="r" depth="2" NCoef="0" IVar="-1" Cut="0.0000000000000000e+00" cType="1" res="-2.8176467865705490e-02" rms="1.9269618391990662e-01" purity="4.0114995092153549e-02" nType="-99"/>
        </Node>
        <Node pos="r" depth="1" NCoef="0" IVar="0" Cut="6.0005037500000000e+05" cType="1" res="-2.1762695163488388e-02" rms="3.4316146373748779e-01" purity="4.0646222233772278e-01" nType="0">
          <Node pos="l" depth="2" NCoef="0" IVar="-1" Cut="0.0000000000000000e+00" cType="1" res="-2.3439363576471806e-03" rms="3.4481015801429749e-01" purity="4.2843115329742432e-01" nType="-99"/>
          <Node pos="r" depth="2" NCoef="0" IVar="-1" Cut="0.0000000000000000e+00" cType="1" res="-2.4599352851510048e-02" rms="3.0979624390602112e-01" purity="1.9913373887538910e-01" nType="-99"/>
        </Node>
      </Node>
    </BinaryTree>
    <BinaryTree type="DecisionTree" boostWeight="1.0000000000000000e+00" itree="51">
      <Node pos="s" depth="0" NCoef="0" IVar="20" Cut="4.7619047760963440e-01" cType="1" res="8.5546933114528656e-03" rms="3.2977887988090515e-01" purity="4.9728187918663025e-01" nType="0">
        <Node pos="l" depth="1" NCoef="0" IVar="0" Cut="5.9339025000000000e+05" cType="1" res="-1.8482968211174011e-02" rms="3.5415613651275635e-01" purity="3.7282857298851013e-01" nType="0">
          <Node pos="l" depth="2" NCoef="0" IVar="-1" Cut="0.0000000000000000e+00" cType="1" res="-1.2415377423167229e-03" rms="3.5916218161582947e-01" purity="3.9956182241439819e-01" nType="-99"/>
          <Node pos="r" depth="2" NCoef="0" IVar="-1" Cut="0.0000000000000000e+00" cType="1" res="-2.5117941200733185e-02" rms="2.8410062193870544e-01" purity="1.3721290230751038e-01" nType="-99"/>
        </Node>
        <Node pos="r" depth="1" NCoef="0" IVar="7" Cut="3.8113227486610413e-01" cType="1" res="6.0872979462146759e-02" rms="2.6896268129348755e-01" purity="7.3810082674026489e-01" nType="0">
          <Node pos="l" depth="2" NCoef="0" IVar="-1" Cut="0.0000000000000000e+00" cType="1" res="1.5442263334989548e-02" rms="2.7544239163398743e-01" purity="8.7123173475265503e-01" nType="-99"/>
          <Node pos="r" depth="2" NCoef="0" IVar="-1" Cut="0.0000000000000000e+00" cType="1" res="-2.6632117107510567e-02" rms="1.9441431760787964e-01" purity="6.0963951051235199e-02" nType="-99"/>
        </Node>
      </Node>
    </BinaryTree>
    <BinaryTree type="DecisionTree" boostWeight="1.0000000000000000e+00" itree="52">
      <Node pos="s" depth="0" NCoef="0" IVar="5" Cut="2.8841325640678406e-01" cType="1" res="1.0348957031965256e-02" rms="3.2842606306076050e-01" purity="4.9898877739906311e-01" nType="0">
        <Node pos="l" depth="1" NCoef="0" IVar="22" Cut="6.3428569793701172e+01" cType="1" res="7.6480150222778320e-02" rms="2.7183005213737488e-01" purity="8.4074562788009644e-01" nType="0">
          <Node pos="l" depth="2" NCoef="0" IVar="-1" Cut="0.0000000000000000e+00" cType="1" res="-2.4737734347581863e-03" rms="4.0149369835853577e-01" purity="3.8861995935440063e-01" nType="-99"/>
          <Node pos="r" depth="2" NCoef="0" IVar="-1" Cut="0.0000000000000000e+00" cType="1" res="1.7549119889736176e-02" rms="2.4350449442863464e-01" purity="9.0916925668716431e-01" nType="-99"/>
        </Node>
        <Node pos="r" depth="1" NCoef="0" IVar="0" Cut="5.0658696875000000e+05" cType="1" res="-1.0248102247714996e-02" rms="3.4155264496803284e-01" purity="3.9254599809646606e-01" nType="0">
          <Node pos="l" depth="2" NCoef="0" IVar="-1" Cut="0.0000000000000000e+00" cType="1" res="7.0199923356994987e-04" rms="3.4765124320983887e-01" purity="4.2370855808258057e-01" nType="-99"/>
          <Node pos="r" depth="2" NCoef="0" IVar="-1" Cut="0.0000000000000000e+00" cType="1" res="-2.1887097507715225e-02" rms="2.7849951386451721e-01" purity="1.7763116955757141e-01" nType="-99"/>
        </Node>
      </Node>
    </BinaryTree>
    <BinaryTree type="DecisionTree" boostWeight="1.0000000000000000e+00" itree="53">
      <Node pos="s" depth="0" NCoef="0" IVar="1" Cut="2.9428571701049805e+01" cType="1" res="1.0304232127964497e-02" rms="3.2637885212898254e-01" purity="5.0078421831130981e-01" nType="0">
        <Node pos="l" depth="1" NCoef="0" IVar="1" Cut="2.1000000000000000e+01" cType="1" res="-2.7730980888009071e-02" rms="3.4579220414161682e-01" purity="2.2854354977607727e-01" nType="0">
          <Node pos="l" depth="2" NCoef="0" IVar="-1" Cut="0.0000000000000000e+00" cType="1" res="-1.3836300000548363e-02" rms="3.2144325971603394e-01" purity="1.5790063142776489e-01" nType="-99"/>
          <Node pos="r" depth="2" NCoef="0" IVar="-1" Cut="0.0000000000000000e+00" cType="1" res="7.7630942687392235e-03" rms="4.2848882079124451e-01" purity="5.4311281442642212e-01" nType="-99"/>
        </Node>
        <Node pos="r" depth="1" NCoef="0" IVar="0" Cut="6.9245225000000000e+05" cType="1" res="4.5852940529584885e-02" rms="3.0283877253532410e-01" purity="7.5522750616073608e-01" nType="0">
          <Node pos="l" depth="2" NCoef="0" IVar="-1" Cut="0.0000000000000000e+00" cType="1" res="1.1579467914998531e-02" rms="2.9606381058692932e-01" purity="8.3960318565368652e-01" nType="-99"/>
          <Node pos="r" depth="2" NCoef="0" IVar="-1" Cut="0.0000000000000000e+00" cType="1" res="-1.8365863710641861e-02" rms="3.1243962049484253e-01" purity="2.2279749810695648e-01" nType="-99"/>
        </Node>
      </Node>
    </BinaryTree>
    <BinaryTree type="DecisionTree" boostWeight="1.0000000000000000e+00" itree="54">
      <Node pos="s" depth="0" NCoef="0" IVar="26" Cut="3.0068476200103760e+00" cType="1" res="1.3211411423981190e-02" rms="3.2678088545799255e-01" purity="5.0505083799362183e-01" nType="0">
        <Node pos="l" depth="1" NCoef="0" IVar="6" Cut="8.6017161607742310e-01" cType="1" res="5.8713216334581375e-02" rms="3.0045244097709656e-01" purity="6.4862364530563354e-01" nType="0">
          <Node pos="l" depth="2" NCoef="0" IVar="-1" Cut="0.0000000000000000e+00" cType="1" res="1.4303423464298248e-02" rms="3.0715119838714600e-01" purity="7.5757491588592529e-01" nType="-99"/>
          <Node pos="r" depth="2" NCoef="0" IVar="-1" Cut="0.0000000000000000e+00" cType="1" res="-1.2277263216674328e-02" rms="2.4543499946594238e-01" purity="1.4693678915500641e-01" nType="-99"/>
        </Node>
        <Node pos="r" depth="1" NCoef="0" IVar="21" Cut="2.3052456378936768e+00" cType="1" res="-1.5023025684058666e-02" rms="3.3904433250427246e-01" purity="4.1596207022666931e-01" nType="0">
          <Node pos="l" depth="2" NCoef="0" IVar="-1" Cut="0.0000000000000000e+00" cType="1" res="-9.0717216953635216e-03" rms="3.4948265552520752e-01" purity="2.6117381453514099e-01" nType="-99"/>
          <Node pos="r" depth="2" NCoef="0" IVar="-1" Cut="0.0000000000000000e+00" cType="1" res="5.0152237527072430e-03" rms="3.1534194946289062e-01" purity="6.9083881378173828e-01" nType="-99"/>
        </Node>
      </Node>
    </BinaryTree>
    <BinaryTree type="DecisionTree" boostWeight="1.0000000000000000e+00" itree="55">
      <Node pos="s" depth="0" NCoef="0" IVar="2" Cut="3.5963159179687500e+02" cType="1" res="1.3357030227780342e-02" rms="3.2822212576866150e-01" purity="5.0204503536224365e-01" nType="0">
        <Node pos="l" depth="1" NCoef="0" IVar="3" Cut="1.6897680282592773e+01" cType="1" res="2.6553787291049957e-02" rms="3.4729757905006409e-01" purity="5.7609444856643677e-01" nType="0">
          <Node pos="l" depth="2" NCoef="0" IVar="-1" Cut="0.0000000000000000e+00" cType="1" res="9.0314392000436783e-03" rms="3.5081431269645691e-01" purity="7.0484715700149536e-01" nType="-99"/>
          <Node pos="r" depth="2" NCoef="0" IVar="-1" Cut="0.0000000000000000e+00" cType="1" res="-1.0892841033637524e-02" rms="3.2579243183135986e-01" purity="1.6962996125221252e-01" nType="-99"/>
        </Node>
        <Node pos="r" depth="1" NCoef="0" IVar="17" Cut="5.9047617912292480e+00" cType="1" res="-7.3180079460144043e-02" rms="1.2083366513252258e-01" purity="1.6469668596982956e-02" nType="0">
          <Node pos="l" depth="2" NCoef="0" IVar="-1" Cut="0.0000000000000000e+00" cType="1" res="-2.8264099732041359e-02" rms="1.2241402268409729e-01" purity="1.7424555495381355e-02" nType="-99"/>
          <Node pos="r" depth="2" NCoef="0" IVar="-1" Cut="0.0000000000000000e+00" cType="1" res="-2.2927766665816307e-02" rms="1.1450799554586411e-01" purity="1.4812259934842587e-02" nType="-99"/>
        </Node>
      </Node>
    </BinaryTree>
    <BinaryTree type="DecisionTree" boostWeight="1.0000000000000000e+00" itree="56">
      <Node pos="s" depth="0" NCoef="0" IVar="26" Cut="3.7561848163604736e+00" cType="1" res="9.0017393231391907e-03" rms="3.2543423771858215e-01" purity="5.0247639417648315e-01" nType="0">
        <Node pos="l" depth="1" NCoef="0" IVar="6" Cut="8.6223846673965454e-01" cType="1" res="5.0756014883518219e-02" rms="2.9728347063064575e-01" purity="6.4420598745346069e-01" nType="0">
          <Node pos="l" depth="2" NCoef="0" IVar="-1" Cut="0.0000000000000000e+00" cType="1" res="1.2850123457610607e-02" rms="3.0355346202850342e-01" purity="7.5205898284912109e-01" nType="-99"/>
          <Node pos="r" depth="2" NCoef="0" IVar="-1" Cut="0.0000000000000000e+00" cType="1" res="-1.2128293514251709e-02" rms="2.4870541691780090e-01" purity="1.3830234110355377e-01" nType="-99"/>
        </Node>
        <Node pos="r" depth="1" NCoef="0" IVar="2" Cut="1.3675274658203125e+02" cType="1" res="-1.7203155905008316e-02" rms="3.3930569887161255e-01" purity="4.1352719068527222e-01" nType="0">
          <Node pos="l" depth="2" NCoef="0" IVar="-1" Cut="0.0000000000000000e+00" cType="1" res="8.8859372772276402e-04" rms="3.6772233247756958e-01" purity="5.6364333629608154e-01" nType="-99"/>
          <Node pos="r" depth="2" NCoef="0" IVar="-1" Cut="0.0000000000000000e+00" cType="1" res="-1.3925342820584774e-02" rms="2.7735465764999390e-01" purity="1.4538502693176270e-01" nType="-99"/>
        </Node>
      </Node>
    </BinaryTree>
    <BinaryTree type="DecisionTree" boostWeight="1.0000000000000000e+00" itree="57">
      <Node pos="s" depth="0" NCoef="0" IVar="5" Cut="3.2882112264633179e-01" cType="1" res="4.5985397882759571e-03" rms="3.2790380716323853e-01" purity="4.9349138140678406e-01" nType="0">
        <Node pos="l" depth="1" NCoef="0" IVar="0" Cut="6.3542212500000000e+05" cType="1" res="5.0516266375780106e-02" rms="2.9947075247764587e-01" purity="8.0428206920623779e-01" nType="0">
          <Node pos="l" depth="2" NCoef="0" IVar="-1" Cut="0.0000000000000000e+00" cType="1" res="1.2250383384525776e-02" rms="2.8200083971023560e-01" purity="8.2949227094650269e-01" nType="-99"/>
          <Node pos="r" depth="2" NCoef="0" IVar="-1" Cut="0.0000000000000000e+00" cType="1" res="-1.4500309713184834e-02" rms="4.2687350511550903e-01" purity="5.3415918350219727e-01" nType="-99"/>
        </Node>
        <Node pos="r" depth="1" NCoef="0" IVar="15" Cut="-9.0474873781204224e-01" cType="1" res="-2.0137932151556015e-02" rms="3.3968046307563782e-01" purity="3.2606437802314758e-01" nType="0">
          <Node pos="l" depth="2" NCoef="0" IVar="-1" Cut="0.0000000000000000e+00" cType="1" res="-1.8626855686306953e-02" rms="2.8952366113662720e-01" purity="1.7201939225196838e-01" nType="-99"/>
          <Node pos="r" depth="2" NCoef="0" IVar="-1" Cut="0.0000000000000000e+00" cType="1" res="-1.5286689158529043e-03" rms="3.4842982888221741e-01" purity="3.6006200313568115e-01" nType="-99"/>
        </Node>
      </Node>
    </BinaryTree>
    <BinaryTree type="DecisionTree" boostWeight="1.0000000000000000e+00" itree="58">
      <Node pos="s" depth="0" NCoef="0" IVar="20" Cut="4.7619047760963440e-01" cType="1" res="8.1078913062810898e-03" rms="3.2619470357894897e-01" purity="4.9707162380218506e-01" nType="0">
        <Node pos="l" depth="1" NCoef="0" IVar="0" Cut="5.9358362500000000e+05" cType="1" res="-1.4666164293885231e-02" rms="3.5216110944747925e-01" purity="3.7171462178230286e-01" nType="0">
          <Node pos="l" depth="2" NCoef="0" IVar="-1" Cut="0.0000000000000000e+00" cType="1" res="-9.6267880871891975e-04" rms="3.5886996984481812e-01" purity="3.9961397647857666e-01" nType="-99"/>
          <Node pos="r" depth="2" NCoef="0" IVar="-1" Cut="0.0000000000000000e+00" cType="1" res="-2.2103166207671165e-02" rms="2.7396535873413086e-01" purity="1.3387902081012726e-01" nType="-99"/>
        </Node>
        <Node pos="r" depth="1" NCoef="0" IVar="7" Cut="4.2873197793960571e-01" cType="1" res="5.1745802164077759e-02" rms="2.6410868763923645e-01" purity="7.3727107048034668e-01" nType="0">
          <Node pos="l" depth="2" NCoef="0" IVar="-1" Cut="0.0000000000000000e+00" cType="1" res="1.4215569011867046e-02" rms="2.7436685562133789e-01" purity="8.6156016588211060e-01" nType="-99"/>
          <Node pos="r" depth="2" NCoef="0" IVar="-1" Cut="0.0000000000000000e+00" cType="1" res="-3.1883664429187775e-02" rms="1.5664415061473846e-01" purity="3.7514973431825638e-02" nType="-99"/>
        </Node>
      </Node>
    </BinaryTree>
    <BinaryTree type="DecisionTree" boostWeight="1.0000000000000000e+00" itree="59">
      <Node pos="s" depth="0" NCoef="0" IVar="26" Cut="3.5215773582458496e+00" cType="1" res="7.8644063323736191e-03" rms="3.2522293925285339e-01" purity="4.9979859590530396e-01" nType="0">
        <Node pos="l" depth="1" NCoef="0" IVar="6" Cut="9.0745151042938232e-01" cType="1" res="4.7776583582162857e-02" rms="2.9909163713455200e-01" purity="6.4272505044937134e-01" nType="0">
          <Node pos="l" depth="2" NCoef="0" IVar="-1" Cut="0.0000000000000000e+00" cType="1" res="1.2067480012774467e-02" rms="3.0678391456604004e-01" purity="7.2654777765274048e-01" nType="-99"/>
          <Node pos="r" depth="2" NCoef="0" IVar="-1" Cut="0.0000000000000000e+00" cType="1" res="-1.9640658050775528e-02" rms="2.2071251273155212e-01" purity="1.0967835783958435e-01" nType="-99"/>
        </Node>
        <Node pos="r" depth="1" NCoef="0" IVar="21" Cut="2.3052456378936768e+00" cType="1" res="-1.7153171822428703e-02" rms="3.3818861842155457e-01" purity="4.1021007299423218e-01" nType="0">
          <Node pos="l" depth="2" NCoef="0" IVar="-1" Cut="0.0000000000000000e+00" cType="1" res="-8.9109577238559723e-03" rms="3.4894663095474243e-01" purity="2.5323644280433655e-01" nType="-99"/>
          <Node pos="r" depth="2" NCoef="0" IVar="-1" Cut="0.0000000000000000e+00" cType="1" res="3.4939651377499104e-03" rms="3.1523567438125610e-01" purity="6.8748116493225098e-01" nType="-99"/>
        </Node>
      </Node>
    </BinaryTree>
    <BinaryTree type="DecisionTree" boostWeight="1.0000000000000000e+00" itree="60">
      <Node pos="s" depth="0" NCoef="0" IVar="5" Cut="2.8405153751373291e-01" cType="1" res="7.8194923698902130e-03" rms="3.2615464925765991e-01" purity="4.9889895319938660e-01" nType="0">
