<?xml version="1.0"?>
<MethodSetup Method="BDT::BDTG">
  <GeneralInfo>
    <Info name="TMVA Release" value="4.2.1 [262657]"/>
    <Info name="ROOT Release" value="6.06/08 [394760]"/>
    <Info name="Creator" value="wallbank"/>
    <Info name="Date" value="Mon Dec 19 04:15:57 2016"/>
    <Info name="Host" value="Linux buildservice004.fnal.gov 2.6.32-642.4.2.el6.x86_64 #1 SMP Tue Aug 23 11:15:56 CDT 2016 x86_64 x86_64 x86_64 GNU/Linux"/>
    <Info name="Dir" value="/dune/app/users/wallbank/larsoft-base/workspace/fdanalysis/nueCC/training"/>
    <Info name="Training events" value="63731"/>
    <Info name="TrainingTime" value="2.20143260e+02"/>
    <Info name="AnalysisType" value="Classification"/>
  </GeneralInfo>
  <Options>
    <Option name="V" modified="Yes">False</Option>
    <Option name="VerbosityLevel" modified="No">Default</Option>
    <Option name="VarTransform" modified="No">None</Option>
    <Option name="H" modified="Yes">False</Option>
    <Option name="CreateMVAPdfs" modified="No">False</Option>
    <Option name="IgnoreNegWeightsInTraining" modified="No">False</Option>
    <Option name="NTrees" modified="Yes">1000</Option>
    <Option name="MaxDepth" modified="Yes">2</Option>
    <Option name="MinNodeSize" modified="Yes">2.5%</Option>
    <Option name="nCuts" modified="Yes">20</Option>
    <Option name="BoostType" modified="Yes">Grad</Option>
    <Option name="AdaBoostR2Loss" modified="No">quadratic</Option>
    <Option name="UseBaggedBoost" modified="Yes">True</Option>
    <Option name="Shrinkage" modified="Yes">1.000000e-01</Option>
    <Option name="AdaBoostBeta" modified="No">5.000000e-01</Option>
    <Option name="UseRandomisedTrees" modified="No">False</Option>
    <Option name="UseNvars" modified="No">6</Option>
    <Option name="UsePoissonNvars" modified="No">True</Option>
    <Option name="BaggedSampleFraction" modified="Yes">5.000000e-01</Option>
    <Option name="UseYesNoLeaf" modified="No">True</Option>
    <Option name="NegWeightTreatment" modified="No">ignorenegweightsintraining</Option>
    <Option name="Css" modified="No">1.000000e+00</Option>
    <Option name="Cts_sb" modified="No">1.000000e+00</Option>
    <Option name="Ctb_ss" modified="No">1.000000e+00</Option>
    <Option name="Cbb" modified="No">1.000000e+00</Option>
    <Option name="NodePurityLimit" modified="No">5.000000e-01</Option>
    <Option name="SeparationType" modified="No">giniindex</Option>
    <Option name="DoBoostMonitor" modified="No">False</Option>
    <Option name="UseFisherCuts" modified="No">False</Option>
    <Option name="MinLinCorrForFisher" modified="No">8.000000e-01</Option>
    <Option name="UseExclusiveVars" modified="No">False</Option>
    <Option name="DoPreselection" modified="No">False</Option>
    <Option name="SigToBkgFraction" modified="No">1.000000e+00</Option>
    <Option name="PruneMethod" modified="No">nopruning</Option>
    <Option name="PruneStrength" modified="No">0.000000e+00</Option>
    <Option name="PruningValFraction" modified="No">5.000000e-01</Option>
    <Option name="nEventsMin" modified="No">0</Option>
    <Option name="UseBaggedGrad" modified="No">False</Option>
    <Option name="GradBaggingFraction" modified="No">5.000000e-01</Option>
    <Option name="UseNTrainEvents" modified="No">0</Option>
    <Option name="NNodesMax" modified="No">0</Option>
  </Options>
  <Variables NVar="30">
    <Variable VarIndex="0" Expression="evtcharge" Label="evtcharge" Title="Event Charge" Unit="ADC" Internal="evtcharge" Type="F" Min="5.42743652e+02" Max="3.19217100e+06"/>
    <Variable VarIndex="1" Expression="ntrack" Label="ntrack" Title="Number of Tracks" Unit="" Internal="ntrack" Type="F" Min="1.00000000e+00" Max="1.24000000e+02"/>
    <Variable VarIndex="2" Expression="maxtrklength" Label="maxtrklength" Title="Max Track Length" Unit="cm" Internal="maxtrklength" Type="F" Min="9.94442463e-01" Max="2.28504907e+03"/>
    <Variable VarIndex="3" Expression="avgtrklength" Label="avgtrklength" Title="Avg Track Length" Unit="cm" Internal="avgtrklength" Type="F" Min="9.68796313e-01" Max="1.01748376e+03"/>
    <Variable VarIndex="4" Expression="trkdedx" Label="trkdedx" Title="Track dE/dx" Unit="MeV/cm" Internal="trkdedx" Type="F" Min="0.00000000e+00" Max="1.00000000e+02"/>
    <Variable VarIndex="5" Expression="trkrch" Label="trkrch" Title="Signal Fluctuation" Unit="" Internal="trkrch" Type="F" Min="1.90725513e-02" Max="9.08634841e-01"/>
    <Variable VarIndex="6" Expression="trkrt" Label="trkrt" Title="Transverse Track Profile" Unit="" Internal="trkrt" Type="F" Min="3.66726257e-02" Max="1.00000000e+00"/>
    <Variable VarIndex="7" Expression="trkfr" Label="trkfr" Title="Fraction of Track Charge" Unit="" Internal="trkfr" Type="F" Min="2.45983538e-04" Max="9.99979138e-01"/>
    <Variable VarIndex="8" Expression="trkpida" Label="trkpida" Title="Track PIDA" Unit="" Internal="trkpida" Type="F" Min="0.00000000e+00" Max="9.99918520e-01"/>
    <Variable VarIndex="9" Expression="fract_5_wires" Label="fract_5_wires" Title="Maximum Fraction of Charge in 5 Wires" Unit="" Internal="fract_5_wires" Type="F" Min="0.00000000e+00" Max="1.00000000e+00"/>
    <Variable VarIndex="10" Expression="fract_10_wires" Label="fract_10_wires" Title="Maximum Fraction of Charge in 10 Wires" Unit="" Internal="fract_10_wires" Type="F" Min="0.00000000e+00" Max="1.00000000e+00"/>
    <Variable VarIndex="11" Expression="fract_50_wires" Label="fract_50_wires" Title="Maximum Fraction of Charge in 50 Wires" Unit="" Internal="fract_50_wires" Type="F" Min="0.00000000e+00" Max="1.00000000e+00"/>
    <Variable VarIndex="12" Expression="fract_100_wires" Label="fract_100_wires" Title="Maximum Fraction of Charge in 100 Wires" Unit="" Internal="fract_100_wires" Type="F" Min="0.00000000e+00" Max="1.00000000e+00"/>
    <Variable VarIndex="13" Expression="trkcosx" Label="trkcosx" Title="trkcosx" Unit="" Internal="trkcosx" Type="F" Min="-9.99757707e-01" Max="9.99999940e-01"/>
    <Variable VarIndex="14" Expression="trkcosy" Label="trkcosy" Title="trkcosy" Unit="" Internal="trkcosy" Type="F" Min="-9.99998212e-01" Max="9.99999225e-01"/>
    <Variable VarIndex="15" Expression="trkcosz" Label="trkcosz" Title="trkcosz" Unit="" Internal="trkcosz" Type="F" Min="-9.99998927e-01" Max="9.99999464e-01"/>
    <Variable VarIndex="16" Expression="ET" Label="ET" Title="Fractional Transverse Energy" Unit="" Internal="ET" Type="F" Min="0.00000000e+00" Max="1.00000000e+00"/>
    <Variable VarIndex="17" Expression="nshower" Label="nshower" Title="Number of Showers" Unit="" Internal="nshower" Type="F" Min="0.00000000e+00" Max="2.90000000e+01"/>
    <Variable VarIndex="18" Expression="showerdedx" Label="showerdedx" Title="Shower dE/dx" Unit="MeV/cm" Internal="showerdedx" Type="F" Min="0.00000000e+00" Max="1.00000000e+02"/>
    <Variable VarIndex="19" Expression="eshower" Label="eshower" Title="Shower Energy" Unit="GeV" Internal="eshower" Type="F" Min="0.00000000e+00" Max="2.04434414e+01"/>
    <Variable VarIndex="20" Expression="frshower" Label="frshower" Title="Fraction of Shower Charge" Unit="" Internal="frshower" Type="F" Min="0.00000000e+00" Max="1.00135958e+00"/>
    <Variable VarIndex="21" Expression="nhitspershw" Label="nhitspershw" Title="NHits per Shower Wire" Unit="" Internal="nhitspershw" Type="F" Min="0.00000000e+00" Max="9.41078854e+00"/>
    <Variable VarIndex="22" Expression="shwlength" Label="shwlength" Title="Shower Length" Unit="wires" Internal="shwlength" Type="F" Min="0.00000000e+00" Max="2.88000000e+03"/>
    <Variable VarIndex="23" Expression="shwmax" Label="shwmax" Title="Shower Maximum" Unit="" Internal="shwmax" Type="F" Min="0.00000000e+00" Max="9.99652803e-01"/>
    <Variable VarIndex="24" Expression="shwdisx" Label="shwdisx" Title="Shower vtxx - event vtxx" Unit="wires" Internal="shwdisx" Type="F" Min="-5.85373779e+02" Max="1.00000000e+03"/>
    <Variable VarIndex="25" Expression="shwdisy" Label="shwdisy" Title="Shower vtxy - event vtxy" Unit="wires" Internal="shwdisy" Type="F" Min="-6.81908081e+02" Max="1.00000000e+03"/>
    <Variable VarIndex="26" Expression="shwdisz" Label="shwdisz" Title="Shower vtxz - event vtxz" Unit="wires" Internal="shwdisz" Type="F" Min="-1.24343896e+03" Max="1.34239441e+03"/>
    <Variable VarIndex="27" Expression="shwcosx" Label="shwcosx" Title="shwcosx" Unit="" Internal="shwcosx" Type="F" Min="-2.00000000e+00" Max="1.00000000e+00"/>
    <Variable VarIndex="28" Expression="shwcosy" Label="shwcosy" Title="shwcosy" Unit="" Internal="shwcosy" Type="F" Min="-2.00000000e+00" Max="9.99999523e-01"/>
    <Variable VarIndex="29" Expression="shwcosz" Label="shwcosz" Title="shwcosz" Unit="" Internal="shwcosz" Type="F" Min="-2.00000000e+00" Max="9.99996126e-01"/>
  </Variables>
  <Spectators NSpec="0"/>
  <Classes NClass="2">
    <Class Name="Signal" Index="0"/>
    <Class Name="Background" Index="1"/>
  </Classes>
  <Transformations NTransformations="0"/>
  <MVAPdfs/>
  <Weights NTrees="1000" AnalysisType="1">
    <BinaryTree type="DecisionTree" boostWeight="1.0000000000000000e+00" itree="0">
      <Node pos="s" depth="0" NCoef="0" IVar="1" Cut="1.8428571701049805e+01" cType="1" res="3.9626257494091988e-03" rms="4.9998429417610168e-01" purity="5.0396257638931274e-01" nType="0">
        <Node pos="l" depth="1" NCoef="0" IVar="7" Cut="3.3452832698822021e-01" cType="1" res="-3.6248773336410522e-01" rms="3.4438735246658325e-01" purity="1.3751225173473358e-01" nType="0">
          <Node pos="l" depth="2" NCoef="0" IVar="-1" Cut="0.0000000000000000e+00" cType="1" res="-4.2330786585807800e-02" rms="4.4098159670829773e-01" purity="2.6434081792831421e-01" nType="-99"/>
          <Node pos="r" depth="2" NCoef="0" IVar="-1" Cut="0.0000000000000000e+00" cType="1" res="-7.0260562002658844e-02" rms="2.3355634510517120e-01" purity="5.7901095598936081e-02" nType="-99"/>
        </Node>
        <Node pos="r" depth="1" NCoef="0" IVar="2" Cut="2.2468705749511719e+02" cType="1" res="2.2728909552097321e-01" rms="4.4535341858863831e-01" purity="7.2728914022445679e-01" nType="0">
          <Node pos="l" depth="2" NCoef="0" IVar="-1" Cut="0.0000000000000000e+00" cType="1" res="3.2937299460172653e-02" rms="3.6725068092346191e-01" purity="8.3930355310440063e-01" nType="-99"/>
          <Node pos="r" depth="2" NCoef="0" IVar="-1" Cut="0.0000000000000000e+00" cType="1" res="-3.5175696015357971e-02" rms="3.7296059727668762e-01" purity="1.6698288917541504e-01" nType="-99"/>
        </Node>
      </Node>
    </BinaryTree>
    <BinaryTree type="DecisionTree" boostWeight="1.0000000000000000e+00" itree="1">
      <Node pos="s" depth="0" NCoef="0" IVar="1" Cut="1.8571428298950195e+01" cType="1" res="5.3184330463409424e-03" rms="4.8433670401573181e-01" purity="5.0080686807632446e-01" nType="0">
        <Node pos="l" depth="1" NCoef="0" IVar="7" Cut="3.8206028938293457e-01" cType="1" res="-3.4044945240020752e-01" rms="3.3413767814636230e-01" purity="1.2973932921886444e-01" nType="0">
          <Node pos="l" depth="2" NCoef="0" IVar="-1" Cut="0.0000000000000000e+00" cType="1" res="-4.4123332947492599e-02" rms="4.2553153634071350e-01" purity="2.3813629150390625e-01" nType="-99"/>
          <Node pos="r" depth="2" NCoef="0" IVar="-1" Cut="0.0000000000000000e+00" cType="1" res="-6.5547131001949310e-02" rms="2.0711146295070648e-01" purity="4.4912267476320267e-02" nType="-99"/>
        </Node>
        <Node pos="r" depth="1" NCoef="0" IVar="2" Cut="2.2635243225097656e+02" cType="1" res="2.1661193668842316e-01" rms="4.3818002939224243e-01" purity="7.2756063938140869e-01" nType="0">
          <Node pos="l" depth="2" NCoef="0" IVar="-1" Cut="0.0000000000000000e+00" cType="1" res="3.1530387699604034e-02" rms="3.6765927076339722e-01" purity="8.3882158994674683e-01" nType="-99"/>
          <Node pos="r" depth="2" NCoef="0" IVar="-1" Cut="0.0000000000000000e+00" cType="1" res="-3.5455863922834396e-02" rms="3.5511875152587891e-01" purity="1.4801895618438721e-01" nType="-99"/>
        </Node>
      </Node>
    </BinaryTree>
    <BinaryTree type="DecisionTree" boostWeight="1.0000000000000000e+00" itree="2">
      <Node pos="s" depth="0" NCoef="0" IVar="1" Cut="2.4428571701049805e+01" cType="1" res="9.5840152353048325e-03" rms="4.7045686841011047e-01" purity="5.0123918056488037e-01" nType="0">
        <Node pos="l" depth="1" NCoef="0" IVar="7" Cut="3.3452951908111572e-01" cType="1" res="-2.7499213814735413e-01" rms="3.7150415778160095e-01" purity="1.7910325527191162e-01" nType="0">
          <Node pos="l" depth="2" NCoef="0" IVar="-1" Cut="0.0000000000000000e+00" cType="1" res="-2.3475453257560730e-02" rms="4.6369007229804993e-01" purity="3.3379986882209778e-01" nType="-99"/>
          <Node pos="r" depth="2" NCoef="0" IVar="-1" Cut="0.0000000000000000e+00" cType="1" res="-6.1330784112215042e-02" rms="2.2941061854362488e-01" purity="5.7531859725713730e-02" nType="-99"/>
        </Node>
        <Node pos="r" depth="1" NCoef="0" IVar="2" Cut="2.5222776794433594e+02" cType="1" res="2.3670172691345215e-01" rms="4.1425520181655884e-01" purity="7.5833296775817871e-01" nType="0">
          <Node pos="l" depth="2" NCoef="0" IVar="-1" Cut="0.0000000000000000e+00" cType="1" res="3.1307544559240341e-02" rms="3.4619152545928955e-01" purity="8.5973292589187622e-01" nType="-99"/>
          <Node pos="r" depth="2" NCoef="0" IVar="-1" Cut="0.0000000000000000e+00" cType="1" res="-3.4546282142400742e-02" rms="3.3438229560852051e-01" purity="1.2826289236545563e-01" nType="-99"/>
        </Node>
      </Node>
    </BinaryTree>
    <BinaryTree type="DecisionTree" boostWeight="1.0000000000000000e+00" itree="3">
      <Node pos="s" depth="0" NCoef="0" IVar="1" Cut="2.4238094329833984e+01" cType="1" res="1.3040565885603428e-02" rms="4.5797166228294373e-01" purity="5.0166457891464233e-01" nType="0">
        <Node pos="l" depth="1" NCoef="0" IVar="7" Cut="3.3452951908111572e-01" cType="1" res="-2.5236427783966064e-01" rms="3.6909466981887817e-01" purity="1.7979098856449127e-01" nType="0">
          <Node pos="l" depth="2" NCoef="0" IVar="-1" Cut="0.0000000000000000e+00" cType="1" res="-2.1524591371417046e-02" rms="4.6354827284812927e-01" purity="3.3523082733154297e-01" nType="-99"/>
          <Node pos="r" depth="2" NCoef="0" IVar="-1" Cut="0.0000000000000000e+00" cType="1" res="-5.6423842906951904e-02" rms="2.3053392767906189e-01" purity="5.7704895734786987e-02" nType="-99"/>
        </Node>
        <Node pos="r" depth="1" NCoef="0" IVar="2" Cut="3.3005053710937500e+02" cType="1" res="2.2534884512424469e-01" rms="4.0879949927330017e-01" purity="7.5914454460144043e-01" nType="0">
          <Node pos="l" depth="2" NCoef="0" IVar="-1" Cut="0.0000000000000000e+00" cType="1" res="2.8464665636420250e-02" rms="3.6341118812561035e-01" purity="8.3882665634155273e-01" nType="-99"/>
          <Node pos="r" depth="2" NCoef="0" IVar="-1" Cut="0.0000000000000000e+00" cType="1" res="-4.1117884218692780e-02" rms="1.9957326352596283e-01" purity="4.1556421667337418e-02" nType="-99"/>
        </Node>
      </Node>
    </BinaryTree>
    <BinaryTree type="DecisionTree" boostWeight="1.0000000000000000e+00" itree="4">
      <Node pos="s" depth="0" NCoef="0" IVar="1" Cut="1.8571428298950195e+01" cType="1" res="1.0586417280137539e-02" rms="4.4658452272415161e-01" purity="4.9448764324188232e-01" nType="0">
        <Node pos="l" depth="1" NCoef="0" IVar="1" Cut="1.2333333015441895e+01" cType="1" res="-2.7336525917053223e-01" rms="3.2422563433647156e-01" purity="1.2521696090698242e-01" nType="0">
          <Node pos="l" depth="2" NCoef="0" IVar="-1" Cut="0.0000000000000000e+00" cType="1" res="-5.6052427738904953e-02" rms="2.7270963788032532e-01" purity="8.3820797502994537e-02" nType="-99"/>
          <Node pos="r" depth="2" NCoef="0" IVar="-1" Cut="0.0000000000000000e+00" cType="1" res="-2.0697899162769318e-02" rms="4.4188749790191650e-01" purity="2.8139552474021912e-01" nType="-99"/>
        </Node>
        <Node pos="r" depth="1" NCoef="0" IVar="3" Cut="2.0547369003295898e+01" cType="1" res="1.8394337594509125e-01" rms="4.2159360647201538e-01" purity="7.1993321180343628e-01" nType="0">
          <Node pos="l" depth="2" NCoef="0" IVar="-1" Cut="0.0000000000000000e+00" cType="1" res="2.6482298970222473e-02" rms="3.7744539976119995e-01" purity="8.1686151027679443e-01" nType="-99"/>
          <Node pos="r" depth="2" NCoef="0" IVar="-1" Cut="0.0000000000000000e+00" cType="1" res="-3.8704186677932739e-02" rms="2.7891534566879272e-01" purity="9.2975281178951263e-02" nType="-99"/>
        </Node>
      </Node>
    </BinaryTree>
    <BinaryTree type="DecisionTree" boostWeight="1.0000000000000000e+00" itree="5">
      <Node pos="s" depth="0" NCoef="0" IVar="1" Cut="2.4238094329833984e+01" cType="1" res="1.7087165266275406e-02" rms="4.3572393059730530e-01" purity="4.9786937236785889e-01" nType="0">
        <Node pos="l" depth="1" NCoef="0" IVar="7" Cut="3.8313463330268860e-01" cType="1" res="-2.1115569770336151e-01" rms="3.6464589834213257e-01" purity="1.8225601315498352e-01" nType="0">
          <Node pos="l" depth="2" NCoef="0" IVar="-1" Cut="0.0000000000000000e+00" cType="1" res="-1.9428027793765068e-02" rms="4.5017540454864502e-01" purity="3.1671750545501709e-01" nType="-99"/>
          <Node pos="r" depth="2" NCoef="0" IVar="-1" Cut="0.0000000000000000e+00" cType="1" res="-5.2420295774936676e-02" rms="2.0643302798271179e-01" purity="4.5182466506958008e-02" nType="-99"/>
        </Node>
        <Node pos="r" depth="1" NCoef="0" IVar="2" Cut="2.3398306274414062e+02" cType="1" res="2.0297989249229431e-01" rms="3.9900326728820801e-01" purity="7.5492119789123535e-01" nType="0">
          <Node pos="l" depth="2" NCoef="0" IVar="-1" Cut="0.0000000000000000e+00" cType="1" res="2.8190141543745995e-02" rms="3.4290698170661926e-01" purity="8.6277312040328979e-01" nType="-99"/>
          <Node pos="r" depth="2" NCoef="0" IVar="-1" Cut="0.0000000000000000e+00" cType="1" res="-2.9270557686686516e-02" rms="3.4302586317062378e-01" purity="1.4989201724529266e-01" nType="-99"/>
        </Node>
      </Node>
    </BinaryTree>
    <BinaryTree type="DecisionTree" boostWeight="1.0000000000000000e+00" itree="6">
      <Node pos="s" depth="0" NCoef="0" IVar="1" Cut="2.4238094329833984e+01" cType="1" res="1.8829334527254105e-02" rms="4.2627152800559998e-01" purity="4.9794539809226990e-01" nType="0">
        <Node pos="l" depth="1" NCoef="0" IVar="1" Cut="1.1952381134033203e+01" cType="1" res="-1.9783648848533630e-01" rms="3.6026707291603088e-01" purity="1.7887414991855621e-01" nType="0">
          <Node pos="l" depth="2" NCoef="0" IVar="-1" Cut="0.0000000000000000e+00" cType="1" res="-5.1720447838306427e-02" rms="2.6022103428840637e-01" purity="7.5779616832733154e-02" nType="-99"/>
          <Node pos="r" depth="2" NCoef="0" IVar="-1" Cut="0.0000000000000000e+00" cType="1" res="-1.0788992047309875e-02" rms="4.5530959963798523e-01" purity="3.4884694218635559e-01" nType="-99"/>
        </Node>
        <Node pos="r" depth="1" NCoef="0" IVar="3" Cut="1.8655555725097656e+01" cType="1" res="1.9429312646389008e-01" rms="3.9363124966621399e-01" purity="7.5634080171585083e-01" nType="0">
          <Node pos="l" depth="2" NCoef="0" IVar="-1" Cut="0.0000000000000000e+00" cType="1" res="2.6839202269911766e-02" rms="3.4352630376815796e-01" purity="8.5662615299224854e-01" nType="-99"/>
          <Node pos="r" depth="2" NCoef="0" IVar="-1" Cut="0.0000000000000000e+00" cType="1" res="-3.0054131522774696e-02" rms="3.3006715774536133e-01" purity="1.5409657359123230e-01" nType="-99"/>
        </Node>
      </Node>
    </BinaryTree>
    <BinaryTree type="DecisionTree" boostWeight="1.0000000000000000e+00" itree="7">
      <Node pos="s" depth="0" NCoef="0" IVar="1" Cut="2.4428571701049805e+01" cType="1" res="1.9774410873651505e-02" rms="4.1863077878952026e-01" purity="4.9661010503768921e-01" nType="0">
        <Node pos="l" depth="1" NCoef="0" IVar="1" Cut="1.6333333969116211e+01" cType="1" res="-1.8156117200851440e-01" rms="3.5921901464462280e-01" purity="1.7828656733036041e-01" nType="0">
          <Node pos="l" depth="2" NCoef="0" IVar="-1" Cut="0.0000000000000000e+00" cType="1" res="-4.3076179921627045e-02" rms="3.0682885646820068e-01" purity="1.1159297078847885e-01" nType="-99"/>
          <Node pos="r" depth="2" NCoef="0" IVar="-1" Cut="0.0000000000000000e+00" cType="1" res="-2.5904474314302206e-03" rms="4.7464990615844727e-01" purity="4.2608356475830078e-01" nType="-99"/>
        </Node>
        <Node pos="r" depth="1" NCoef="0" IVar="3" Cut="1.6977647781372070e+01" cType="1" res="1.8207558989524841e-01" rms="3.9177384972572327e-01" purity="7.5321793556213379e-01" nType="0">
          <Node pos="l" depth="2" NCoef="0" IVar="-1" Cut="0.0000000000000000e+00" cType="1" res="2.6622507721185684e-02" rms="3.3548131585121155e-01" purity="8.6717641353607178e-01" nType="-99"/>
          <Node pos="r" depth="2" NCoef="0" IVar="-1" Cut="0.0000000000000000e+00" cType="1" res="-2.3353638127446175e-02" rms="3.8277921080589294e-01" purity="2.3687097430229187e-01" nType="-99"/>
        </Node>
      </Node>
    </BinaryTree>
    <BinaryTree type="DecisionTree" boostWeight="1.0000000000000000e+00" itree="8">
      <Node pos="s" depth="0" NCoef="0" IVar="5" Cut="3.5795342922210693e-01" cType="1" res="2.1999407559633255e-02" rms="4.0939173102378845e-01" purity="4.9630504846572876e-01" nType="0">
        <Node pos="l" depth="1" NCoef="0" IVar="0" Cut="1.5286503125000000e+05" cType="1" res="2.2573491930961609e-01" rms="3.5562300682067871e-01" purity="7.8540748357772827e-01" nType="0">
          <Node pos="l" depth="2" NCoef="0" IVar="-1" Cut="0.0000000000000000e+00" cType="1" res="-1.8302584066987038e-02" rms="4.3106764554977417e-01" purity="2.8018355369567871e-01" nType="-99"/>
          <Node pos="r" depth="2" NCoef="0" IVar="-1" Cut="0.0000000000000000e+00" cType="1" res="2.8537319973111153e-02" rms="2.9742270708084106e-01" purity="8.9208197593688965e-01" nType="-99"/>
        </Node>
        <Node pos="r" depth="1" NCoef="0" IVar="7" Cut="2.8623396158218384e-01" cType="1" res="-1.2671339511871338e-01" rms="3.8106805086135864e-01" purity="2.8528034687042236e-01" nType="0">
          <Node pos="l" depth="2" NCoef="0" IVar="-1" Cut="0.0000000000000000e+00" cType="1" res="1.7206626944243908e-03" rms="4.5298025012016296e-01" purity="5.2528643608093262e-01" nType="-99"/>
          <Node pos="r" depth="2" NCoef="0" IVar="-1" Cut="0.0000000000000000e+00" cType="1" res="-4.1383564472198486e-02" rms="2.4062885344028473e-01" purity="7.0107005536556244e-02" nType="-99"/>
        </Node>
      </Node>
    </BinaryTree>
    <BinaryTree type="DecisionTree" boostWeight="1.0000000000000000e+00" itree="9">
      <Node pos="s" depth="0" NCoef="0" IVar="5" Cut="3.6377438902854919e-01" cType="1" res="2.7019837871193886e-02" rms="4.0362116694450378e-01" purity="5.0086730718612671e-01" nType="0">
        <Node pos="l" depth="1" NCoef="0" IVar="0" Cut="1.5280926562500000e+05" cType="1" res="2.1205028891563416e-01" rms="3.5571917891502380e-01" purity="7.7905702590942383e-01" nType="0">
          <Node pos="l" depth="2" NCoef="0" IVar="-1" Cut="0.0000000000000000e+00" cType="1" res="-1.9713584333658218e-02" rms="4.2692974209785461e-01" purity="2.6902455091476440e-01" nType="-99"/>
          <Node pos="r" depth="2" NCoef="0" IVar="-1" Cut="0.0000000000000000e+00" cType="1" res="2.7661733329296112e-02" rms="2.9938641190528870e-01" purity="8.8987505435943604e-01" nType="-99"/>
        </Node>
        <Node pos="r" depth="1" NCoef="0" IVar="7" Cut="2.3872676491737366e-01" cType="1" res="-1.1694788932800293e-01" rms="3.7927111983299255e-01" purity="2.8441461920738220e-01" nType="0">
          <Node pos="l" depth="2" NCoef="0" IVar="-1" Cut="0.0000000000000000e+00" cType="1" res="4.4237128458917141e-03" rms="4.5213866233825684e-01" purity="5.6178194284439087e-01" nType="-99"/>
          <Node pos="r" depth="2" NCoef="0" IVar="-1" Cut="0.0000000000000000e+00" cType="1" res="-3.6030951887369156e-02" rms="2.8011718392372131e-01" purity="1.0209109634160995e-01" nType="-99"/>
        </Node>
      </Node>
    </BinaryTree>
    <BinaryTree type="DecisionTree" boostWeight="1.0000000000000000e+00" itree="10">
      <Node pos="s" depth="0" NCoef="0" IVar="5" Cut="3.5795342922210693e-01" cType="1" res="2.6945261284708977e-02" rms="3.9837577939033508e-01" purity="4.9912559986114502e-01" nType="0">
        <Node pos="l" depth="1" NCoef="0" IVar="1" Cut="1.2523809432983398e+01" cType="1" res="2.1034565567970276e-01" rms="3.4963268041610718e-01" purity="7.8833144903182983e-01" nType="0">
          <Node pos="l" depth="2" NCoef="0" IVar="-1" Cut="0.0000000000000000e+00" cType="1" res="-3.1981315463781357e-02" rms="3.8049608469009399e-01" purity="1.8167680501937866e-01" nType="-99"/>
          <Node pos="r" depth="2" NCoef="0" IVar="-1" Cut="0.0000000000000000e+00" cType="1" res="2.6645401492714882e-02" rms="3.1593918800354004e-01" purity="8.7391012907028198e-01" nType="-99"/>
        </Node>
        <Node pos="r" depth="1" NCoef="0" IVar="7" Cut="1.9106766581535339e-01" cType="1" res="-1.0552332550287247e-01" rms="3.7841179966926575e-01" purity="2.9023462533950806e-01" nType="0">
          <Node pos="l" depth="2" NCoef="0" IVar="-1" Cut="0.0000000000000000e+00" cType="1" res="7.4485121294856071e-03" rms="4.4939470291137695e-01" purity="6.0535037517547607e-01" nType="-99"/>
          <Node pos="r" depth="2" NCoef="0" IVar="-1" Cut="0.0000000000000000e+00" cType="1" res="-2.9639670625329018e-02" rms="3.1348940730094910e-01" purity="1.4753592014312744e-01" nType="-99"/>
        </Node>
      </Node>
    </BinaryTree>
    <BinaryTree type="DecisionTree" boostWeight="1.0000000000000000e+00" itree="11">
      <Node pos="s" depth="0" NCoef="0" IVar="1" Cut="2.4428571701049805e+01" cType="1" res="2.5112828239798546e-02" rms="3.9055690169334412e-01" purity="4.9751308560371399e-01" nType="0">
        <Node pos="l" depth="1" NCoef="0" IVar="1" Cut="1.4142857551574707e+01" cType="1" res="-1.4236567914485931e-01" rms="3.4665995836257935e-01" purity="1.7297020554542542e-01" nType="0">
          <Node pos="l" depth="2" NCoef="0" IVar="-1" Cut="0.0000000000000000e+00" cType="1" res="-4.0418926626443863e-02" rms="2.8348895907402039e-01" purity="9.4497531652450562e-02" nType="-99"/>
          <Node pos="r" depth="2" NCoef="0" IVar="-1" Cut="0.0000000000000000e+00" cType="1" res="-3.3736187033355236e-03" rms="4.5691904425621033e-01" purity="3.8605654239654541e-01" nType="-99"/>
        </Node>
        <Node pos="r" depth="1" NCoef="0" IVar="3" Cut="1.9061605453491211e+01" cType="1" res="1.6027580201625824e-01" rms="3.7114155292510986e-01" purity="7.5943434238433838e-01" nType="0">
          <Node pos="l" depth="2" NCoef="0" IVar="-1" Cut="0.0000000000000000e+00" cType="1" res="2.3142179474234581e-02" rms="3.3933761715888977e-01" purity="8.5554426908493042e-01" nType="-99"/>
          <Node pos="r" depth="2" NCoef="0" IVar="-1" Cut="0.0000000000000000e+00" cType="1" res="-2.8102489188313484e-02" rms="2.9994922876358032e-01" purity="1.3070054352283478e-01" nType="-99"/>
        </Node>
      </Node>
    </BinaryTree>
    <BinaryTree type="DecisionTree" boostWeight="1.0000000000000000e+00" itree="12">
      <Node pos="s" depth="0" NCoef="0" IVar="5" Cut="3.5185348987579346e-01" cType="1" res="3.1968872994184494e-02" rms="3.8567841053009033e-01" purity="5.0361710786819458e-01" nType="0">
        <Node pos="l" depth="1" NCoef="0" IVar="1" Cut="1.2523809432983398e+01" cType="1" res="2.0510601997375488e-01" rms="3.3442926406860352e-01" purity="8.0050057172775269e-01" nType="0">
          <Node pos="l" depth="2" NCoef="0" IVar="-1" Cut="0.0000000000000000e+00" cType="1" res="-2.4234374985098839e-02" rms="3.8944131135940552e-01" purity="1.8967987596988678e-01" nType="-99"/>
          <Node pos="r" depth="2" NCoef="0" IVar="-1" Cut="0.0000000000000000e+00" cType="1" res="2.5734215974807739e-02" rms="3.0436539649963379e-01" purity="8.8256287574768066e-01" nType="-99"/>
        </Node>
        <Node pos="r" depth="1" NCoef="0" IVar="7" Cut="2.3865094780921936e-01" cType="1" res="-8.5677571594715118e-02" rms="3.7365093827247620e-01" purity="3.0188518762588501e-01" nType="0">
          <Node pos="l" depth="2" NCoef="0" IVar="-1" Cut="0.0000000000000000e+00" cType="1" res="5.3927637636661530e-03" rms="4.4471472501754761e-01" purity="5.7808214426040649e-01" nType="-99"/>
          <Node pos="r" depth="2" NCoef="0" IVar="-1" Cut="0.0000000000000000e+00" cType="1" res="-3.1637337058782578e-02" rms="2.7773031592369080e-01" purity="1.0354582965373993e-01" nType="-99"/>
        </Node>
      </Node>
    </BinaryTree>
    <BinaryTree type="DecisionTree" boostWeight="1.0000000000000000e+00" itree="13">
      <Node pos="s" depth="0" NCoef="0" IVar="5" Cut="3.5795342922210693e-01" cType="1" res="2.6629073545336723e-02" rms="3.8413226604461670e-01" purity="4.9728980660438538e-01" nType="0">
        <Node pos="l" depth="1" NCoef="0" IVar="0" Cut="1.5286503125000000e+05" cType="1" res="1.8413487076759338e-01" rms="3.4416490793228149e-01" purity="7.8531503677368164e-01" nType="0">
          <Node pos="l" depth="2" NCoef="0" IVar="-1" Cut="0.0000000000000000e+00" cType="1" res="-1.1796036735177040e-02" rms="4.2980706691741943e-01" purity="2.7830755710601807e-01" nType="-99"/>
          <Node pos="r" depth="2" NCoef="0" IVar="-1" Cut="0.0000000000000000e+00" cType="1" res="2.4470394477248192e-02" rms="3.0038321018218994e-01" purity="8.9128655195236206e-01" nType="-99"/>
        </Node>
        <Node pos="r" depth="1" NCoef="0" IVar="2" Cut="3.2728796386718750e+02" cType="1" res="-8.7670892477035522e-02" rms="3.7096306681632996e-01" purity="2.8827354311943054e-01" nType="0">
          <Node pos="l" depth="2" NCoef="0" IVar="-1" Cut="0.0000000000000000e+00" cType="1" res="-4.4768354855477810e-03" rms="4.0913900732994080e-01" purity="3.8482490181922913e-01" nType="-99"/>
          <Node pos="r" depth="2" NCoef="0" IVar="-1" Cut="0.0000000000000000e+00" cType="1" res="-3.8790963590145111e-02" rms="1.2965473532676697e-01" purity="1.6484435647726059e-02" nType="-99"/>
        </Node>
      </Node>
    </BinaryTree>
    <BinaryTree type="DecisionTree" boostWeight="1.0000000000000000e+00" itree="14">
      <Node pos="s" depth="0" NCoef="0" IVar="5" Cut="3.5006624460220337e-01" cType="1" res="2.1498646587133408e-02" rms="3.7788119912147522e-01" purity="4.9155271053314209e-01" nType="0">
        <Node pos="l" depth="1" NCoef="0" IVar="1" Cut="1.2333333015441895e+01" cType="1" res="1.7824694514274597e-01" rms="3.3409127593040466e-01" purity="7.9040127992630005e-01" nType="0">
          <Node pos="l" depth="2" NCoef="0" IVar="-1" Cut="0.0000000000000000e+00" cType="1" res="-3.2737843692302704e-02" rms="3.5559213161468506e-01" purity="1.5038461983203888e-01" nType="-99"/>
          <Node pos="r" depth="2" NCoef="0" IVar="-1" Cut="0.0000000000000000e+00" cType="1" res="2.3802757263183594e-02" rms="3.0909186601638794e-01" purity="8.7828540802001953e-01" nType="-99"/>
        </Node>
        <Node pos="r" depth="1" NCoef="0" IVar="2" Cut="2.1852389526367188e+02" cType="1" res="-8.2471296191215515e-02" rms="3.6927896738052368e-01" purity="2.9332879185676575e-01" nType="0">
          <Node pos="l" depth="2" NCoef="0" IVar="-1" Cut="0.0000000000000000e+00" cType="1" res="-2.0415459293872118e-03" rms="4.1148579120635986e-01" purity="4.1727942228317261e-01" nType="-99"/>
          <Node pos="r" depth="2" NCoef="0" IVar="-1" Cut="0.0000000000000000e+00" cType="1" res="-3.2383572310209274e-02" rms="2.2621838748455048e-01" purity="6.6592521965503693e-02" nType="-99"/>
        </Node>
      </Node>
    </BinaryTree>
    <BinaryTree type="DecisionTree" boostWeight="1.0000000000000000e+00" itree="15">
      <Node pos="s" depth="0" NCoef="0" IVar="5" Cut="4.0031352639198303e-01" cType="1" res="2.3727990686893463e-02" rms="3.7584471702575684e-01" purity="4.9074804782867432e-01" nType="0">
        <Node pos="l" depth="1" NCoef="0" IVar="1" Cut="1.2619047164916992e+01" cType="1" res="1.4086420834064484e-01" rms="3.6268001794815063e-01" purity="7.3196381330490112e-01" nType="0">
          <Node pos="l" depth="2" NCoef="0" IVar="-1" Cut="0.0000000000000000e+00" cType="1" res="-2.9215671122074127e-02" rms="3.5687193274497986e-01" purity="1.5363334119319916e-01" nType="-99"/>
          <Node pos="r" depth="2" NCoef="0" IVar="-1" Cut="0.0000000000000000e+00" cType="1" res="2.0485324785113335e-02" rms="3.4611001610755920e-01" purity="8.2918757200241089e-01" nType="-99"/>
        </Node>
        <Node pos="r" depth="1" NCoef="0" IVar="2" Cut="2.1852389526367188e+02" cType="1" res="-9.7600691020488739e-02" rms="3.4985291957855225e-01" purity="2.4089892208576202e-01" nType="0">
          <Node pos="l" depth="2" NCoef="0" IVar="-1" Cut="0.0000000000000000e+00" cType="1" res="-3.8039619103074074e-03" rms="4.0680700540542603e-01" purity="3.7413030862808228e-01" nType="-99"/>
          <Node pos="r" depth="2" NCoef="0" IVar="-1" Cut="0.0000000000000000e+00" cType="1" res="-3.2220564782619476e-02" rms="2.1091166138648987e-01" purity="5.6404750794172287e-02" nType="-99"/>
        </Node>
      </Node>
    </BinaryTree>
    <BinaryTree type="DecisionTree" boostWeight="1.0000000000000000e+00" itree="16">
      <Node pos="s" depth="0" NCoef="0" IVar="5" Cut="3.5864678025245667e-01" cType="1" res="2.8397358953952789e-02" rms="3.7245571613311768e-01" purity="4.9959522485733032e-01" nType="0">
        <Node pos="l" depth="1" NCoef="0" IVar="0" Cut="1.8734712500000000e+05" cType="1" res="1.6663871705532074e-01" rms="3.3414036035537720e-01" purity="7.8749608993530273e-01" nType="0">
          <Node pos="l" depth="2" NCoef="0" IVar="-1" Cut="0.0000000000000000e+00" cType="1" res="-2.0687729120254517e-03" rms="4.3622747063636780e-01" purity="3.5641273856163025e-01" nType="-99"/>
          <Node pos="r" depth="2" NCoef="0" IVar="-1" Cut="0.0000000000000000e+00" cType="1" res="2.3349216207861900e-02" rms="2.8053048253059387e-01" purity="9.0734052658081055e-01" nType="-99"/>
        </Node>
        <Node pos="r" depth="1" NCoef="0" IVar="7" Cut="2.8623396158218384e-01" cType="1" res="-7.1532666683197021e-02" rms="3.6673328280448914e-01" purity="2.9148137569427490e-01" nType="0">
          <Node pos="l" depth="2" NCoef="0" IVar="-1" Cut="0.0000000000000000e+00" cType="1" res="2.6975432410836220e-03" rms="4.4309961795806885e-01" purity="5.2387177944183350e-01" nType="-99"/>
          <Node pos="r" depth="2" NCoef="0" IVar="-1" Cut="0.0000000000000000e+00" cType="1" res="-3.1916014850139618e-02" rms="2.4855431914329529e-01" purity="7.5980171561241150e-02" nType="-99"/>
        </Node>
      </Node>
    </BinaryTree>
    <BinaryTree type="DecisionTree" boostWeight="1.0000000000000000e+00" itree="17">
      <Node pos="s" depth="0" NCoef="0" IVar="1" Cut="2.9809524536132812e+01" cType="1" res="2.4721756577491760e-02" rms="3.6878326535224915e-01" purity="4.9839055538177490e-01" nType="0">
        <Node pos="l" depth="1" NCoef="0" IVar="1" Cut="1.4333333015441895e+01" cType="1" res="-8.6471609771251678e-02" rms="3.5674446821212769e-01" purity="2.2799655795097351e-01" nType="0">
          <Node pos="l" depth="2" NCoef="0" IVar="-1" Cut="0.0000000000000000e+00" cType="1" res="-3.4090604633092880e-02" rms="2.8608882427215576e-01" purity="9.8471477627754211e-02" nType="-99"/>
          <Node pos="r" depth="2" NCoef="0" IVar="-1" Cut="0.0000000000000000e+00" cType="1" res="2.3072677140589803e-04" rms="4.4264954328536987e-01" purity="4.5842239260673523e-01" nType="-99"/>
        </Node>
        <Node pos="r" depth="1" NCoef="0" IVar="3" Cut="1.7089221954345703e+01" cType="1" res="1.3648191094398499e-01" rms="3.4621202945709229e-01" purity="7.7016276121139526e-01" nType="0">
          <Node pos="l" depth="2" NCoef="0" IVar="-1" Cut="0.0000000000000000e+00" cType="1" res="2.1613711491227150e-02" rms="3.1284913420677185e-01" purity="8.8026726245880127e-01" nType="-99"/>
          <Node pos="r" depth="2" NCoef="0" IVar="-1" Cut="0.0000000000000000e+00" cType="1" res="-1.8880024552345276e-02" rms="3.5017332434654236e-01" purity="2.2816336154937744e-01" nType="-99"/>
        </Node>
      </Node>
    </BinaryTree>
    <BinaryTree type="DecisionTree" boostWeight="1.0000000000000000e+00" itree="18">
      <Node pos="s" depth="0" NCoef="0" IVar="5" Cut="3.6241689324378967e-01" cType="1" res="2.5668038055300713e-02" rms="3.6449512839317322e-01" purity="4.9479314684867859e-01" nType="0">
        <Node pos="l" depth="1" NCoef="0" IVar="1" Cut="1.2619047164916992e+01" cType="1" res="1.4847660064697266e-01" rms="3.3712661266326904e-01" purity="7.7817821502685547e-01" nType="0">
          <Node pos="l" depth="2" NCoef="0" IVar="-1" Cut="0.0000000000000000e+00" cType="1" res="-1.8417667597532272e-02" rms="3.7595477700233459e-01" purity="1.7353288829326630e-01" nType="-99"/>
          <Node pos="r" depth="2" NCoef="0" IVar="-1" Cut="0.0000000000000000e+00" cType="1" res="2.0734649151563644e-02" rms="3.1951588392257690e-01" purity="8.6617600917816162e-01" nType="-99"/>
        </Node>
        <Node pos="r" depth="1" NCoef="0" IVar="2" Cut="2.1852389526367188e+02" cType="1" res="-6.7886821925640106e-02" rms="3.5671150684356689e-01" purity="2.7891206741333008e-01" nType="0">
          <Node pos="l" depth="2" NCoef="0" IVar="-1" Cut="0.0000000000000000e+00" cType="1" res="-5.7883234694600105e-04" rms="4.0579101443290710e-01" purity="4.1007536649703979e-01" nType="-99"/>
          <Node pos="r" depth="2" NCoef="0" IVar="-1" Cut="0.0000000000000000e+00" cType="1" res="-3.0015155673027039e-02" rms="2.1432721614837646e-01" purity="5.8957688510417938e-02" nType="-99"/>
        </Node>
      </Node>
    </BinaryTree>
    <BinaryTree type="DecisionTree" boostWeight="1.0000000000000000e+00" itree="19">
      <Node pos="s" depth="0" NCoef="0" IVar="1" Cut="1.8571428298950195e+01" cType="1" res="2.7545344084501266e-02" rms="3.6006113886833191e-01" purity="5.0206929445266724e-01" nType="0">
        <Node pos="l" depth="1" NCoef="0" IVar="1" Cut="9.0952377319335938e+00" cType="1" res="-1.1349773406982422e-01" rms="3.0628040432929993e-01" purity="1.2154924869537354e-01" nType="0">
          <Node pos="l" depth="2" NCoef="0" IVar="-1" Cut="0.0000000000000000e+00" cType="1" res="-4.0755711495876312e-02" rms="2.3783305287361145e-01" purity="6.3074491918087006e-02" nType="-99"/>
          <Node pos="r" depth="2" NCoef="0" IVar="-1" Cut="0.0000000000000000e+00" cType="1" res="-1.1495896615087986e-02" rms="3.9626806974411011e-01" purity="2.2870875895023346e-01" nType="-99"/>
        </Node>
        <Node pos="r" depth="1" NCoef="0" IVar="2" Cut="3.3312716674804688e+02" cType="1" res="1.1052187532186508e-01" rms="3.6350843310356140e-01" purity="7.2593164443969727e-01" nType="0">
          <Node pos="l" depth="2" NCoef="0" IVar="-1" Cut="0.0000000000000000e+00" cType="1" res="1.7694674432277679e-02" rms="3.5914409160614014e-01" purity="8.1572717428207397e-01" nType="-99"/>
          <Node pos="r" depth="2" NCoef="0" IVar="-1" Cut="0.0000000000000000e+00" cType="1" res="-2.9540171846747398e-02" rms="1.8810497224330902e-01" purity="4.1670326143503189e-02" nType="-99"/>
        </Node>
      </Node>
    </BinaryTree>
    <BinaryTree type="DecisionTree" boostWeight="1.0000000000000000e+00" itree="20">
      <Node pos="s" depth="0" NCoef="0" IVar="1" Cut="2.9809524536132812e+01" cType="1" res="2.4602511897683144e-02" rms="3.5599023103713989e-01" purity="4.9535635113716125e-01" nType="0">
        <Node pos="l" depth="1" NCoef="0" IVar="1" Cut="1.1666666984558105e+01" cType="1" res="-7.4598349630832672e-02" rms="3.4729957580566406e-01" purity="2.2200605273246765e-01" nType="0">
          <Node pos="l" depth="2" NCoef="0" IVar="-1" Cut="0.0000000000000000e+00" cType="1" res="-3.6477532237768173e-02" rms="2.5025677680969238e-01" purity="7.0203036069869995e-02" nType="-99"/>
          <Node pos="r" depth="2" NCoef="0" IVar="-1" Cut="0.0000000000000000e+00" cType="1" res="-1.5029795467853546e-03" rms="4.3011268973350525e-01" purity="4.1045260429382324e-01" nType="-99"/>
        </Node>
        <Node pos="r" depth="1" NCoef="0" IVar="0" Cut="5.4744162500000000e+05" cType="1" res="1.2687464058399200e-01" rms="3.3529877662658691e-01" purity="7.7716958522796631e-01" nType="0">
          <Node pos="l" depth="2" NCoef="0" IVar="-1" Cut="0.0000000000000000e+00" cType="1" res="1.9996738061308861e-02" rms="3.0852711200714111e-01" purity="8.6191380023956299e-01" nType="-99"/>
          <Node pos="r" depth="2" NCoef="0" IVar="-1" Cut="0.0000000000000000e+00" cType="1" res="-2.0017672330141068e-02" rms="3.4371766448020935e-01" purity="3.2652220129966736e-01" nType="-99"/>
        </Node>
      </Node>
    </BinaryTree>
    <BinaryTree type="DecisionTree" boostWeight="1.0000000000000000e+00" itree="21">
      <Node pos="s" depth="0" NCoef="0" IVar="2" Cut="2.1852384948730469e+02" cType="1" res="2.9053084552288055e-02" rms="3.5457748174667358e-01" purity="5.0052005052566528e-01" nType="0">
        <Node pos="l" depth="1" NCoef="0" IVar="1" Cut="1.8428571701049805e+01" cType="1" res="8.0365352332592010e-02" rms="3.6728438735008240e-01" purity="6.2005060911178589e-01" nType="0">
          <Node pos="l" depth="2" NCoef="0" IVar="-1" Cut="0.0000000000000000e+00" cType="1" res="-1.5637593343853951e-02" rms="3.6839765310287476e-01" purity="1.8350869417190552e-01" nType="-99"/>
          <Node pos="r" depth="2" NCoef="0" IVar="-1" Cut="0.0000000000000000e+00" cType="1" res="1.7857355996966362e-02" rms="3.4573954343795776e-01" purity="8.4106326103210449e-01" nType="-99"/>
        </Node>
        <Node pos="r" depth="1" NCoef="0" IVar="0" Cut="5.6124306250000000e+05" cType="1" res="-1.5344662964344025e-01" rms="2.2456790506839752e-01" purity="7.5391903519630432e-02" nType="0">
          <Node pos="l" depth="2" NCoef="0" IVar="-1" Cut="0.0000000000000000e+00" cType="1" res="-2.6741281151771545e-02" rms="2.2669719159603119e-01" purity="8.4575518965721130e-02" nType="-99"/>
          <Node pos="r" depth="2" NCoef="0" IVar="-1" Cut="0.0000000000000000e+00" cType="1" res="-2.9928641393780708e-02" rms="1.9061493873596191e-01" purity="4.2513631284236908e-02" nType="-99"/>
        </Node>
      </Node>
    </BinaryTree>
    <BinaryTree type="DecisionTree" boostWeight="1.0000000000000000e+00" itree="22">
      <Node pos="s" depth="0" NCoef="0" IVar="5" Cut="3.5838952660560608e-01" cType="1" res="3.1041366979479790e-02" rms="3.5107725858688354e-01" purity="5.0150573253631592e-01" nType="0">
        <Node pos="l" depth="1" NCoef="0" IVar="19" Cut="8.4303438663482666e-01" cType="1" res="1.4124263823032379e-01" rms="3.1783106923103333e-01" purity="7.9400742053985596e-01" nType="0">
          <Node pos="l" depth="2" NCoef="0" IVar="-1" Cut="0.0000000000000000e+00" cType="1" res="8.5737723857164383e-03" rms="4.0352302789688110e-01" purity="5.4427951574325562e-01" nType="-99"/>
          <Node pos="r" depth="2" NCoef="0" IVar="-1" Cut="0.0000000000000000e+00" cType="1" res="2.2512223571538925e-02" rms="2.4858494102954865e-01" purity="9.2607688903808594e-01" nType="-99"/>
        </Node>
        <Node pos="r" depth="1" NCoef="0" IVar="2" Cut="3.2728863525390625e+02" cType="1" res="-4.8091415315866470e-02" rms="3.5247936844825745e-01" purity="2.9146748781204224e-01" nType="0">
          <Node pos="l" depth="2" NCoef="0" IVar="-1" Cut="0.0000000000000000e+00" cType="1" res="-7.2105566505342722e-04" rms="3.9495742321014404e-01" purity="3.9054936170578003e-01" nType="-99"/>
          <Node pos="r" depth="2" NCoef="0" IVar="-1" Cut="0.0000000000000000e+00" cType="1" res="-3.3047817647457123e-02" rms="1.2502431869506836e-01" purity="1.5530482865869999e-02" nType="-99"/>
        </Node>
      </Node>
    </BinaryTree>
    <BinaryTree type="DecisionTree" boostWeight="1.0000000000000000e+00" itree="23">
      <Node pos="s" depth="0" NCoef="0" IVar="2" Cut="2.1586624145507812e+02" cType="1" res="2.7167690917849541e-02" rms="3.5530486702919006e-01" purity="5.0293827056884766e-01" nType="0">
        <Node pos="l" depth="1" NCoef="0" IVar="0" Cut="1.5252504687500000e+05" cType="1" res="7.2098188102245331e-02" rms="3.6880019307136536e-01" purity="6.1858755350112915e-01" nType="0">
          <Node pos="l" depth="2" NCoef="0" IVar="-1" Cut="0.0000000000000000e+00" cType="1" res="-1.7737697809934616e-02" rms="3.7220850586891174e-01" purity="1.9016133248806000e-01" nType="-99"/>
          <Node pos="r" depth="2" NCoef="0" IVar="-1" Cut="0.0000000000000000e+00" cType="1" res="1.6887569800019264e-02" rms="3.4791359305381775e-01" purity="8.2494884729385376e-01" nType="-99"/>
        </Node>
        <Node pos="r" depth="1" NCoef="0" IVar="0" Cut="5.0267640625000000e+05" cType="1" res="-1.3450561463832855e-01" rms="2.4015934765338898e-01" purity="8.6797796189785004e-02" nType="0">
          <Node pos="l" depth="2" NCoef="0" IVar="-1" Cut="0.0000000000000000e+00" cType="1" res="-2.2154733538627625e-02" rms="2.4532264471054077e-01" purity="1.0192728042602539e-01" nType="-99"/>
          <Node pos="r" depth="2" NCoef="0" IVar="-1" Cut="0.0000000000000000e+00" cType="1" res="-2.9978217557072639e-02" rms="2.0433928072452545e-01" purity="4.9800615757703781e-02" nType="-99"/>
        </Node>
      </Node>
    </BinaryTree>
    <BinaryTree type="DecisionTree" boostWeight="1.0000000000000000e+00" itree="24">
      <Node pos="s" depth="0" NCoef="0" IVar="5" Cut="3.1443598866462708e-01" cType="1" res="2.8014823794364929e-02" rms="3.5180711746215820e-01" purity="5.0140070915222168e-01" nType="0">
        <Node pos="l" depth="1" NCoef="0" IVar="2" Cut="4.2703533172607422e+01" cType="1" res="1.6204242408275604e-01" rms="2.8364700078964233e-01" purity="8.3925020694732666e-01" nType="0">
          <Node pos="l" depth="2" NCoef="0" IVar="-1" Cut="0.0000000000000000e+00" cType="1" res="3.2574092037975788e-03" rms="3.8363999128341675e-01" purity="4.1641309857368469e-01" nType="-99"/>
          <Node pos="r" depth="2" NCoef="0" IVar="-1" Cut="0.0000000000000000e+00" cType="1" res="2.3498745635151863e-02" rms="2.5303518772125244e-01" purity="9.1483837366104126e-01" nType="-99"/>
        </Node>
        <Node pos="r" depth="1" NCoef="0" IVar="2" Cut="2.0304066467285156e+02" cType="1" res="-3.1682379543781281e-02" rms="3.6262279748916626e-01" purity="3.5091918706893921e-01" nType="0">
          <Node pos="l" depth="2" NCoef="0" IVar="-1" Cut="0.0000000000000000e+00" cType="1" res="2.4241798091679811e-03" rms="4.0079563856124878e-01" purity="4.7998344898223877e-01" nType="-99"/>
          <Node pos="r" depth="2" NCoef="0" IVar="-1" Cut="0.0000000000000000e+00" cType="1" res="-2.4484720081090927e-02" rms="2.4197748303413391e-01" purity="8.7674163281917572e-02" nType="-99"/>
        </Node>
      </Node>
    </BinaryTree>
    <BinaryTree type="DecisionTree" boostWeight="1.0000000000000000e+00" itree="25">
      <Node pos="s" depth="0" NCoef="0" IVar="5" Cut="3.9281016588211060e-01" cType="1" res="2.5354692712426186e-02" rms="3.4690394997596741e-01" purity="5.0207793712615967e-01" nType="0">
        <Node pos="l" depth="1" NCoef="0" IVar="19" Cut="8.4303438663482666e-01" cType="1" res="1.0901895910501480e-01" rms="3.4107103943824768e-01" purity="7.5462514162063599e-01" nType="0">
          <Node pos="l" depth="2" NCoef="0" IVar="-1" Cut="0.0000000000000000e+00" cType="1" res="6.0557699762284756e-03" rms="4.1266688704490662e-01" purity="5.3011667728424072e-01" nType="-99"/>
          <Node pos="r" depth="2" NCoef="0" IVar="-1" Cut="0.0000000000000000e+00" cType="1" res="1.9558949396014214e-02" rms="2.7565130591392517e-01" purity="8.9909982681274414e-01" nType="-99"/>
        </Node>
        <Node pos="r" depth="1" NCoef="0" IVar="2" Cut="3.2453573608398438e+02" cType="1" res="-6.0447271913290024e-02" rms="3.3153769373893738e-01" purity="2.4307796359062195e-01" nType="0">
          <Node pos="l" depth="2" NCoef="0" IVar="-1" Cut="0.0000000000000000e+00" cType="1" res="-4.1112871840596199e-03" rms="3.8280710577964783e-01" purity="3.4282857179641724e-01" nType="-99"/>
          <Node pos="r" depth="2" NCoef="0" IVar="-1" Cut="0.0000000000000000e+00" cType="1" res="-3.1156655400991440e-02" rms="1.3151396811008453e-01" purity="1.8320366740226746e-02" nType="-99"/>
        </Node>
      </Node>
    </BinaryTree>
    <BinaryTree type="DecisionTree" boostWeight="1.0000000000000000e+00" itree="26">
      <Node pos="s" depth="0" NCoef="0" IVar="1" Cut="2.9809524536132812e+01" cType="1" res="2.0846698433160782e-02" rms="3.4515377879142761e-01" purity="4.9500089883804321e-01" nType="0">
        <Node pos="l" depth="1" NCoef="0" IVar="5" Cut="3.8671794533729553e-01" cType="1" res="-5.9573251754045486e-02" rms="3.4272915124893188e-01" purity="2.1747735142707825e-01" nType="0">
          <Node pos="l" depth="2" NCoef="0" IVar="-1" Cut="0.0000000000000000e+00" cType="1" res="2.6838895864784718e-03" rms="4.1929835081100464e-01" purity="4.1511440277099609e-01" nType="-99"/>
          <Node pos="r" depth="2" NCoef="0" IVar="-1" Cut="0.0000000000000000e+00" cType="1" res="-2.1769674494862556e-02" rms="3.0160421133041382e-01" purity="1.3809838891029358e-01" nType="-99"/>
        </Node>
        <Node pos="r" depth="1" NCoef="0" IVar="2" Cut="1.4336705017089844e+02" cType="1" res="1.0302219539880753e-01" rms="3.2783234119415283e-01" purity="7.7858275175094604e-01" nType="0">
          <Node pos="l" depth="2" NCoef="0" IVar="-1" Cut="0.0000000000000000e+00" cType="1" res="1.9423743709921837e-02" rms="2.8760263323783875e-01" purity="9.0473550558090210e-01" nType="-99"/>
          <Node pos="r" depth="2" NCoef="0" IVar="-1" Cut="0.0000000000000000e+00" cType="1" res="-7.8211827203631401e-03" rms="3.8569742441177368e-01" purity="3.9198696613311768e-01" nType="-99"/>
        </Node>
      </Node>
    </BinaryTree>
    <BinaryTree type="DecisionTree" boostWeight="1.0000000000000000e+00" itree="27">
      <Node pos="s" depth="0" NCoef="0" IVar="5" Cut="3.1559330224990845e-01" cType="1" res="1.9840355962514877e-02" rms="3.4227982163429260e-01" purity="4.9316045641899109e-01" nType="0">
        <Node pos="l" depth="1" NCoef="0" IVar="1" Cut="1.2238095283508301e+01" cType="1" res="1.3355922698974609e-01" rms="2.8515315055847168e-01" purity="8.2810509204864502e-01" nType="0">
          <Node pos="l" depth="2" NCoef="0" IVar="-1" Cut="0.0000000000000000e+00" cType="1" res="-9.6348514780402184e-03" rms="3.7400180101394653e-01" purity="1.7543546855449677e-01" nType="-99"/>
          <Node pos="r" depth="2" NCoef="0" IVar="-1" Cut="0.0000000000000000e+00" cType="1" res="2.0389193668961525e-02" rms="2.6475989818572998e-01" purity="9.1053873300552368e-01" nType="-99"/>
        </Node>
        <Node pos="r" depth="1" NCoef="0" IVar="2" Cut="3.6250238037109375e+02" cType="1" res="-3.2721932977437973e-02" rms="3.5352867841720581e-01" purity="3.3834487199783325e-01" nType="0">
          <Node pos="l" depth="2" NCoef="0" IVar="-1" Cut="0.0000000000000000e+00" cType="1" res="-5.7546270545572042e-04" rms="3.8902863860130310e-01" purity="4.2554679512977600e-01" nType="-99"/>
          <Node pos="r" depth="2" NCoef="0" IVar="-1" Cut="0.0000000000000000e+00" cType="1" res="-3.2991454005241394e-02" rms="9.7890757024288177e-02" purity="8.1746196374297142e-03" nType="-99"/>
        </Node>
      </Node>
    </BinaryTree>
    <BinaryTree type="DecisionTree" boostWeight="1.0000000000000000e+00" itree="28">
      <Node pos="s" depth="0" NCoef="0" IVar="1" Cut="3.0285715103149414e+01" cType="1" res="1.8399171531200409e-02" rms="3.4341841936111450e-01" purity="4.9020063877105713e-01" nType="0">
        <Node pos="l" depth="1" NCoef="0" IVar="7" Cut="3.8206163048744202e-01" cType="1" res="-5.0580937415361404e-02" rms="3.4538537263870239e-01" purity="2.3002105951309204e-01" nType="0">
          <Node pos="l" depth="2" NCoef="0" IVar="-1" Cut="0.0000000000000000e+00" cType="1" res="-1.6976713668555021e-03" rms="4.2806163430213928e-01" purity="3.8485258817672729e-01" nType="-99"/>
          <Node pos="r" depth="2" NCoef="0" IVar="-1" Cut="0.0000000000000000e+00" cType="1" res="-3.1679268926382065e-02" rms="1.9315612316131592e-01" purity="4.2512360960245132e-02" nType="-99"/>
        </Node>
        <Node pos="r" depth="1" NCoef="0" IVar="0" Cut="5.4489500000000000e+05" cType="1" res="9.3407645821571350e-02" rms="3.2505783438682556e-01" purity="7.7311807870864868e-01" nType="0">
          <Node pos="l" depth="2" NCoef="0" IVar="-1" Cut="0.0000000000000000e+00" cType="1" res="1.7102027311921120e-02" rms="3.0623826384544373e-01" purity="8.5875481367111206e-01" nType="-99"/>
          <Node pos="r" depth="2" NCoef="0" IVar="-1" Cut="0.0000000000000000e+00" cType="1" res="-2.0184554159641266e-02" rms="3.3286452293395996e-01" purity="3.3180519938468933e-01" nType="-99"/>
        </Node>
      </Node>
    </BinaryTree>
    <BinaryTree type="DecisionTree" boostWeight="1.0000000000000000e+00" itree="29">
      <Node pos="s" depth="0" NCoef="0" IVar="5" Cut="3.1443598866462708e-01" cType="1" res="2.0842332392930984e-02" rms="3.4382739663124084e-01" purity="4.9471658468246460e-01" nType="0">
        <Node pos="l" depth="1" NCoef="0" IVar="1" Cut="1.2333333015441895e+01" cType="1" res="1.2676899135112762e-01" rms="2.8349283337593079e-01" purity="8.2877522706985474e-01" nType="0">
          <Node pos="l" depth="2" NCoef="0" IVar="-1" Cut="0.0000000000000000e+00" cType="1" res="-9.2618204653263092e-03" rms="3.7077268958091736e-01" purity="1.7047587037086487e-01" nType="-99"/>
          <Node pos="r" depth="2" NCoef="0" IVar="-1" Cut="0.0000000000000000e+00" cType="1" res="2.0108019933104515e-02" rms="2.6413074135780334e-01" purity="9.1197770833969116e-01" nType="-99"/>
        </Node>
        <Node pos="r" depth="1" NCoef="0" IVar="26" Cut="2.3486549377441406e+02" cType="1" res="-2.5772299617528915e-02" rms="3.5743904113769531e-01" purity="3.4770900011062622e-01" nType="0">
          <Node pos="l" depth="2" NCoef="0" IVar="-1" Cut="0.0000000000000000e+00" cType="1" res="6.8646279396489263e-04" rms="3.8302886486053467e-01" purity="4.3896213173866272e-01" nType="-99"/>
          <Node pos="r" depth="2" NCoef="0" IVar="-1" Cut="0.0000000000000000e+00" cType="1" res="-2.7253566309809685e-02" rms="2.4499689042568207e-01" purity="7.3169313371181488e-02" nType="-99"/>
        </Node>
      </Node>
    </BinaryTree>
    <BinaryTree type="DecisionTree" boostWeight="1.0000000000000000e+00" itree="30">
      <Node pos="s" depth="0" NCoef="0" IVar="5" Cut="3.1042182445526123e-01" cType="1" res="2.1196957677602768e-02" rms="3.4211423993110657e-01" purity="4.9656704068183899e-01" nType="0">
        <Node pos="l" depth="1" NCoef="0" IVar="22" Cut="7.6190475463867188e+01" cType="1" res="1.2213681638240814e-01" rms="2.8310069441795349e-01" purity="8.3525389432907104e-01" nType="0">
          <Node pos="l" depth="2" NCoef="0" IVar="-1" Cut="0.0000000000000000e+00" cType="1" res="4.8130503855645657e-03" rms="3.8978621363639832e-01" purity="4.8431125283241272e-01" nType="-99"/>
          <Node pos="r" depth="2" NCoef="0" IVar="-1" Cut="0.0000000000000000e+00" cType="1" res="2.0717661827802658e-02" rms="2.4317596852779388e-01" purity="9.2344319820404053e-01" nType="-99"/>
        </Node>
        <Node pos="r" depth="1" NCoef="0" IVar="2" Cut="3.2728796386718750e+02" cType="1" res="-2.2677903994917870e-02" rms="3.5598573088645935e-01" purity="3.4935221076011658e-01" nType="0">
          <Node pos="l" depth="2" NCoef="0" IVar="-1" Cut="0.0000000000000000e+00" cType="1" res="8.2196138100698590e-04" rms="3.9362600445747375e-01" purity="4.4638091325759888e-01" nType="-99"/>
          <Node pos="r" depth="2" NCoef="0" IVar="-1" Cut="0.0000000000000000e+00" cType="1" res="-2.8687795624136925e-02" rms="1.4305491745471954e-01" purity="2.2421492263674736e-02" nType="-99"/>
        </Node>
      </Node>
    </BinaryTree>
    <BinaryTree type="DecisionTree" boostWeight="1.0000000000000000e+00" itree="31">
      <Node pos="s" depth="0" NCoef="0" IVar="5" Cut="3.2723477482795715e-01" cType="1" res="1.8608331680297852e-02" rms="3.3907783031463623e-01" purity="5.0016766786575317e-01" nType="0">
        <Node pos="l" depth="1" NCoef="0" IVar="0" Cut="1.5314221875000000e+05" cType="1" res="1.0989597439765930e-01" rms="2.9146486520767212e-01" purity="8.2028830051422119e-01" nType="0">
          <Node pos="l" depth="2" NCoef="0" IVar="-1" Cut="0.0000000000000000e+00" cType="1" res="-2.4880822747945786e-03" rms="4.1347602009773254e-01" purity="2.7684393525123596e-01" nType="-99"/>
          <Node pos="r" depth="2" NCoef="0" IVar="-1" Cut="0.0000000000000000e+00" cType="1" res="1.8701920285820961e-02" rms="2.5699478387832642e-01" purity="9.2005342245101929e-01" nType="-99"/>
        </Node>
        <Node pos="r" depth="1" NCoef="0" IVar="2" Cut="2.4365109252929688e+02" cType="1" res="-2.9579320922493935e-02" rms="3.5227885842323303e-01" purity="3.3118683099746704e-01" nType="0">
          <Node pos="l" depth="2" NCoef="0" IVar="-1" Cut="0.0000000000000000e+00" cType="1" res="2.4199725885409862e-04" rms="3.9544898271560669e-01" purity="4.4861716032028198e-01" nType="-99"/>
          <Node pos="r" depth="2" NCoef="0" IVar="-1" Cut="0.0000000000000000e+00" cType="1" res="-2.4689685553312302e-02" rms="1.9744965434074402e-01" purity="5.0001453608274460e-02" nType="-99"/>
        </Node>
      </Node>
    </BinaryTree>
    <BinaryTree type="DecisionTree" boostWeight="1.0000000000000000e+00" itree="32">
      <Node pos="s" depth="0" NCoef="0" IVar="1" Cut="1.2714285850524902e+01" cType="1" res="2.5586500763893127e-02" rms="3.3856403827667236e-01" purity="5.0387299060821533e-01" nType="0">
        <Node pos="l" depth="1" NCoef="0" IVar="5" Cut="3.5996943712234497e-01" cType="1" res="-7.3072046041488647e-02" rms="2.7249991893768311e-01" purity="8.6742594838142395e-02" nType="0">
          <Node pos="l" depth="2" NCoef="0" IVar="-1" Cut="0.0000000000000000e+00" cType="1" res="-3.5012485459446907e-03" rms="3.8403141498565674e-01" purity="1.8597991764545441e-01" nType="-99"/>
          <Node pos="r" depth="2" NCoef="0" IVar="-1" Cut="0.0000000000000000e+00" cType="1" res="-3.1094564124941826e-02" rms="2.3647354543209076e-01" purity="6.3398480415344238e-02" nType="-99"/>
        </Node>
        <Node pos="r" depth="1" NCoef="0" IVar="3" Cut="2.2501487731933594e+01" cType="1" res="6.6473878920078278e-02" rms="3.5447192192077637e-01" purity="6.7674565315246582e-01" nType="0">
          <Node pos="l" depth="2" NCoef="0" IVar="-1" Cut="0.0000000000000000e+00" cType="1" res="1.3181732967495918e-02" rms="3.6095130443572998e-01" purity="7.7652561664581299e-01" nType="-99"/>
          <Node pos="r" depth="2" NCoef="0" IVar="-1" Cut="0.0000000000000000e+00" cType="1" res="-2.3243844509124756e-02" rms="2.4719317257404327e-01" purity="8.2141973078250885e-02" nType="-99"/>
        </Node>
      </Node>
    </BinaryTree>
    <BinaryTree type="DecisionTree" boostWeight="1.0000000000000000e+00" itree="33">
      <Node pos="s" depth="0" NCoef="0" IVar="1" Cut="2.9809524536132812e+01" cType="1" res="1.7283318564295769e-02" rms="3.3568301796913147e-01" purity="4.9473971128463745e-01" nType="0">
        <Node pos="l" depth="1" NCoef="0" IVar="5" Cut="3.5795342922210693e-01" cType="1" res="-4.4243231415748596e-02" rms="3.4023192524909973e-01" purity="2.1807751059532166e-01" nType="0">
          <Node pos="l" depth="2" NCoef="0" IVar="-1" Cut="0.0000000000000000e+00" cType="1" res="4.2789722792804241e-03" rms="4.1262814402580261e-01" purity="4.3728709220886230e-01" nType="-99"/>
          <Node pos="r" depth="2" NCoef="0" IVar="-1" Cut="0.0000000000000000e+00" cType="1" res="-1.6768952831625938e-02" rms="3.1386166810989380e-01" purity="1.5530018508434296e-01" nType="-99"/>
        </Node>
        <Node pos="r" depth="1" NCoef="0" IVar="3" Cut="1.6810075759887695e+01" cType="1" res="7.8878089785575867e-02" rms="3.1940788030624390e-01" purity="7.7170866727828979e-01" nType="0">
          <Node pos="l" depth="2" NCoef="0" IVar="-1" Cut="0.0000000000000000e+00" cType="1" res="1.6178751364350319e-02" rms="3.0334362387657166e-01" purity="8.8431715965270996e-01" nType="-99"/>
          <Node pos="r" depth="2" NCoef="0" IVar="-1" Cut="0.0000000000000000e+00" cType="1" res="-1.7341230064630508e-02" rms="3.2770979404449463e-01" purity="2.2045648097991943e-01" nType="-99"/>
        </Node>
      </Node>
    </BinaryTree>
    <BinaryTree type="DecisionTree" boostWeight="1.0000000000000000e+00" itree="34">
      <Node pos="s" depth="0" NCoef="0" IVar="1" Cut="1.8571428298950195e+01" cType="1" res="2.0566331222653389e-02" rms="3.3468744158744812e-01" purity="5.0113427639007568e-01" nType="0">
        <Node pos="l" depth="1" NCoef="0" IVar="6" Cut="7.9762208461761475e-01" cType="1" res="-5.6775614619255066e-02" rms="3.0479705333709717e-01" purity="1.2378080934286118e-01" nType="0">
          <Node pos="l" depth="2" NCoef="0" IVar="-1" Cut="0.0000000000000000e+00" cType="1" res="-6.0434192419052124e-03" rms="3.8622429966926575e-01" purity="2.1392025053501129e-01" nType="-99"/>
          <Node pos="r" depth="2" NCoef="0" IVar="-1" Cut="0.0000000000000000e+00" cType="1" res="-2.9128894209861755e-02" rms="2.3036018013954163e-01" purity="6.1930608004331589e-02" nType="-99"/>
        </Node>
        <Node pos="r" depth="1" NCoef="0" IVar="2" Cut="3.0721429443359375e+02" cType="1" res="6.7315481603145599e-02" rms="3.4317374229431152e-01" purity="7.2922468185424805e-01" nType="0">
          <Node pos="l" depth="2" NCoef="0" IVar="-1" Cut="0.0000000000000000e+00" cType="1" res="1.2685861438512802e-02" rms="3.5043719410896301e-01" purity="8.2155108451843262e-01" nType="-99"/>
          <Node pos="r" depth="2" NCoef="0" IVar="-1" Cut="0.0000000000000000e+00" cType="1" res="-2.3255988955497742e-02" rms="2.0478746294975281e-01" purity="5.1750127226114273e-02" nType="-99"/>
        </Node>
      </Node>
    </BinaryTree>
    <BinaryTree type="DecisionTree" boostWeight="1.0000000000000000e+00" itree="35">
      <Node pos="s" depth="0" NCoef="0" IVar="5" Cut="3.1776440143585205e-01" cType="1" res="1.8927063792943954e-02" rms="3.3649015426635742e-01" purity="4.9881109595298767e-01" nType="0">
        <Node pos="l" depth="1" NCoef="0" IVar="19" Cut="8.4303438663482666e-01" cType="1" res="9.8225697875022888e-02" rms="2.8641000390052795e-01" purity="8.2657867670059204e-01" nType="0">
          <Node pos="l" depth="2" NCoef="0" IVar="-1" Cut="0.0000000000000000e+00" cType="1" res="5.9278449043631554e-03" rms="3.9367726445198059e-01" purity="5.4363459348678589e-01" nType="-99"/>
          <Node pos="r" depth="2" NCoef="0" IVar="-1" Cut="0.0000000000000000e+00" cType="1" res="1.9332224503159523e-02" rms="2.2337137162685394e-01" purity="9.4130086898803711e-01" nType="-99"/>
        </Node>
        <Node pos="r" depth="1" NCoef="0" IVar="0" Cut="5.4202068750000000e+05" cType="1" res="-1.8798084929585457e-02" rms="3.5164099931716919e-01" purity="3.4288054704666138e-01" nType="0">
          <Node pos="l" depth="2" NCoef="0" IVar="-1" Cut="0.0000000000000000e+00" cType="1" res="-8.1536592915654182e-04" rms="3.5501879453659058e-01" purity="3.6463293433189392e-01" nType="-99"/>
          <Node pos="r" depth="2" NCoef="0" IVar="-1" Cut="0.0000000000000000e+00" cType="1" res="-2.9662158340215683e-02" rms="2.7342465519905090e-01" purity="1.2120782583951950e-01" nType="-99"/>
        </Node>
      </Node>
    </BinaryTree>
    <BinaryTree type="DecisionTree" boostWeight="1.0000000000000000e+00" itree="36">
      <Node pos="s" depth="0" NCoef="0" IVar="7" Cut="3.8119202852249146e-01" cType="1" res="2.1113835275173187e-02" rms="3.3425173163414001e-01" purity="5.0260227918624878e-01" nType="0">
        <Node pos="l" depth="1" NCoef="0" IVar="3" Cut="2.0985666275024414e+01" cType="1" res="5.2578911185264587e-02" rms="3.6398890614509583e-01" purity="6.5599524974822998e-01" nType="0">
          <Node pos="l" depth="2" NCoef="0" IVar="-1" Cut="0.0000000000000000e+00" cType="1" res="1.0720937512814999e-02" rms="3.6436462402343750e-01" purity="7.1158897876739502e-01" nType="-99"/>
          <Node pos="r" depth="2" NCoef="0" IVar="-1" Cut="0.0000000000000000e+00" cType="1" res="-1.9850902259349823e-02" rms="3.2084837555885315e-01" purity="1.4953550696372986e-01" nType="-99"/>
        </Node>
        <Node pos="r" depth="1" NCoef="0" IVar="20" Cut="6.6666668653488159e-01" cType="1" res="-7.2573684155941010e-02" rms="1.9538399577140808e-01" purity="4.5873537659645081e-02" nType="0">
          <Node pos="l" depth="2" NCoef="0" IVar="-1" Cut="0.0000000000000000e+00" cType="1" res="-2.0845890045166016e-02" rms="2.3914280533790588e-01" purity="6.7658230662345886e-02" nType="-99"/>
          <Node pos="r" depth="2" NCoef="0" IVar="-1" Cut="0.0000000000000000e+00" cType="1" res="-3.5465277731418610e-02" rms="1.1079716682434082e-01" purity="1.7042368650436401e-02" nType="-99"/>
        </Node>
      </Node>
    </BinaryTree>
    <BinaryTree type="DecisionTree" boostWeight="1.0000000000000000e+00" itree="37">
      <Node pos="s" depth="0" NCoef="0" IVar="26" Cut="2.3418009948730469e+02" cType="1" res="2.4995209649205208e-02" rms="3.3433660864830017e-01" purity="5.0658291578292847e-01" nType="0">
        <Node pos="l" depth="1" NCoef="0" IVar="0" Cut="1.5470414062500000e+05" cType="1" res="4.8671353608369827e-02" rms="3.4589073061943054e-01" purity="5.9914308786392212e-01" nType="0">
          <Node pos="l" depth="2" NCoef="0" IVar="-1" Cut="0.0000000000000000e+00" cType="1" res="-1.0798069648444653e-02" rms="3.8215017318725586e-01" purity="2.0604735612869263e-01" nType="-99"/>
          <Node pos="r" depth="2" NCoef="0" IVar="-1" Cut="0.0000000000000000e+00" cType="1" res="1.2030483223497868e-02" rms="3.2675999402999878e-01" purity="7.3763078451156616e-01" nType="-99"/>
        </Node>
        <Node pos="r" depth="1" NCoef="0" IVar="0" Cut="4.0428275000000000e+05" cType="1" res="-8.2735508680343628e-02" rms="2.4872176349163055e-01" purity="8.5417270660400391e-02" nType="0">
          <Node pos="l" depth="2" NCoef="0" IVar="-1" Cut="0.0000000000000000e+00" cType="1" res="-2.0180957391858101e-02" rms="2.6454740762710571e-01" purity="9.9776558578014374e-02" nType="-99"/>
          <Node pos="r" depth="2" NCoef="0" IVar="-1" Cut="0.0000000000000000e+00" cType="1" res="-2.8084961697459221e-02" rms="1.9923119246959686e-01" purity="5.2803382277488708e-02" nType="-99"/>
        </Node>
      </Node>
    </BinaryTree>
    <BinaryTree type="DecisionTree" boostWeight="1.0000000000000000e+00" itree="38">
      <Node pos="s" depth="0" NCoef="0" IVar="2" Cut="2.0304106140136719e+02" cType="1" res="1.6056202352046967e-02" rms="3.3086696267127991e-01" purity="4.9891293048858643e-01" nType="0">
        <Node pos="l" depth="1" NCoef="0" IVar="0" Cut="1.4199201562500000e+05" cType="1" res="4.3884273618459702e-02" rms="3.4916129708290100e-01" purity="6.2133890390396118e-01" nType="0">
          <Node pos="l" depth="2" NCoef="0" IVar="-1" Cut="0.0000000000000000e+00" cType="1" res="-1.7119590193033218e-02" rms="3.5448342561721802e-01" purity="1.6832469403743744e-01" nType="-99"/>
          <Node pos="r" depth="2" NCoef="0" IVar="-1" Cut="0.0000000000000000e+00" cType="1" res="1.2921630404889584e-02" rms="3.3741658926010132e-01" purity="8.2525038719177246e-01" nType="-99"/>
        </Node>
        <Node pos="r" depth="1" NCoef="0" IVar="0" Cut="4.9383781250000000e+05" cType="1" res="-7.3716223239898682e-02" rms="2.4245101213455200e-01" purity="1.0397091507911682e-01" nType="0">
          <Node pos="l" depth="2" NCoef="0" IVar="-1" Cut="0.0000000000000000e+00" cType="1" res="-1.2095745652914047e-02" rms="2.4946480989456177e-01" purity="1.2307909131050110e-01" nType="-99"/>
          <Node pos="r" depth="2" NCoef="0" IVar="-1" Cut="0.0000000000000000e+00" cType="1" res="-2.7767587453126907e-02" rms="2.0827804505825043e-01" purity="5.8919519186019897e-02" nType="-99"/>
        </Node>
      </Node>
    </BinaryTree>
    <BinaryTree type="DecisionTree" boostWeight="1.0000000000000000e+00" itree="39">
      <Node pos="s" depth="0" NCoef="0" IVar="5" Cut="3.1748735904693604e-01" cType="1" res="1.8956592306494713e-02" rms="3.3334034681320190e-01" purity="5.0021779537200928e-01" nType="0">
        <Node pos="l" depth="1" NCoef="0" IVar="2" Cut="3.3860507965087891e+01" cType="1" res="8.8165752589702606e-02" rms="2.8362002968788147e-01" purity="8.2700479030609131e-01" nType="0">
          <Node pos="l" depth="2" NCoef="0" IVar="-1" Cut="0.0000000000000000e+00" cType="1" res="-2.3921338841319084e-02" rms="3.6631387472152710e-01" purity="1.9721600413322449e-01" nType="-99"/>
          <Node pos="r" depth="2" NCoef="0" IVar="-1" Cut="0.0000000000000000e+00" cType="1" res="1.7423873767256737e-02" rms="2.6712280511856079e-01" purity="8.9648431539535522e-01" nType="-99"/>
        </Node>
        <Node pos="r" depth="1" NCoef="0" IVar="0" Cut="5.3684918750000000e+05" cType="1" res="-1.3626062311232090e-02" rms="3.4962937235832214e-01" purity="3.4637129306793213e-01" nType="0">
          <Node pos="l" depth="2" NCoef="0" IVar="-1" Cut="0.0000000000000000e+00" cType="1" res="5.4856165661476552e-05" rms="3.5434734821319580e-01" purity="3.6921536922454834e-01" nType="-99"/>
          <Node pos="r" depth="2" NCoef="0" IVar="-1" Cut="0.0000000000000000e+00" cType="1" res="-2.7810968458652496e-02" rms="2.6701951026916504e-01" purity="1.2897606194019318e-01" nType="-99"/>
        </Node>
      </Node>
    </BinaryTree>
    <BinaryTree type="DecisionTree" boostWeight="1.0000000000000000e+00" itree="40">
      <Node pos="s" depth="0" NCoef="0" IVar="12" Cut="4.7619047760963440e-01" cType="1" res="1.5587799251079559e-02" rms="3.3329421281814575e-01" purity="4.9675503373146057e-01" nType="0">
        <Node pos="l" depth="1" NCoef="0" IVar="26" Cut="1.1104518127441406e+02" cType="1" res="-4.5195702463388443e-02" rms="2.9941514134407043e-01" purity="1.8293215334415436e-01" nType="0">
          <Node pos="l" depth="2" NCoef="0" IVar="-1" Cut="0.0000000000000000e+00" cType="1" res="-2.8102593496441841e-03" rms="3.4998652338981628e-01" purity="2.9451689124107361e-01" nType="-99"/>
          <Node pos="r" depth="2" NCoef="0" IVar="-1" Cut="0.0000000000000000e+00" cType="1" res="-2.5220159441232681e-02" rms="2.3284357786178589e-01" purity="6.9687478244304657e-02" nType="-99"/>
        </Node>
        <Node pos="r" depth="1" NCoef="0" IVar="19" Cut="6.0857337713241577e-01" cType="1" res="4.9813918769359589e-02" rms="3.4627047181129456e-01" purity="6.7346322536468506e-01" nType="0">
          <Node pos="l" depth="2" NCoef="0" IVar="-1" Cut="0.0000000000000000e+00" cType="1" res="-5.7879444211721420e-03" rms="4.0252399444580078e-01" purity="3.5534366965293884e-01" nType="-99"/>
          <Node pos="r" depth="2" NCoef="0" IVar="-1" Cut="0.0000000000000000e+00" cType="1" res="1.3191065751016140e-02" rms="3.0886644124984741e-01" purity="8.2730096578598022e-01" nType="-99"/>
        </Node>
      </Node>
    </BinaryTree>
    <BinaryTree type="DecisionTree" boostWeight="1.0000000000000000e+00" itree="41">
      <Node pos="s" depth="0" NCoef="0" IVar="1" Cut="1.2714285850524902e+01" cType="1" res="1.6058975830674171e-02" rms="3.2932966947555542e-01" purity="4.9864476919174194e-01" nType="0">
        <Node pos="l" depth="1" NCoef="0" IVar="1" Cut="8.3333330154418945e+00" cType="1" res="-5.5935453623533249e-02" rms="2.5992432236671448e-01" purity="7.8689470887184143e-02" nType="0">
          <Node pos="l" depth="2" NCoef="0" IVar="-1" Cut="0.0000000000000000e+00" cType="1" res="-2.8749933466315269e-02" rms="2.3007510602474213e-01" purity="5.8867644518613815e-02" nType="-99"/>
          <Node pos="r" depth="2" NCoef="0" IVar="-1" Cut="0.0000000000000000e+00" cType="1" res="-6.9250008091330528e-03" rms="3.3465921878814697e-01" purity="1.4128494262695312e-01" nType="-99"/>
        </Node>
        <Node pos="r" depth="1" NCoef="0" IVar="0" Cut="5.8898625000000000e+05" cType="1" res="4.6303860843181610e-02" rms="3.5006690025329590e-01" purity="6.7506814002990723e-01" nType="0">
          <Node pos="l" depth="2" NCoef="0" IVar="-1" Cut="0.0000000000000000e+00" cType="1" res="1.0017687454819679e-02" rms="3.5020390152931213e-01" purity="7.1924698352813721e-01" nType="-99"/>
          <Node pos="r" depth="2" NCoef="0" IVar="-1" Cut="0.0000000000000000e+00" cType="1" res="-2.3753700777888298e-02" rms="3.0345386266708374e-01" purity="2.7069664001464844e-01" nType="-99"/>
        </Node>
      </Node>
    </BinaryTree>
    <BinaryTree type="DecisionTree" boostWeight="1.0000000000000000e+00" itree="42">
      <Node pos="s" depth="0" NCoef="0" IVar="7" Cut="3.8119742274284363e-01" cType="1" res="1.5703162178397179e-02" rms="3.2911169528961182e-01" purity="4.9678382277488708e-01" nType="0">
        <Node pos="l" depth="1" NCoef="0" IVar="0" Cut="6.1755368750000000e+05" cType="1" res="4.1632011532783508e-02" rms="3.6196210980415344e-01" purity="6.5523952245712280e-01" nType="0">
          <Node pos="l" depth="2" NCoef="0" IVar="-1" Cut="0.0000000000000000e+00" cType="1" res="8.8479211553931236e-03" rms="3.6078092455863953e-01" purity="6.7868137359619141e-01" nType="-99"/>
          <Node pos="r" depth="2" NCoef="0" IVar="-1" Cut="0.0000000000000000e+00" cType="1" res="-2.6783630251884460e-02" rms="3.2958021759986877e-01" purity="3.0346065759658813e-01" nType="-99"/>
        </Node>
        <Node pos="r" depth="1" NCoef="0" IVar="2" Cut="1.0975970458984375e+02" cType="1" res="-5.8017995208501816e-02" rms="1.9084416329860687e-01" purity="4.6261195093393326e-02" nType="0">
          <Node pos="l" depth="2" NCoef="0" IVar="-1" Cut="0.0000000000000000e+00" cType="1" res="-1.4158557169139385e-02" rms="2.7516391873359680e-01" purity="1.0294592380523682e-01" nType="-99"/>
          <Node pos="r" depth="2" NCoef="0" IVar="-1" Cut="0.0000000000000000e+00" cType="1" res="-2.6798138394951820e-02" rms="1.4756147563457489e-01" purity="2.5891765952110291e-02" nType="-99"/>
        </Node>
      </Node>
    </BinaryTree>
    <BinaryTree type="DecisionTree" boostWeight="1.0000000000000000e+00" itree="43">
      <Node pos="s" depth="0" NCoef="0" IVar="1" Cut="3.0285715103149414e+01" cType="1" res="1.8548073247075081e-02" rms="3.2931622862815857e-01" purity="5.0032222270965576e-01" nType="0">
        <Node pos="l" depth="1" NCoef="0" IVar="3" Cut="4.9374271392822266e+01" cType="1" res="-2.1602461114525795e-02" rms="3.4581619501113892e-01" purity="2.3554533720016479e-01" nType="0">
          <Node pos="l" depth="2" NCoef="0" IVar="-1" Cut="0.0000000000000000e+00" cType="1" res="-1.2945935595780611e-03" rms="3.9193239808082581e-01" purity="3.0628436803817749e-01" nType="-99"/>
          <Node pos="r" depth="2" NCoef="0" IVar="-1" Cut="0.0000000000000000e+00" cType="1" res="-3.4690883010625839e-02" rms="6.8929456174373627e-02" purity="4.1641611605882645e-03" nType="-99"/>
        </Node>
        <Node pos="r" depth="1" NCoef="0" IVar="0" Cut="5.4827131250000000e+05" cType="1" res="6.1108157038688660e-02" rms="3.0515703558921814e-01" purity="7.8098911046981812e-01" nType="0">
          <Node pos="l" depth="2" NCoef="0" IVar="-1" Cut="0.0000000000000000e+00" cType="1" res="1.3374437578022480e-02" rms="2.9730284214019775e-01" purity="8.6420792341232300e-01" nType="-99"/>
          <Node pos="r" depth="2" NCoef="0" IVar="-1" Cut="0.0000000000000000e+00" cType="1" res="-1.7020715400576591e-02" rms="3.0818137526512146e-01" purity="3.3583620190620422e-01" nType="-99"/>
        </Node>
      </Node>
    </BinaryTree>
    <BinaryTree type="DecisionTree" boostWeight="1.0000000000000000e+00" itree="44">
      <Node pos="s" depth="0" NCoef="0" IVar="2" Cut="1.0975894927978516e+02" cType="1" res="1.6574911773204803e-02" rms="3.2868546247482300e-01" purity="5.0426387786865234e-01" nType="0">
        <Node pos="l" depth="1" NCoef="0" IVar="19" Cut="4.3850326538085938e-01" cType="1" res="4.9695592373609543e-02" rms="3.3728092908859253e-01" purity="6.3999056816101074e-01" nType="0">
          <Node pos="l" depth="2" NCoef="0" IVar="-1" Cut="0.0000000000000000e+00" cType="1" res="-6.6716233268380165e-03" rms="3.9903104305267334e-01" purity="2.7876093983650208e-01" nType="-99"/>
          <Node pos="r" depth="2" NCoef="0" IVar="-1" Cut="0.0000000000000000e+00" cType="1" res="1.6240354627370834e-02" rms="2.7453169226646423e-01" purity="8.9200341701507568e-01" nType="-99"/>
        </Node>
        <Node pos="r" depth="1" NCoef="0" IVar="0" Cut="6.3069418750000000e+05" cType="1" res="-3.3600300550460815e-02" rms="3.0851724743843079e-01" purity="2.9864859580993652e-01" nType="0">
          <Node pos="l" depth="2" NCoef="0" IVar="-1" Cut="0.0000000000000000e+00" cType="1" res="-4.0005422197282314e-03" rms="3.0929183959960938e-01" purity="3.2092419266700745e-01" nType="-99"/>
          <Node pos="r" depth="2" NCoef="0" IVar="-1" Cut="0.0000000000000000e+00" cType="1" res="-2.9588403180241585e-02" rms="2.7879044413566589e-01" purity="1.3649143278598785e-01" nType="-99"/>
        </Node>
      </Node>
    </BinaryTree>
    <BinaryTree type="DecisionTree" boostWeight="1.0000000000000000e+00" itree="45">
      <Node pos="s" depth="0" NCoef="0" IVar="1" Cut="3.0047618865966797e+01" cType="1" res="1.4932473190128803e-02" rms="3.2755365967750549e-01" purity="4.9857145547866821e-01" nType="0">
        <Node pos="l" depth="1" NCoef="0" IVar="3" Cut="4.8159526824951172e+01" cType="1" res="-2.6061996817588806e-02" rms="3.4165477752685547e-01" purity="2.3157076537609100e-01" nType="0">
          <Node pos="l" depth="2" NCoef="0" IVar="-1" Cut="0.0000000000000000e+00" cType="1" res="-2.8334741946309805e-03" rms="3.8854795694351196e-01" purity="3.0235123634338379e-01" nType="-99"/>
          <Node pos="r" depth="2" NCoef="0" IVar="-1" Cut="0.0000000000000000e+00" cType="1" res="-3.4493222832679749e-02" rms="6.1583612114191055e-02" purity="3.4677872899919748e-03" nType="-99"/>
        </Node>
        <Node pos="r" depth="1" NCoef="0" IVar="0" Cut="5.8157950000000000e+05" cType="1" res="5.8222819119691849e-02" rms="3.0606800317764282e-01" purity="7.8052550554275513e-01" nType="0">
          <Node pos="l" depth="2" NCoef="0" IVar="-1" Cut="0.0000000000000000e+00" cType="1" res="1.2593545950949192e-02" rms="3.0051133036613464e-01" purity="8.5457879304885864e-01" nType="-99"/>
          <Node pos="r" depth="2" NCoef="0" IVar="-1" Cut="0.0000000000000000e+00" cType="1" res="-1.8332757055759430e-02" rms="3.0315655469894409e-01" purity="2.9754599928855896e-01" nType="-99"/>
        </Node>
      </Node>
    </BinaryTree>
    <BinaryTree type="DecisionTree" boostWeight="1.0000000000000000e+00" itree="46">
      <Node pos="s" depth="0" NCoef="0" IVar="5" Cut="3.1443598866462708e-01" cType="1" res="1.6405787318944931e-02" rms="3.2547822594642639e-01" purity="5.0649315118789673e-01" nType="0">
        <Node pos="l" depth="1" NCoef="0" IVar="1" Cut="1.2523809432983398e+01" cType="1" res="7.3465436697006226e-02" rms="2.6837930083274841e-01" purity="8.3440667390823364e-01" nType="0">
          <Node pos="l" depth="2" NCoef="0" IVar="-1" Cut="0.0000000000000000e+00" cType="1" res="-1.6347577795386314e-02" rms="3.2802027463912964e-01" purity="1.3116429746150970e-01" nType="-99"/>
          <Node pos="r" depth="2" NCoef="0" IVar="-1" Cut="0.0000000000000000e+00" cType="1" res="1.5593688003718853e-02" rms="2.5742027163505554e-01" purity="9.1494774818420410e-01" nType="-99"/>
        </Node>
        <Node pos="r" depth="1" NCoef="0" IVar="0" Cut="5.1901212500000000e+05" cType="1" res="-9.9706808105111122e-03" rms="3.4555748105049133e-01" purity="3.5491144657135010e-01" nType="0">
          <Node pos="l" depth="2" NCoef="0" IVar="-1" Cut="0.0000000000000000e+00" cType="1" res="3.4249571035616100e-04" rms="3.5193556547164917e-01" purity="3.8046228885650635e-01" nType="-99"/>
          <Node pos="r" depth="2" NCoef="0" IVar="-1" Cut="0.0000000000000000e+00" cType="1" res="-2.5368243455886841e-02" rms="2.6271903514862061e-01" purity="1.3141001760959625e-01" nType="-99"/>
        </Node>
      </Node>
    </BinaryTree>
    <BinaryTree type="DecisionTree" boostWeight="1.0000000000000000e+00" itree="47">
      <Node pos="s" depth="0" NCoef="0" IVar="2" Cut="1.6276553344726562e+02" cType="1" res="1.5451344661414623e-02" rms="3.2825258374214172e-01" purity="4.9967023730278015e-01" nType="0">
        <Node pos="l" depth="1" NCoef="0" IVar="0" Cut="2.4729940625000000e+05" cType="1" res="4.3834786862134933e-02" rms="3.4522366523742676e-01" purity="6.3649356365203857e-01" nType="0">
          <Node pos="l" depth="2" NCoef="0" IVar="-1" Cut="0.0000000000000000e+00" cType="1" res="-8.4215024253353477e-04" rms="3.9721506834030151e-01" purity="3.6996373534202576e-01" nType="-99"/>
          <Node pos="r" depth="2" NCoef="0" IVar="-1" Cut="0.0000000000000000e+00" cType="1" res="1.4861846342682838e-02" rms="2.7379927039146423e-01" purity="9.0958279371261597e-01" nType="-99"/>
        </Node>
        <Node pos="r" depth="1" NCoef="0" IVar="0" Cut="4.6315975000000000e+05" cType="1" res="-5.5112041532993317e-02" rms="2.6898473501205444e-01" purity="1.5951701998710632e-01" nType="0">
          <Node pos="l" depth="2" NCoef="0" IVar="-1" Cut="0.0000000000000000e+00" cType="1" res="-8.9336670935153961e-03" rms="2.7089032530784607e-01" purity="1.7580841481685638e-01" nType="-99"/>
          <Node pos="r" depth="2" NCoef="0" IVar="-1" Cut="0.0000000000000000e+00" cType="1" res="-2.3880396038293839e-02" rms="2.5750854611396790e-01" purity="1.2292043864727020e-01" nType="-99"/>
        </Node>
      </Node>
    </BinaryTree>
    <BinaryTree type="DecisionTree" boostWeight="1.0000000000000000e+00" itree="48">
      <Node pos="s" depth="0" NCoef="0" IVar="5" Cut="3.1886202096939087e-01" cType="1" res="1.5411365777254105e-02" rms="3.2863727211952209e-01" purity="4.9969708919525146e-01" nType="0">
        <Node pos="l" depth="1" NCoef="0" IVar="17" Cut="1.2857142686843872e+00" cType="1" res="6.7468874156475067e-02" rms="2.7766156196594238e-01" purity="8.2937705516815186e-01" nType="0">
          <Node pos="l" depth="2" NCoef="0" IVar="-1" Cut="0.0000000000000000e+00" cType="1" res="-1.3399573974311352e-02" rms="3.2072582840919495e-01" purity="1.9621892273426056e-01" nType="-99"/>
          <Node pos="r" depth="2" NCoef="0" IVar="-1" Cut="0.0000000000000000e+00" cType="1" res="1.4539325609803200e-02" rms="2.7170705795288086e-01" purity="8.8296383619308472e-01" nType="-99"/>
        </Node>
        <Node pos="r" depth="1" NCoef="0" IVar="0" Cut="4.6753887500000000e+05" cType="1" res="-9.8970774561166763e-03" rms="3.4795120358467102e-01" purity="3.3941879868507385e-01" nType="0">
          <Node pos="l" depth="2" NCoef="0" IVar="-1" Cut="0.0000000000000000e+00" cType="1" res="5.4429599549621344e-04" rms="3.5608217120170593e-01" purity="3.6483430862426758e-01" nType="-99"/>
          <Node pos="r" depth="2" NCoef="0" IVar="-1" Cut="0.0000000000000000e+00" cType="1" res="-2.0043758675456047e-02" rms="2.8041777014732361e-01" purity="1.8169775605201721e-01" nType="-99"/>
        </Node>
      </Node>
    </BinaryTree>
    <BinaryTree type="DecisionTree" boostWeight="1.0000000000000000e+00" itree="49">
      <Node pos="s" depth="0" NCoef="0" IVar="5" Cut="3.0715310573577881e-01" cType="1" res="1.2144342996180058e-02" rms="3.2675445079803467e-01" purity="5.0102287530899048e-01" nType="0">
        <Node pos="l" depth="1" NCoef="0" IVar="22" Cut="4.5428569793701172e+01" cType="1" res="7.5232595205307007e-02" rms="2.7049133181571960e-01" purity="8.4127372503280640e-01" nType="0">
          <Node pos="l" depth="2" NCoef="0" IVar="-1" Cut="0.0000000000000000e+00" cType="1" res="1.1261584004387259e-03" rms="3.7573176622390747e-01" purity="4.0291291475296021e-01" nType="-99"/>
          <Node pos="r" depth="2" NCoef="0" IVar="-1" Cut="0.0000000000000000e+00" cType="1" res="1.6937885433435440e-02" rms="2.4547243118286133e-01" purity="9.1787457466125488e-01" nType="-99"/>
        </Node>
        <Node pos="r" depth="1" NCoef="0" IVar="0" Cut="1.5616354687500000e+05" cType="1" res="-1.4082156121730804e-02" rms="3.4408599138259888e-01" purity="3.5957676172256470e-01" nType="0">
          <Node pos="l" depth="2" NCoef="0" IVar="-1" Cut="0.0000000000000000e+00" cType="1" res="-1.9279249012470245e-02" rms="3.2727339863777161e-01" purity="1.3621328771114349e-01" nType="-99"/>
          <Node pos="r" depth="2" NCoef="0" IVar="-1" Cut="0.0000000000000000e+00" cType="1" res="1.3606786960735917e-03" rms="3.5037401318550110e-01" purity="4.7335100173950195e-01" nType="-99"/>
        </Node>
      </Node>
    </BinaryTree>
    <BinaryTree type="DecisionTree" boostWeight="1.0000000000000000e+00" itree="50">
      <Node pos="s" depth="0" NCoef="0" IVar="3" Cut="3.8598960876464844e+01" cType="1" res="1.5385216102004051e-02" rms="3.2245391607284546e-01" purity="5.0088441371917725e-01" nType="0">
        <Node pos="l" depth="1" NCoef="0" IVar="3" Cut="2.0679849624633789e+01" cType="1" res="3.1825259327888489e-02" rms="3.4829795360565186e-01" purity="5.9626847505569458e-01" nType="0">
          <Node pos="l" depth="2" NCoef="0" IVar="-1" Cut="0.0000000000000000e+00" cType="1" res="8.4848925471305847e-03" rms="3.5327100753784180e-01" purity="6.7481946945190430e-01" nType="-99"/>
          <Node pos="r" depth="2" NCoef="0" IVar="-1" Cut="0.0000000000000000e+00" cType="1" res="-1.4218290336430073e-02" rms="3.0278247594833374e-01" purity="1.2821681797504425e-01" nType="-99"/>
        </Node>
        <Node pos="r" depth="1" NCoef="0" IVar="7" Cut="4.7803881764411926e-01" cType="1" res="-7.0247799158096313e-02" rms="7.0295229554176331e-02" purity="4.0475949645042419e-03" nType="0">
          <Node pos="l" depth="2" NCoef="0" IVar="-1" Cut="0.0000000000000000e+00" cType="1" res="-3.7881955504417419e-02" rms="1.2792187929153442e-01" purity="1.3430249877274036e-02" nType="-99"/>
          <Node pos="r" depth="2" NCoef="0" IVar="-1" Cut="0.0000000000000000e+00" cType="1" res="-3.3936519175767899e-02" rms="4.7239668667316437e-02" purity="1.9893343560397625e-03" nType="-99"/>
        </Node>
      </Node>
    </BinaryTree>
    <BinaryTree type="DecisionTree" boostWeight="1.0000000000000000e+00" itree="51">
      <Node pos="s" depth="0" NCoef="0" IVar="5" Cut="3.1924280524253845e-01" cType="1" res="1.4705628156661987e-02" rms="3.2570767402648926e-01" purity="5.0002032518386841e-01" nType="0">
        <Node pos="l" depth="1" NCoef="0" IVar="17" Cut="1.2857142686843872e+00" cType="1" res="6.5928451716899872e-02" rms="2.8325924277305603e-01" purity="8.2795768976211548e-01" nType="0">
          <Node pos="l" depth="2" NCoef="0" IVar="-1" Cut="0.0000000000000000e+00" cType="1" res="-1.3873869553208351e-02" rms="3.0734220147132874e-01" purity="2.0581433176994324e-01" nType="-99"/>
          <Node pos="r" depth="2" NCoef="0" IVar="-1" Cut="0.0000000000000000e+00" cType="1" res="1.4655528590083122e-02" rms="2.7940550446510315e-01" purity="8.7955629825592041e-01" nType="-99"/>
        </Node>
        <Node pos="r" depth="1" NCoef="0" IVar="26" Cut="1.1173536682128906e+02" cType="1" res="-1.0334905236959457e-02" rms="3.4177851676940918e-01" purity="3.3970654010772705e-01" nType="0">
          <Node pos="l" depth="2" NCoef="0" IVar="-1" Cut="0.0000000000000000e+00" cType="1" res="2.3866668343544006e-03" rms="3.6366796493530273e-01" purity="4.3328511714935303e-01" nType="-99"/>
          <Node pos="r" depth="2" NCoef="0" IVar="-1" Cut="0.0000000000000000e+00" cType="1" res="-1.3866449706256390e-02" rms="2.9536831378936768e-01" purity="1.7529968917369843e-01" nType="-99"/>
        </Node>
      </Node>
    </BinaryTree>
    <BinaryTree type="DecisionTree" boostWeight="1.0000000000000000e+00" itree="52">
      <Node pos="s" depth="0" NCoef="0" IVar="5" Cut="3.0974930524826050e-01" cType="1" res="1.2236758135259151e-02" rms="3.2546299695968628e-01" purity="5.0017184019088745e-01" nType="0">
        <Node pos="l" depth="1" NCoef="0" IVar="19" Cut="4.5462936162948608e-01" cType="1" res="6.0876652598381042e-02" rms="2.7198126912117004e-01" purity="8.3539474010467529e-01" nType="0">
          <Node pos="l" depth="2" NCoef="0" IVar="-1" Cut="0.0000000000000000e+00" cType="1" res="-1.0163735132664442e-03" rms="4.0252637863159180e-01" purity="3.7306541204452515e-01" nType="-99"/>
          <Node pos="r" depth="2" NCoef="0" IVar="-1" Cut="0.0000000000000000e+00" cType="1" res="1.5149870887398720e-02" rms="2.3395989835262299e-01" purity="9.3086695671081543e-01" nType="-99"/>
        </Node>
        <Node pos="r" depth="1" NCoef="0" IVar="26" Cut="1.1104518127441406e+02" cType="1" res="-8.6285443976521492e-03" rms="3.4377706050872803e-01" purity="3.5636952519416809e-01" nType="0">
          <Node pos="l" depth="2" NCoef="0" IVar="-1" Cut="0.0000000000000000e+00" cType="1" res="2.1414167713373899e-03" rms="3.6423513293266296e-01" purity="4.4901525974273682e-01" nType="-99"/>
          <Node pos="r" depth="2" NCoef="0" IVar="-1" Cut="0.0000000000000000e+00" cType="1" res="-1.3054560869932175e-02" rms="2.9806432127952576e-01" purity="1.8201702833175659e-01" nType="-99"/>
        </Node>
      </Node>
    </BinaryTree>
    <BinaryTree type="DecisionTree" boostWeight="1.0000000000000000e+00" itree="53">
      <Node pos="s" depth="0" NCoef="0" IVar="5" Cut="3.0370467901229858e-01" cType="1" res="1.2368046678602695e-02" rms="3.2565963268280029e-01" purity="4.9974748492240906e-01" nType="0">
        <Node pos="l" depth="1" NCoef="0" IVar="21" Cut="1.5765765905380249e+00" cType="1" res="6.2700770795345306e-02" rms="2.6409906148910522e-01" purity="8.3785456418991089e-01" nType="0">
          <Node pos="l" depth="2" NCoef="0" IVar="-1" Cut="0.0000000000000000e+00" cType="1" res="-1.7441366799175739e-03" rms="3.5455662012100220e-01" purity="5.0078934431076050e-01" nType="-99"/>
          <Node pos="r" depth="2" NCoef="0" IVar="-1" Cut="0.0000000000000000e+00" cType="1" res="1.5980925410985947e-02" rms="2.4001920223236084e-01" purity="9.0400701761245728e-01" nType="-99"/>
        </Node>
        <Node pos="r" depth="1" NCoef="0" IVar="0" Cut="4.6019321875000000e+05" cType="1" res="-7.8625688329339027e-03" rms="3.4528157114982605e-01" purity="3.6384952068328857e-01" nType="0">
          <Node pos="l" depth="2" NCoef="0" IVar="-1" Cut="0.0000000000000000e+00" cType="1" res="1.0012286948040128e-03" rms="3.5210436582565308e-01" purity="3.8805106282234192e-01" nType="-99"/>
          <Node pos="r" depth="2" NCoef="0" IVar="-1" Cut="0.0000000000000000e+00" cType="1" res="-1.9723571836948395e-02" rms="2.8944540023803711e-01" purity="2.1726110577583313e-01" nType="-99"/>
        </Node>
      </Node>
    </BinaryTree>
    <BinaryTree type="DecisionTree" boostWeight="1.0000000000000000e+00" itree="54">
      <Node pos="s" depth="0" NCoef="0" IVar="0" Cut="2.2704690625000000e+05" cType="1" res="1.3350388966500759e-02" rms="3.2515466213226318e-01" purity="5.0243300199508667e-01" nType="0">
        <Node pos="l" depth="1" NCoef="0" IVar="0" Cut="1.7311250000000000e+05" cType="1" res="-2.1543538197875023e-02" rms="3.6044546961784363e-01" purity="2.7235445380210876e-01" nType="0">
          <Node pos="l" depth="2" NCoef="0" IVar="-1" Cut="0.0000000000000000e+00" cType="1" res="-1.2053168378770351e-02" rms="3.5352686047554016e-01" purity="1.8337745964527130e-01" nType="-99"/>
          <Node pos="r" depth="2" NCoef="0" IVar="-1" Cut="0.0000000000000000e+00" cType="1" res="4.7393771819770336e-03" rms="3.7628391385078430e-01" purity="5.3414916992187500e-01" nType="-99"/>
        </Node>
        <Node pos="r" depth="1" NCoef="0" IVar="2" Cut="1.3265551757812500e+02" cType="1" res="3.8863167166709900e-02" rms="2.9409843683242798e-01" purity="6.7065548896789551e-01" nType="0">
          <Node pos="l" depth="2" NCoef="0" IVar="-1" Cut="0.0000000000000000e+00" cType="1" res="1.4090648852288723e-02" rms="2.6548203825950623e-01" purity="9.1746991872787476e-01" nType="-99"/>
          <Node pos="r" depth="2" NCoef="0" IVar="-1" Cut="0.0000000000000000e+00" cType="1" res="-4.6929181553423405e-03" rms="3.2203996181488037e-01" purity="3.0969741940498352e-01" nType="-99"/>
        </Node>
      </Node>
    </BinaryTree>
    <BinaryTree type="DecisionTree" boostWeight="1.0000000000000000e+00" itree="55">
      <Node pos="s" depth="0" NCoef="0" IVar="26" Cut="1.0982862854003906e+02" cType="1" res="1.1945283971726894e-02" rms="3.2644543051719666e-01" purity="4.9992725253105164e-01" nType="0">
        <Node pos="l" depth="1" NCoef="0" IVar="0" Cut="2.1514420312500000e+05" cType="1" res="3.1807076185941696e-02" rms="3.3281022310256958e-01" purity="6.0112375020980835e-01" nType="0">
          <Node pos="l" depth="2" NCoef="0" IVar="-1" Cut="0.0000000000000000e+00" cType="1" res="-3.6380125675350428e-03" rms="3.8553810119628906e-01" purity="3.0647790431976318e-01" nType="-99"/>
          <Node pos="r" depth="2" NCoef="0" IVar="-1" Cut="0.0000000000000000e+00" cType="1" res="1.0939973406493664e-02" rms="2.9147011041641235e-01" purity="7.8515279293060303e-01" nType="-99"/>
        </Node>
        <Node pos="r" depth="1" NCoef="0" IVar="2" Cut="1.0201755523681641e+02" cType="1" res="-3.7381514906883240e-02" rms="3.0452084541320801e-01" purity="2.4860548973083496e-01" nType="0">
          <Node pos="l" depth="2" NCoef="0" IVar="-1" Cut="0.0000000000000000e+00" cType="1" res="1.3041906058788300e-03" rms="3.5383117198944092e-01" purity="4.3514028191566467e-01" nType="-99"/>
          <Node pos="r" depth="2" NCoef="0" IVar="-1" Cut="0.0000000000000000e+00" cType="1" res="-1.6729492694139481e-02" rms="2.7477014064788818e-01" purity="1.5712109208106995e-01" nType="-99"/>
        </Node>
      </Node>
    </BinaryTree>
    <BinaryTree type="DecisionTree" boostWeight="1.0000000000000000e+00" itree="56">
      <Node pos="s" depth="0" NCoef="0" IVar="2" Cut="3.2728833007812500e+02" cType="1" res="1.2058101594448090e-02" rms="3.2477238774299622e-01" purity="5.0384730100631714e-01" nType="0">
        <Node pos="l" depth="1" NCoef="0" IVar="0" Cut="2.1307404687500000e+05" cType="1" res="2.4306863546371460e-02" rms="3.4671428799629211e-01" purity="5.8986937999725342e-01" nType="0">
          <Node pos="l" depth="2" NCoef="0" IVar="-1" Cut="0.0000000000000000e+00" cType="1" res="-5.4424121044576168e-03" rms="3.7226748466491699e-01" purity="2.6258513331413269e-01" nType="-99"/>
          <Node pos="r" depth="2" NCoef="0" IVar="-1" Cut="0.0000000000000000e+00" cType="1" res="9.5820408314466476e-03" rms="3.2260912656784058e-01" purity="8.3346670866012573e-01" nType="-99"/>
        </Node>
        <Node pos="r" depth="1" NCoef="0" IVar="0" Cut="4.0679321875000000e+05" cType="1" res="-5.6268859654664993e-02" rms="1.3335298001766205e-01" purity="2.3992082104086876e-02" nType="0">
          <Node pos="l" depth="2" NCoef="0" IVar="-1" Cut="0.0000000000000000e+00" cType="1" res="-2.4470394477248192e-02" rms="1.3794820010662079e-01" purity="2.7957368642091751e-02" nType="-99"/>
          <Node pos="r" depth="2" NCoef="0" IVar="-1" Cut="0.0000000000000000e+00" cType="1" res="-2.4604104459285736e-02" rms="1.2677001953125000e-01" purity="1.9974600523710251e-02" nType="-99"/>
        </Node>
      </Node>
    </BinaryTree>
    <BinaryTree type="DecisionTree" boostWeight="1.0000000000000000e+00" itree="57">
      <Node pos="s" depth="0" NCoef="0" IVar="0" Cut="6.3839650000000000e+05" cType="1" res="1.4659687876701355e-02" rms="3.2463517785072327e-01" purity="5.0128370523452759e-01" nType="0">
        <Node pos="l" depth="1" NCoef="0" IVar="1" Cut="3.9000000000000000e+01" cType="1" res="2.1599080413579941e-02" rms="3.2570841908454895e-01" purity="5.1905381679534912e-01" nType="0">
          <Node pos="l" depth="2" NCoef="0" IVar="-1" Cut="0.0000000000000000e+00" cType="1" res="-1.0002182098105550e-03" rms="3.4603580832481384e-01" purity="3.1857377290725708e-01" nType="-99"/>
          <Node pos="r" depth="2" NCoef="0" IVar="-1" Cut="0.0000000000000000e+00" cType="1" res="1.2211455963551998e-02" rms="2.8090256452560425e-01" purity="8.7149989604949951e-01" nType="-99"/>
        </Node>
        <Node pos="r" depth="1" NCoef="0" IVar="-1" Cut="0.0000000000000000e+00" cType="1" res="-2.8182972222566605e-02" rms="2.7713087201118469e-01" purity="1.8463209271430969e-01" nType="-99"/>
      </Node>
    </BinaryTree>
    <BinaryTree type="DecisionTree" boostWeight="1.0000000000000000e+00" itree="58">
      <Node pos="s" depth="0" NCoef="0" IVar="2" Cut="1.4559736633300781e+02" cType="1" res="9.6333390101790428e-03" rms="3.2201436161994934e-01" purity="4.9732309579849243e-01" nType="0">
        <Node pos="l" depth="1" NCoef="0" IVar="19" Cut="9.7349721193313599e-01" cType="1" res="3.0595252290368080e-02" rms="3.3890855312347412e-01" purity="6.3598769903182983e-01" nType="0">
          <Node pos="l" depth="2" NCoef="0" IVar="-1" Cut="0.0000000000000000e+00" cType="1" res="4.7757918946444988e-04" rms="3.8989335298538208e-01" purity="4.3786606192588806e-01" nType="-99"/>
          <Node pos="r" depth="2" NCoef="0" IVar="-1" Cut="0.0000000000000000e+00" cType="1" res="1.4630176126956940e-02" rms="2.3670341074466705e-01" purity="9.3346458673477173e-01" nType="-99"/>
        </Node>
        <Node pos="r" depth="1" NCoef="0" IVar="0" Cut="3.8630028125000000e+05" cType="1" res="-3.6443565040826797e-02" rms="2.7579075098037720e-01" purity="1.9252100586891174e-01" nType="0">
          <Node pos="l" depth="2" NCoef="0" IVar="-1" Cut="0.0000000000000000e+00" cType="1" res="-3.8487841375172138e-03" rms="2.7631694078445435e-01" purity="1.9214361906051636e-01" nType="-99"/>
          <Node pos="r" depth="2" NCoef="0" IVar="-1" Cut="0.0000000000000000e+00" cType="1" res="-1.8418749794363976e-02" rms="2.7120363712310791e-01" purity="1.9311043620109558e-01" nType="-99"/>
        </Node>
      </Node>
    </BinaryTree>
    <BinaryTree type="DecisionTree" boostWeight="1.0000000000000000e+00" itree="59">
      <Node pos="s" depth="0" NCoef="0" IVar="5" Cut="2.6989409327507019e-01" cType="1" res="8.3783129230141640e-03" rms="3.2332533597946167e-01" purity="4.9843055009841919e-01" nType="0">
        <Node pos="l" depth="1" NCoef="0" IVar="29" Cut="1.4285437762737274e-01" cType="1" res="7.0506751537322998e-02" rms="2.4013943970203400e-01" purity="8.5810607671737671e-01" nType="0">
          <Node pos="l" depth="2" NCoef="0" IVar="-1" Cut="0.0000000000000000e+00" cType="1" res="7.1625099517405033e-03" rms="2.9772615432739258e-01" purity="6.9859737157821655e-01" nType="-99"/>
          <Node pos="r" depth="2" NCoef="0" IVar="-1" Cut="0.0000000000000000e+00" cType="1" res="1.9824039191007614e-02" rms="2.0866850018501282e-01" purity="9.2565953731536865e-01" nType="-99"/>
        </Node>
        <Node pos="r" depth="1" NCoef="0" IVar="0" Cut="4.6740512500000000e+05" cType="1" res="-5.3940960206091404e-03" rms="3.3746764063835144e-01" purity="4.1869899630546570e-01" nType="0">
          <Node pos="l" depth="2" NCoef="0" IVar="-1" Cut="0.0000000000000000e+00" cType="1" res="1.2998091988265514e-03" rms="3.4183922410011292e-01" purity="4.4384703040122986e-01" nType="-99"/>
          <Node pos="r" depth="2" NCoef="0" IVar="-1" Cut="0.0000000000000000e+00" cType="1" res="-1.9461933523416519e-02" rms="2.9879006743431091e-01" purity="2.5938197970390320e-01" nType="-99"/>
        </Node>
      </Node>
    </BinaryTree>
    <BinaryTree type="DecisionTree" boostWeight="1.0000000000000000e+00" itree="60">
      <Node pos="s" depth="0" NCoef="0" IVar="1" Cut="1.2714285850524902e+01" cType="1" res="1.0012384504079819e-02" rms="3.2161003351211548e-01" purity="4.9834182858467102e-01" nType="0">
        <Node pos="l" depth="1" NCoef="0" IVar="2" Cut="7.0925674438476562e+01" cType="1" res="-3.1019834801554680e-02" rms="2.6800948381423950e-01" purity="8.3586432039737701e-02" nType="0">
          <Node pos="l" depth="2" NCoef="0" IVar="-1" Cut="0.0000000000000000e+00" cType="1" res="-4.2837755754590034e-03" rms="3.4576946496963501e-01" purity="1.4288268983364105e-01" nType="-99"/>
